<?xml version="1.0"?>
<opencv_storage>
<stage5>
  <maxWeakCount>6</maxWeakCount>
  <stageThreshold>-1.2282708883285522e+00</stageThreshold>
  <weakClassifiers>
    <_>
      <internalNodes>
        0 -1 254205 -7.6020723208785057e-03</internalNodes>
      <leafValues>
        7.0242214202880859e-01 -3.9726027846336365e-01</leafValues></_>
    <_>
      <internalNodes>
        0 -1 710612 7.7134231105446815e-03</internalNodes>
      <leafValues>
        -5.3919732570648193e-01 5.3876644372940063e-01</leafValues></_>
    <_>
      <internalNodes>
        0 -1 489641 -4.5774318277835846e-04</internalNodes>
      <leafValues>
        -8.3950388431549072e-01 3.1334796547889709e-01</leafValues></_>
    <_>
      <internalNodes>
        0 -1 604544 4.5452769845724106e-03</internalNodes>
      <leafValues>
        -4.9391445517539978e-01 5.7461786270141602e-01</leafValues></_>
    <_>
      <internalNodes>
        0 -1 611355 -1.6440674662590027e-02</internalNodes>
      <leafValues>
        3.2332012057304382e-01 -7.6039832830429077e-01</leafValues></_>
    <_>
      <internalNodes>
        0 -1 18803 -2.4632238782942295e-03</internalNodes>
      <leafValues>
        6.8996077775955200e-01 -4.3456694483757019e-01</leafValues></_></weakClassifiers></stage5>
</opencv_storage>
