<?xml version="1.0"?>
<opencv_storage>
<stage3>
  <maxWeakCount>8</maxWeakCount>
  <stageThreshold>-9.5199555158615112e-01</stageThreshold>
  <weakClassifiers>
    <_>
      <internalNodes>
        0 -1 19063 -1.7726652324199677e-02</internalNodes>
      <leafValues>
        6.5674257278442383e-01 -5.8139532804489136e-01</leafValues></_>
    <_>
      <internalNodes>
        0 -1 41527 9.1529991477727890e-03</internalNodes>
      <leafValues>
        -3.2480978965759277e-01 8.1324595212936401e-01</leafValues></_>
    <_>
      <internalNodes>
        0 -1 41378 -2.6040770113468170e-02</internalNodes>
      <leafValues>
        8.0439651012420654e-01 -2.7281469106674194e-01</leafValues></_>
    <_>
      <internalNodes>
        0 -1 22612 2.8927609324455261e-02</internalNodes>
      <leafValues>
        -4.1922333836555481e-01 6.4670473337173462e-01</leafValues></_>
    <_>
      <internalNodes>
        0 -1 5851 -2.1666608750820160e-02</internalNodes>
      <leafValues>
        -7.9295325279235840e-01 3.5212790966033936e-01</leafValues></_>
    <_>
      <internalNodes>
        0 -1 17143 2.1270362194627523e-03</internalNodes>
      <leafValues>
        -4.7536182403564453e-01 4.9231401085853577e-01</leafValues></_>
    <_>
      <internalNodes>
        0 -1 42497 2.0192068070173264e-02</internalNodes>
      <leafValues>
        -5.6925982236862183e-01 4.5211240649223328e-01</leafValues></_>
    <_>
      <internalNodes>
        0 -1 22287 -2.0514815114438534e-03</internalNodes>
      <leafValues>
        -8.0779486894607544e-01 3.1736913323402405e-01</leafValues></_></weakClassifiers></stage3>
</opencv_storage>
