<?xml version="1.0"?>
<opencv_storage>
<stage10>
  <maxWeakCount>5</maxWeakCount>
  <stageThreshold>-6.2359863519668579e-01</stageThreshold>
  <weakClassifiers>
    <_>
      <internalNodes>
        0 -1 223863 -5.9537580236792564e-03</internalNodes>
      <leafValues>
        8.2608693838119507e-01 -3.3333334326744080e-01</leafValues></_>
    <_>
      <internalNodes>
        0 -1 432370 -6.4233271405100822e-04</internalNodes>
      <leafValues>
        -8.8363206386566162e-01 3.3461925387382507e-01</leafValues></_>
    <_>
      <internalNodes>
        0 -1 573965 -4.6645458787679672e-02</internalNodes>
      <leafValues>
        4.8451888561248779e-01 -4.9018988013267517e-01</leafValues></_>
    <_>
      <internalNodes>
        0 -1 72918 -4.1377160232514143e-04</internalNodes>
      <leafValues>
        3.8097575306892395e-01 -6.8228369951248169e-01</leafValues></_>
    <_>
      <internalNodes>
        0 -1 151209 -5.5742189288139343e-03</internalNodes>
      <leafValues>
        6.8761843442916870e-01 -4.2711973190307617e-01</leafValues></_></weakClassifiers></stage10>
</opencv_storage>
