<?xml version="1.0"?>
<opencv_storage>
<stage13>
  <maxWeakCount>10</maxWeakCount>
  <stageThreshold>-1.1318314075469971e+00</stageThreshold>
  <weakClassifiers>
    <_>
      <internalNodes>
        0 -1 29638 3.5262445453554392e-03</internalNodes>
      <leafValues>
        -4.9606299400329590e-01 3.8775509595870972e-01</leafValues></_>
    <_>
      <internalNodes>
        0 -1 1566 -1.8582690507173538e-02</internalNodes>
      <leafValues>
        7.6428890228271484e-01 -2.1339550614356995e-01</leafValues></_>
    <_>
      <internalNodes>
        0 -1 23018 -3.4631837625056505e-03</internalNodes>
      <leafValues>
        4.3518817424774170e-01 -2.9898828268051147e-01</leafValues></_>
    <_>
      <internalNodes>
        0 -1 3554 -1.5209239721298218e-01</internalNodes>
      <leafValues>
        7.7056181430816650e-01 -1.7520894110202789e-01</leafValues></_>
    <_>
      <internalNodes>
        0 -1 10627 -1.3755396008491516e-02</internalNodes>
      <leafValues>
        6.4660000801086426e-01 -2.3044651746749878e-01</leafValues></_>
    <_>
      <internalNodes>
        0 -1 12875 8.0845048651099205e-03</internalNodes>
      <leafValues>
        -9.4371587038040161e-02 8.1763607263565063e-01</leafValues></_>
    <_>
      <internalNodes>
        0 -1 12967 -2.3206786718219519e-03</internalNodes>
      <leafValues>
        5.5071723461151123e-01 -2.7167165279388428e-01</leafValues></_>
    <_>
      <internalNodes>
        0 -1 6803 -3.2657168805599213e-02</internalNodes>
      <leafValues>
        5.4115206003189087e-01 -2.8326806426048279e-01</leafValues></_>
    <_>
      <internalNodes>
        0 -1 27763 1.2799460091628134e-04</internalNodes>
      <leafValues>
        2.9922738671302795e-01 -5.4372411966323853e-01</leafValues></_>
    <_>
      <internalNodes>
        0 -1 1526 -4.1667954064905643e-03</internalNodes>
      <leafValues>
        6.3235479593276978e-01 -2.4261176586151123e-01</leafValues></_></weakClassifiers></stage13>
</opencv_storage>
