<?xml version="1.0"?>
<opencv_storage>
<stage2>
  <maxWeakCount>5</maxWeakCount>
  <stageThreshold>-1.0302238464355469e+00</stageThreshold>
  <weakClassifiers>
    <_>
      <internalNodes>
        0 -1 9455710 7.7348211780190468e-03</internalNodes>
      <leafValues>
        -6.8476355075836182e-01 8.3406114578247070e-01</leafValues></_>
    <_>
      <internalNodes>
        0 -1 3489941 -7.0196855813264847e-03</internalNodes>
      <leafValues>
        8.3546131849288940e-01 -5.0140088796615601e-01</leafValues></_>
    <_>
      <internalNodes>
        0 -1 11297712 3.1840342562645674e-03</internalNodes>
      <leafValues>
        -7.8899091482162476e-01 5.9600079059600830e-01</leafValues></_>
    <_>
      <internalNodes>
        0 -1 175727 -3.4538274630904198e-03</internalNodes>
      <leafValues>
        4.8852971196174622e-01 -7.4762320518493652e-01</leafValues></_>
    <_>
      <internalNodes>
        0 -1 8306919 -1.0424136416986585e-03</internalNodes>
      <leafValues>
        -8.6169630289077759e-01 4.5640179514884949e-01</leafValues></_></weakClassifiers></stage2>
</opencv_storage>
