<?xml version="1.0"?>
<opencv_storage>
<stage13>
  <maxWeakCount>10</maxWeakCount>
  <stageThreshold>-9.1810154914855957e-01</stageThreshold>
  <weakClassifiers>
    <_>
      <internalNodes>
        0 -1 30298 -9.6986955031752586e-04</internalNodes>
      <leafValues>
        -6.9230771064758301e-01 3.9853301644325256e-01</leafValues></_>
    <_>
      <internalNodes>
        0 -1 37963 -9.9195921793580055e-03</internalNodes>
      <leafValues>
        5.9248507022857666e-01 -3.0808463692665100e-01</leafValues></_>
    <_>
      <internalNodes>
        0 -1 39116 -1.4345329254865646e-02</internalNodes>
      <leafValues>
        6.2582755088806152e-01 -2.1116954088211060e-01</leafValues></_>
    <_>
      <internalNodes>
        0 -1 37178 -2.2666100412607193e-02</internalNodes>
      <leafValues>
        5.0581032037734985e-01 -3.4227138757705688e-01</leafValues></_>
    <_>
      <internalNodes>
        0 -1 10339 3.1512451171875000e-01</internalNodes>
      <leafValues>
        -2.9918250441551208e-01 6.8700164556503296e-01</leafValues></_>
    <_>
      <internalNodes>
        0 -1 39404 -2.1985401399433613e-03</internalNodes>
      <leafValues>
        4.3693098425865173e-01 -4.2900413274765015e-01</leafValues></_>
    <_>
      <internalNodes>
        0 -1 23357 -8.6013996042311192e-04</internalNodes>
      <leafValues>
        -7.1541708707809448e-01 2.6876196265220642e-01</leafValues></_>
    <_>
      <internalNodes>
        0 -1 7360 -1.3999260962009430e-02</internalNodes>
      <leafValues>
        6.1575680971145630e-01 -2.5627014040946960e-01</leafValues></_>
    <_>
      <internalNodes>
        0 -1 1594 -2.1388827264308929e-01</internalNodes>
      <leafValues>
        5.5767899751663208e-01 -2.9015094041824341e-01</leafValues></_>
    <_>
      <internalNodes>
        0 -1 18730 -1.2141817808151245e-01</internalNodes>
      <leafValues>
        5.5059146881103516e-01 -2.9709315299987793e-01</leafValues></_></weakClassifiers></stage13>
</opencv_storage>
