<?xml version="1.0"?>
<opencv_storage>
<cascade>
  <stageType>BOOST</stageType>
  <featureType>HAAR</featureType>
  <height>10</height>
  <width>25</width>
  <stageParams>
    <boostType>GAB</boostType>
    <minHitRate>9.9500000476837158e-01</minHitRate>
    <maxFalseAlarm>5.0000000000000000e-01</maxFalseAlarm>
    <weightTrimRate>9.4999999999999996e-01</weightTrimRate>
    <maxDepth>1</maxDepth>
    <maxWeakCount>100</maxWeakCount></stageParams>
  <featureParams>
    <maxCatCount>0</maxCatCount>
    <featSize>1</featSize>
    <mode>BASIC</mode></featureParams>
  <stageNum>18</stageNum>
  <stages>
    <!-- stage 0 -->
    <_>
      <maxWeakCount>5</maxWeakCount>
      <stageThreshold>-6.7145889997482300e-01</stageThreshold>
      <weakClassifiers>
        <_>
          <internalNodes>
            0 -1 52 -6.9018021225929260e-02</internalNodes>
          <leafValues>
            6.3688760995864868e-01 -7.9084968566894531e-01</leafValues></_>
        <_>
          <internalNodes>
            0 -1 112 8.3414046093821526e-03</internalNodes>
          <leafValues>
            -6.7540091276168823e-01 5.9510540962219238e-01</leafValues></_>
        <_>
          <internalNodes>
            0 -1 6 -1.2479827739298344e-02</internalNodes>
          <leafValues>
            7.4507313966751099e-01 -5.0382524728775024e-01</leafValues></_>
        <_>
          <internalNodes>
            0 -1 26 -6.1443513259291649e-03</internalNodes>
          <leafValues>
            4.3791589140892029e-01 -8.2241374254226685e-01</leafValues></_>
        <_>
          <internalNodes>
            0 -1 56 -2.4042613804340363e-02</internalNodes>
          <leafValues>
            8.8348656892776489e-01 -4.0980529785156250e-01</leafValues></_></weakClassifiers></_>
    <!-- stage 1 -->
    <_>
      <maxWeakCount>6</maxWeakCount>
      <stageThreshold>-8.0972617864608765e-01</stageThreshold>
      <weakClassifiers>
        <_>
          <internalNodes>
            0 -1 93 -4.5706577599048615e-02</internalNodes>
          <leafValues>
            7.4736839532852173e-01 -5.2558141946792603e-01</leafValues></_>
        <_>
          <internalNodes>
            0 -1 39 -5.4403338581323624e-03</internalNodes>
          <leafValues>
            7.4054151773452759e-01 -5.2405643463134766e-01</leafValues></_>
        <_>
          <internalNodes>
            0 -1 7 -1.0600925423204899e-02</internalNodes>
          <leafValues>
            6.8511301279067993e-01 -4.9196755886077881e-01</leafValues></_>
        <_>
          <internalNodes>
            0 -1 96 1.4399120584130287e-02</internalNodes>
          <leafValues>
            -4.3058899044990540e-01 7.3446112871170044e-01</leafValues></_>
        <_>
          <internalNodes>
            0 -1 106 -9.7204595804214478e-03</internalNodes>
          <leafValues>
            9.1661632061004639e-01 -3.6845752596855164e-01</leafValues></_>
        <_>
          <internalNodes>
            0 -1 20 4.2331110686063766e-02</internalNodes>
          <leafValues>
            3.6587557196617126e-01 -9.9498218297958374e-01</leafValues></_></weakClassifiers></_>
    <!-- stage 2 -->
    <_>
      <maxWeakCount>4</maxWeakCount>
      <stageThreshold>-5.7788419723510742e-01</stageThreshold>
      <weakClassifiers>
        <_>
          <internalNodes>
            0 -1 41 -6.2740445137023926e-03</internalNodes>
          <leafValues>
            7.9922777414321899e-01 -4.4398340582847595e-01</leafValues></_>
        <_>
          <internalNodes>
            0 -1 54 -6.3070923089981079e-02</internalNodes>
          <leafValues>
            9.0486568212509155e-01 -2.7222502231597900e-01</leafValues></_>
        <_>
          <internalNodes>
            0 -1 3 -1.9042214844375849e-03</internalNodes>
          <leafValues>
            6.1873579025268555e-01 -5.8558797836303711e-01</leafValues></_>
        <_>
          <internalNodes>
            0 -1 32 7.6781079173088074e-02</internalNodes>
          <leafValues>
            -4.2289686203002930e-01 7.2391217947006226e-01</leafValues></_></weakClassifiers></_>
    <!-- stage 3 -->
    <_>
      <maxWeakCount>5</maxWeakCount>
      <stageThreshold>-5.6822907924652100e-01</stageThreshold>
      <weakClassifiers>
        <_>
          <internalNodes>
            0 -1 99 -5.7655116543173790e-03</internalNodes>
          <leafValues>
            6.8683272600173950e-01 -4.2465752363204956e-01</leafValues></_>
        <_>
          <internalNodes>
            0 -1 38 1.2705020606517792e-02</internalNodes>
          <leafValues>
            -4.7053575515747070e-01 6.5246462821960449e-01</leafValues></_>
        <_>
          <internalNodes>
            0 -1 86 2.4020541459321976e-03</internalNodes>
          <leafValues>
            -6.7650902271270752e-01 4.0652891993522644e-01</leafValues></_>
        <_>
          <internalNodes>
            0 -1 83 3.3069349825382233e-02</internalNodes>
          <leafValues>
            -4.2517098784446716e-01 7.8012228012084961e-01</leafValues></_>
        <_>
          <internalNodes>
            0 -1 48 -6.1778597533702850e-02</internalNodes>
          <leafValues>
            -7.3376262187957764e-01 3.4560626745223999e-01</leafValues></_></weakClassifiers></_>
    <!-- stage 4 -->
    <_>
      <maxWeakCount>5</maxWeakCount>
      <stageThreshold>-7.6249963045120239e-01</stageThreshold>
      <weakClassifiers>
        <_>
          <internalNodes>
            0 -1 114 3.1037665903568268e-03</internalNodes>
          <leafValues>
            -6.4102566242218018e-01 5.8139532804489136e-01</leafValues></_>
        <_>
          <internalNodes>
            0 -1 90 6.9786487147212029e-03</internalNodes>
          <leafValues>
            -5.0336009263992310e-01 5.8761137723922729e-01</leafValues></_>
        <_>
          <internalNodes>
            0 -1 30 -4.7306090593338013e-02</internalNodes>
          <leafValues>
            8.5194003582000732e-01 -3.5081896185874939e-01</leafValues></_>
        <_>
          <internalNodes>
            0 -1 66 2.7386704459786415e-03</internalNodes>
          <leafValues>
            3.4452158212661743e-01 -9.3384093046188354e-01</leafValues></_>
        <_>
          <internalNodes>
            0 -1 10 -3.0599576421082020e-03</internalNodes>
          <leafValues>
            3.8818350434303284e-01 -6.4401942491531372e-01</leafValues></_></weakClassifiers></_>
    <!-- stage 5 -->
    <_>
      <maxWeakCount>6</maxWeakCount>
      <stageThreshold>-9.4484955072402954e-01</stageThreshold>
      <weakClassifiers>
        <_>
          <internalNodes>
            0 -1 98 -2.2715371102094650e-02</internalNodes>
          <leafValues>
            8.7878787517547607e-01 -2.4503311514854431e-01</leafValues></_>
        <_>
          <internalNodes>
            0 -1 42 -3.8690273649990559e-03</internalNodes>
          <leafValues>
            5.3698533773422241e-01 -4.9764955043792725e-01</leafValues></_>
        <_>
          <internalNodes>
            0 -1 67 -3.0714119784533978e-03</internalNodes>
          <leafValues>
            -8.1186461448669434e-01 3.0616697669029236e-01</leafValues></_>
        <_>
          <internalNodes>
            0 -1 53 5.8985471725463867e-02</internalNodes>
          <leafValues>
            -4.0695604681968689e-01 6.7132908105850220e-01</leafValues></_>
        <_>
          <internalNodes>
            0 -1 117 5.6379041634500027e-03</internalNodes>
          <leafValues>
            -4.0418380498886108e-01 5.6304079294204712e-01</leafValues></_>
        <_>
          <internalNodes>
            0 -1 72 -5.2192276343703270e-03</internalNodes>
          <leafValues>
            -9.1843593120574951e-01 3.0280598998069763e-01</leafValues></_></weakClassifiers></_>
    <!-- stage 6 -->
    <_>
      <maxWeakCount>7</maxWeakCount>
      <stageThreshold>-6.7734491825103760e-01</stageThreshold>
      <weakClassifiers>
        <_>
          <internalNodes>
            0 -1 34 -9.1565027832984924e-03</internalNodes>
          <leafValues>
            6.4912283420562744e-01 -3.9534884691238403e-01</leafValues></_>
        <_>
          <internalNodes>
            0 -1 111 1.6265280544757843e-02</internalNodes>
          <leafValues>
            -4.8134747147560120e-01 4.8568308353424072e-01</leafValues></_>
        <_>
          <internalNodes>
            0 -1 0 -1.7170246690511703e-02</internalNodes>
          <leafValues>
            5.1556354761123657e-01 -4.8919546604156494e-01</leafValues></_>
        <_>
          <internalNodes>
            0 -1 45 -8.2693556323647499e-03</internalNodes>
          <leafValues>
            4.9080401659011841e-01 -4.1299706697463989e-01</leafValues></_>
        <_>
          <internalNodes>
            0 -1 16 -2.4277871847152710e-01</internalNodes>
          <leafValues>
            4.2115497589111328e-01 -5.3446215391159058e-01</leafValues></_>
        <_>
          <internalNodes>
            0 -1 68 3.3189393579959869e-03</internalNodes>
          <leafValues>
            3.1628099083900452e-01 -6.7489945888519287e-01</leafValues></_>
        <_>
          <internalNodes>
            0 -1 121 2.6387269608676434e-03</internalNodes>
          <leafValues>
            -5.3969311714172363e-01 4.0047708153724670e-01</leafValues></_></weakClassifiers></_>
    <!-- stage 7 -->
    <_>
      <maxWeakCount>8</maxWeakCount>
      <stageThreshold>-7.1193337440490723e-01</stageThreshold>
      <weakClassifiers>
        <_>
          <internalNodes>
            0 -1 101 8.9367944747209549e-03</internalNodes>
          <leafValues>
            -2.3905724287033081e-01 8.4236454963684082e-01</leafValues></_>
        <_>
          <internalNodes>
            0 -1 40 1.7429813742637634e-03</internalNodes>
          <leafValues>
            -4.6551367640495300e-01 4.6367636322975159e-01</leafValues></_>
        <_>
          <internalNodes>
            0 -1 19 -1.1217098683118820e-01</internalNodes>
          <leafValues>
            7.8796768188476562e-01 -2.6658722758293152e-01</leafValues></_>
        <_>
          <internalNodes>
            0 -1 92 -4.7077955678105354e-03</internalNodes>
          <leafValues>
            3.1532660126686096e-01 -6.6705822944641113e-01</leafValues></_>
        <_>
          <internalNodes>
            0 -1 4 -3.6248927935957909e-03</internalNodes>
          <leafValues>
            3.7041109800338745e-01 -4.9990889430046082e-01</leafValues></_>
        <_>
          <internalNodes>
            0 -1 65 -2.8196498751640320e-02</internalNodes>
          <leafValues>
            6.0386270284652710e-01 -3.0902373790740967e-01</leafValues></_>
        <_>
          <internalNodes>
            0 -1 113 -1.4509204775094986e-02</internalNodes>
          <leafValues>
            5.2495115995407104e-01 -3.4415441751480103e-01</leafValues></_>
        <_>
          <internalNodes>
            0 -1 73 1.5563202323392034e-03</internalNodes>
          <leafValues>
            2.2666525840759277e-01 -8.2009768486022949e-01</leafValues></_></weakClassifiers></_>
    <!-- stage 8 -->
    <_>
      <maxWeakCount>7</maxWeakCount>
      <stageThreshold>-5.2161288261413574e-01</stageThreshold>
      <weakClassifiers>
        <_>
          <internalNodes>
            0 -1 17 -3.2190933823585510e-02</internalNodes>
          <leafValues>
            5.0285714864730835e-01 -5.0666666030883789e-01</leafValues></_>
        <_>
          <internalNodes>
            0 -1 100 5.5349525064229965e-03</internalNodes>
          <leafValues>
            -3.4729108214378357e-01 6.6718387603759766e-01</leafValues></_>
        <_>
          <internalNodes>
            0 -1 89 1.2267373967915773e-03</internalNodes>
          <leafValues>
            2.3793764412403107e-01 -9.6373289823532104e-01</leafValues></_>
        <_>
          <internalNodes>
            0 -1 107 1.4749104157090187e-03</internalNodes>
          <leafValues>
            -6.7256271839141846e-01 2.7059739828109741e-01</leafValues></_>
        <_>
          <internalNodes>
            0 -1 5 -7.8281713649630547e-03</internalNodes>
          <leafValues>
            3.7065711617469788e-01 -5.2726411819458008e-01</leafValues></_>
        <_>
          <internalNodes>
            0 -1 70 -5.8964500203728676e-04</internalNodes>
          <leafValues>
            -7.3859637975692749e-01 2.8294914960861206e-01</leafValues></_>
        <_>
          <internalNodes>
            0 -1 123 -1.2507820792961866e-04</internalNodes>
          <leafValues>
            -8.1091517210006714e-01 1.9174908101558685e-01</leafValues></_></weakClassifiers></_>
    <!-- stage 9 -->
    <_>
      <maxWeakCount>11</maxWeakCount>
      <stageThreshold>-1.0574389696121216e+00</stageThreshold>
      <weakClassifiers>
        <_>
          <internalNodes>
            0 -1 90 6.1927256174385548e-03</internalNodes>
          <leafValues>
            -4.0404039621353149e-01 5.9602648019790649e-01</leafValues></_>
        <_>
          <internalNodes>
            0 -1 105 1.8965022638440132e-02</internalNodes>
          <leafValues>
            -4.7711056470870972e-01 3.7344023585319519e-01</leafValues></_>
        <_>
          <internalNodes>
            0 -1 74 3.3470578491687775e-03</internalNodes>
          <leafValues>
            2.2633200883865356e-01 -7.4532538652420044e-01</leafValues></_>
        <_>
          <internalNodes>
            0 -1 104 4.2926736176013947e-02</internalNodes>
          <leafValues>
            -2.6008370518684387e-01 6.8414694070816040e-01</leafValues></_>
        <_>
          <internalNodes>
            0 -1 10 -2.9974055942147970e-03</internalNodes>
          <leafValues>
            3.0439859628677368e-01 -5.6473863124847412e-01</leafValues></_>
        <_>
          <internalNodes>
            0 -1 75 -7.4408049695193768e-03</internalNodes>
          <leafValues>
            -7.8825908899307251e-01 1.6880053281784058e-01</leafValues></_>
        <_>
          <internalNodes>
            0 -1 8 -3.6272652447223663e-02</internalNodes>
          <leafValues>
            3.1417277455329895e-01 -4.4988441467285156e-01</leafValues></_>
        <_>
          <internalNodes>
            0 -1 47 -1.3507956638932228e-02</internalNodes>
          <leafValues>
            4.8142755031585693e-01 -3.7594589591026306e-01</leafValues></_>
        <_>
          <internalNodes>
            0 -1 1 -3.1526591628789902e-03</internalNodes>
          <leafValues>
            4.3985334038734436e-01 -3.7656697630882263e-01</leafValues></_>
        <_>
          <internalNodes>
            0 -1 84 -3.8891599979251623e-03</internalNodes>
          <leafValues>
            4.0686014294624329e-01 -4.1080418229103088e-01</leafValues></_>
        <_>
          <internalNodes>
            0 -1 61 -2.7022378053516150e-03</internalNodes>
          <leafValues>
            -6.6891121864318848e-01 2.4517263472080231e-01</leafValues></_></weakClassifiers></_>
    <!-- stage 10 -->
    <_>
      <maxWeakCount>9</maxWeakCount>
      <stageThreshold>-3.8524186611175537e-01</stageThreshold>
      <weakClassifiers>
        <_>
          <internalNodes>
            0 -1 106 -8.4506906569004059e-03</internalNodes>
          <leafValues>
            6.8644070625305176e-01 -2.3484848439693451e-01</leafValues></_>
        <_>
          <internalNodes>
            0 -1 57 -1.2108598835766315e-02</internalNodes>
          <leafValues>
            3.1222081184387207e-01 -6.8515098094940186e-01</leafValues></_>
        <_>
          <internalNodes>
            0 -1 45 -2.2071428596973419e-02</internalNodes>
          <leafValues>
            7.3966258764266968e-01 -2.5653734803199768e-01</leafValues></_>
        <_>
          <internalNodes>
            0 -1 50 3.8154791109263897e-03</internalNodes>
          <leafValues>
            -2.6234018802642822e-01 7.2071844339370728e-01</leafValues></_>
        <_>
          <internalNodes>
            0 -1 62 -2.4373242631554604e-03</internalNodes>
          <leafValues>
            -6.4735949039459229e-01 3.3779603242874146e-01</leafValues></_>
        <_>
          <internalNodes>
            0 -1 11 4.6467453241348267e-02</internalNodes>
          <leafValues>
            -3.7660780549049377e-01 4.7748786211013794e-01</leafValues></_>
        <_>
          <internalNodes>
            0 -1 116 8.0041441833600402e-05</internalNodes>
          <leafValues>
            -6.4043128490447998e-01 2.5934591889381409e-01</leafValues></_>
        <_>
          <internalNodes>
            0 -1 33 -1.0658517479896545e-02</internalNodes>
          <leafValues>
            3.5277798771858215e-01 -5.2453994750976562e-01</leafValues></_>
        <_>
          <internalNodes>
            0 -1 94 1.4904390554875135e-03</internalNodes>
          <leafValues>
            -3.7864246964454651e-01 5.1378828287124634e-01</leafValues></_></weakClassifiers></_>
    <!-- stage 11 -->
    <_>
      <maxWeakCount>7</maxWeakCount>
      <stageThreshold>-1.2478061914443970e+00</stageThreshold>
      <weakClassifiers>
        <_>
          <internalNodes>
            0 -1 85 -1.1448405712144449e-04</internalNodes>
          <leafValues>
            -3.4054052829742432e-01 5.1746034622192383e-01</leafValues></_>
        <_>
          <internalNodes>
            0 -1 51 -6.0802120715379715e-03</internalNodes>
          <leafValues>
            6.9215464591979980e-01 -2.5217947363853455e-01</leafValues></_>
        <_>
          <internalNodes>
            0 -1 14 -1.6626673936843872e-01</internalNodes>
          <leafValues>
            3.1188315153121948e-01 -6.3192379474639893e-01</leafValues></_>
        <_>
          <internalNodes>
            0 -1 118 1.1009262874722481e-02</internalNodes>
          <leafValues>
            -3.2332983613014221e-01 5.6838184595108032e-01</leafValues></_>
        <_>
          <internalNodes>
            0 -1 31 4.0376842953264713e-03</internalNodes>
          <leafValues>
            2.7855730056762695e-01 -6.7280387878417969e-01</leafValues></_>
        <_>
          <internalNodes>
            0 -1 103 1.0367141664028168e-01</internalNodes>
          <leafValues>
            -3.1633433699607849e-01 6.0570597648620605e-01</leafValues></_>
        <_>
          <internalNodes>
            0 -1 110 1.1127235367894173e-02</internalNodes>
          <leafValues>
            -6.0638970136642456e-01 2.8810811042785645e-01</leafValues></_></weakClassifiers></_>
    <!-- stage 12 -->
    <_>
      <maxWeakCount>8</maxWeakCount>
      <stageThreshold>-9.4206881523132324e-01</stageThreshold>
      <weakClassifiers>
        <_>
          <internalNodes>
            0 -1 64 1.1262470856308937e-02</internalNodes>
          <leafValues>
            -2.2178988158702850e-01 6.4609050750732422e-01</leafValues></_>
        <_>
          <internalNodes>
            0 -1 43 4.3194685131311417e-03</internalNodes>
          <leafValues>
            -3.2578948140144348e-01 6.8081831932067871e-01</leafValues></_>
        <_>
          <internalNodes>
            0 -1 36 5.5434620007872581e-03</internalNodes>
          <leafValues>
            -2.6903095841407776e-01 8.0072063207626343e-01</leafValues></_>
        <_>
          <internalNodes>
            0 -1 69 -8.5159372538328171e-03</internalNodes>
          <leafValues>
            -7.8149271011352539e-01 3.0148643255233765e-01</leafValues></_>
        <_>
          <internalNodes>
            0 -1 22 1.9392905756831169e-02</internalNodes>
          <leafValues>
            -3.2666385173797607e-01 6.2406951189041138e-01</leafValues></_>
        <_>
          <internalNodes>
            0 -1 82 -2.9286236967891455e-03</internalNodes>
          <leafValues>
            -5.7447725534439087e-01 2.8898224234580994e-01</leafValues></_>
        <_>
          <internalNodes>
            0 -1 59 -2.5253763888031244e-03</internalNodes>
          <leafValues>
            -7.9984080791473389e-01 2.0480386912822723e-01</leafValues></_>
        <_>
          <internalNodes>
            0 -1 35 -9.0492554008960724e-03</internalNodes>
          <leafValues>
            3.1588351726531982e-01 -5.1769578456878662e-01</leafValues></_></weakClassifiers></_>
    <!-- stage 13 -->
    <_>
      <maxWeakCount>10</maxWeakCount>
      <stageThreshold>-8.6878305673599243e-01</stageThreshold>
      <weakClassifiers>
        <_>
          <internalNodes>
            0 -1 34 -8.1444531679153442e-03</internalNodes>
          <leafValues>
            5.1419556140899658e-01 -3.4426230192184448e-01</leafValues></_>
        <_>
          <internalNodes>
            0 -1 81 -5.1542888395488262e-03</internalNodes>
          <leafValues>
            -6.9786810874938965e-01 2.4807626008987427e-01</leafValues></_>
        <_>
          <internalNodes>
            0 -1 63 -1.2318911030888557e-03</internalNodes>
          <leafValues>
            -7.7848136425018311e-01 1.9916501641273499e-01</leafValues></_>
        <_>
          <internalNodes>
            0 -1 24 -1.1415188200771809e-02</internalNodes>
          <leafValues>
            4.5079356431961060e-01 -3.4818109869956970e-01</leafValues></_>
        <_>
          <internalNodes>
            0 -1 97 1.0717719793319702e-02</internalNodes>
          <leafValues>
            -2.9472622275352478e-01 5.0506657361984253e-01</leafValues></_>
        <_>
          <internalNodes>
            0 -1 46 -3.5341426730155945e-02</internalNodes>
          <leafValues>
            3.3844032883644104e-01 -4.3267756700515747e-01</leafValues></_>
        <_>
          <internalNodes>
            0 -1 79 -1.2780546676367521e-03</internalNodes>
          <leafValues>
            -7.1973025798797607e-01 2.1773220598697662e-01</leafValues></_>
        <_>
          <internalNodes>
            0 -1 55 -5.6330617517232895e-03</internalNodes>
          <leafValues>
            4.8220834136009216e-01 -3.6756014823913574e-01</leafValues></_>
        <_>
          <internalNodes>
            0 -1 21 -5.8423378504812717e-04</internalNodes>
          <leafValues>
            2.9327231645584106e-01 -5.8585661649703979e-01</leafValues></_>
        <_>
          <internalNodes>
            0 -1 58 -1.1652530170977116e-02</internalNodes>
          <leafValues>
            -6.4515000581741333e-01 2.2289888560771942e-01</leafValues></_></weakClassifiers></_>
    <!-- stage 14 -->
    <_>
      <maxWeakCount>9</maxWeakCount>
      <stageThreshold>-1.0530952215194702e+00</stageThreshold>
      <weakClassifiers>
        <_>
          <internalNodes>
            0 -1 100 7.1545317769050598e-03</internalNodes>
          <leafValues>
            -1.2460064142942429e-01 7.4331551790237427e-01</leafValues></_>
        <_>
          <internalNodes>
            0 -1 49 4.1733263060450554e-03</internalNodes>
          <leafValues>
            -2.9662394523620605e-01 5.1260477304458618e-01</leafValues></_>
        <_>
          <internalNodes>
            0 -1 23 1.0309804975986481e-01</internalNodes>
          <leafValues>
            -2.3880197107791901e-01 6.3267892599105835e-01</leafValues></_>
        <_>
          <internalNodes>
            0 -1 13 -4.9704834818840027e-02</internalNodes>
          <leafValues>
            4.6861714124679565e-01 -4.3214368820190430e-01</leafValues></_>
        <_>
          <internalNodes>
            0 -1 122 3.5418715560808778e-04</internalNodes>
          <leafValues>
            -6.9735223054885864e-01 2.5921460986137390e-01</leafValues></_>
        <_>
          <internalNodes>
            0 -1 28 -6.2962099909782410e-02</internalNodes>
          <leafValues>
            -7.3172950744628906e-01 2.3126572370529175e-01</leafValues></_>
        <_>
          <internalNodes>
            0 -1 87 2.8195720165967941e-02</internalNodes>
          <leafValues>
            -3.3074671030044556e-01 6.1496448516845703e-01</leafValues></_>
        <_>
          <internalNodes>
            0 -1 80 1.9409636734053493e-03</internalNodes>
          <leafValues>
            2.2561705112457275e-01 -8.5426825284957886e-01</leafValues></_>
        <_>
          <internalNodes>
            0 -1 88 -9.5795728266239166e-03</internalNodes>
          <leafValues>
            4.7637560963630676e-01 -3.4627559781074524e-01</leafValues></_></weakClassifiers></_>
    <!-- stage 15 -->
    <_>
      <maxWeakCount>8</maxWeakCount>
      <stageThreshold>-6.2734204530715942e-01</stageThreshold>
      <weakClassifiers>
        <_>
          <internalNodes>
            0 -1 78 5.2343886345624924e-03</internalNodes>
          <leafValues>
            -4.3030303716659546e-01 5.1044774055480957e-01</leafValues></_>
        <_>
          <internalNodes>
            0 -1 44 9.2222178354859352e-03</internalNodes>
          <leafValues>
            -2.7334132790565491e-01 7.1048241853713989e-01</leafValues></_>
        <_>
          <internalNodes>
            0 -1 95 5.0913165323436260e-03</internalNodes>
          <leafValues>
            -4.7110703587532043e-01 4.2290717363357544e-01</leafValues></_>
        <_>
          <internalNodes>
            0 -1 25 4.3189186602830887e-02</internalNodes>
          <leafValues>
            -2.8176406025886536e-01 6.3014298677444458e-01</leafValues></_>
        <_>
          <internalNodes>
            0 -1 119 -2.0041225943714380e-03</internalNodes>
          <leafValues>
            4.9997949600219727e-01 -3.7749099731445312e-01</leafValues></_>
        <_>
          <internalNodes>
            0 -1 29 -8.1610344350337982e-03</internalNodes>
          <leafValues>
            5.2679419517517090e-01 -4.3043276667594910e-01</leafValues></_>
        <_>
          <internalNodes>
            0 -1 109 -2.1430563647300005e-03</internalNodes>
          <leafValues>
            -8.1586271524429321e-01 2.3462937772274017e-01</leafValues></_>
        <_>
          <internalNodes>
            0 -1 2 -6.3296388834714890e-03</internalNodes>
          <leafValues>
            5.0845360755920410e-01 -3.5080114006996155e-01</leafValues></_></weakClassifiers></_>
    <!-- stage 16 -->
    <_>
      <maxWeakCount>8</maxWeakCount>
      <stageThreshold>-1.0956538915634155e+00</stageThreshold>
      <weakClassifiers>
        <_>
          <internalNodes>
            0 -1 102 2.7152616530656815e-03</internalNodes>
          <leafValues>
            -2.0634920895099640e-01 6.1290323734283447e-01</leafValues></_>
        <_>
          <internalNodes>
            0 -1 15 5.9450969099998474e-02</internalNodes>
          <leafValues>
            -4.0349403023719788e-01 5.1815569400787354e-01</leafValues></_>
        <_>
          <internalNodes>
            0 -1 71 2.3357062600553036e-03</internalNodes>
          <leafValues>
            2.4439080059528351e-01 -8.3799302577972412e-01</leafValues></_>
        <_>
          <internalNodes>
            0 -1 18 -3.2365735620260239e-02</internalNodes>
          <leafValues>
            -6.8490529060363770e-01 2.4460496008396149e-01</leafValues></_>
        <_>
          <internalNodes>
            0 -1 115 -1.6184701235033572e-04</internalNodes>
          <leafValues>
            3.1222245097160339e-01 -4.9021768569946289e-01</leafValues></_>
        <_>
          <internalNodes>
            0 -1 76 3.0899127945303917e-02</internalNodes>
          <leafValues>
            -3.6739009618759155e-01 4.2377293109893799e-01</leafValues></_>
        <_>
          <internalNodes>
            0 -1 77 1.3691439526155591e-03</internalNodes>
          <leafValues>
            2.5440353155136108e-01 -6.6009652614593506e-01</leafValues></_>
        <_>
          <internalNodes>
            0 -1 91 -8.7877213954925537e-03</internalNodes>
          <leafValues>
            4.0927648544311523e-01 -3.7875181436538696e-01</leafValues></_></weakClassifiers></_>
    <!-- stage 17 -->
    <_>
      <maxWeakCount>8</maxWeakCount>
      <stageThreshold>-7.0218575000762939e-01</stageThreshold>
      <weakClassifiers>
        <_>
          <internalNodes>
            0 -1 42 -6.7080222070217133e-03</internalNodes>
          <leafValues>
            5.4545456171035767e-01 -3.5416665673255920e-01</leafValues></_>
        <_>
          <internalNodes>
            0 -1 108 7.3722102679312229e-03</internalNodes>
          <leafValues>
            -3.5626462101936340e-01 4.7229847311973572e-01</leafValues></_>
        <_>
          <internalNodes>
            0 -1 9 -5.4976262617856264e-04</internalNodes>
          <leafValues>
            2.9599547386169434e-01 -6.6281247138977051e-01</leafValues></_>
        <_>
          <internalNodes>
            0 -1 60 -1.0487654246389866e-02</internalNodes>
          <leafValues>
            4.3571454286575317e-01 -4.7135332226753235e-01</leafValues></_>
        <_>
          <internalNodes>
            0 -1 27 -1.3434177264571190e-02</internalNodes>
          <leafValues>
            7.6540666818618774e-01 -2.5535103678703308e-01</leafValues></_>
        <_>
          <internalNodes>
            0 -1 12 2.8204429894685745e-02</internalNodes>
          <leafValues>
            -3.8712945580482483e-01 4.0294921398162842e-01</leafValues></_>
        <_>
          <internalNodes>
            0 -1 120 5.9510618448257446e-03</internalNodes>
          <leafValues>
            -2.3644173145294189e-01 7.2301048040390015e-01</leafValues></_>
        <_>
          <internalNodes>
            0 -1 37 2.1973323076963425e-02</internalNodes>
          <leafValues>
            2.3396250605583191e-01 -8.6800360679626465e-01</leafValues></_></weakClassifiers></_></stages>
  <features>
    <_>
      <rects>
        <_>
          0 0 4 10 -1.</_>
        <_>
          0 0 2 5 2.</_>
        <_>
          2 5 2 5 2.</_></rects>
      <tilted>0</tilted></_>
    <_>
      <rects>
        <_>
          0 5 3 3 -1.</_>
        <_>
          1 5 1 3 3.</_></rects>
      <tilted>0</tilted></_>
    <_>
      <rects>
        <_>
          0 6 2 2 -1.</_>
        <_>
          1 6 1 2 2.</_></rects>
      <tilted>0</tilted></_>
    <_>
      <rects>
        <_>
          0 7 2 2 -1.</_>
        <_>
          1 7 1 2 2.</_></rects>
      <tilted>0</tilted></_>
    <_>
      <rects>
        <_>
          0 7 2 3 -1.</_>
        <_>
          1 7 1 3 2.</_></rects>
      <tilted>0</tilted></_>
    <_>
      <rects>
        <_>
          0 7 4 2 -1.</_>
        <_>
          2 7 2 2 2.</_></rects>
      <tilted>0</tilted></_>
    <_>
      <rects>
        <_>
          0 7 6 2 -1.</_>
        <_>
          2 7 2 2 3.</_></rects>
      <tilted>0</tilted></_>
    <_>
      <rects>
        <_>
          0 7 4 3 -1.</_>
        <_>
          2 7 2 3 2.</_></rects>
      <tilted>0</tilted></_>
    <_>
      <rects>
        <_>
          0 7 15 3 -1.</_>
        <_>
          0 8 15 1 3.</_></rects>
      <tilted>0</tilted></_>
    <_>
      <rects>
        <_>
          0 8 2 2 -1.</_>
        <_>
          1 8 1 2 2.</_></rects>
      <tilted>0</tilted></_>
    <_>
      <rects>
        <_>
          0 8 4 1 -1.</_>
        <_>
          2 8 2 1 2.</_></rects>
      <tilted>0</tilted></_>
    <_>
      <rects>
        <_>
          0 8 16 2 -1.</_>
        <_>
          0 9 16 1 2.</_></rects>
      <tilted>0</tilted></_>
    <_>
      <rects>
        <_>
          1 1 3 6 -1.</_>
        <_>
          1 3 3 2 3.</_></rects>
      <tilted>0</tilted></_>
    <_>
      <rects>
        <_>
          1 3 5 4 -1.</_>
        <_>
          1 5 5 2 2.</_></rects>
      <tilted>0</tilted></_>
    <_>
      <rects>
        <_>
          1 3 20 6 -1.</_>
        <_>
          1 6 20 3 2.</_></rects>
      <tilted>0</tilted></_>
    <_>
      <rects>
        <_>
          1 3 21 3 -1.</_>
        <_>
          1 4 21 1 3.</_></rects>
      <tilted>0</tilted></_>
    <_>
      <rects>
        <_>
          1 3 24 6 -1.</_>
        <_>
          1 6 24 3 2.</_></rects>
      <tilted>0</tilted></_>
    <_>
      <rects>
        <_>
          1 4 6 6 -1.</_>
        <_>
          1 6 6 2 3.</_></rects>
      <tilted>0</tilted></_>
    <_>
      <rects>
        <_>
          1 6 24 1 -1.</_>
        <_>
          9 6 8 1 3.</_></rects>
      <tilted>0</tilted></_>
    <_>
      <rects>
        <_>
          1 7 17 3 -1.</_>
        <_>
          1 8 17 1 3.</_></rects>
      <tilted>0</tilted></_>
    <_>
      <rects>
        <_>
          1 8 20 2 -1.</_>
        <_>
          11 8 10 2 2.</_></rects>
      <tilted>0</tilted></_>
    <_>
      <rects>
        <_>
          1 9 6 1 -1.</_>
        <_>
          4 9 3 1 2.</_></rects>
      <tilted>0</tilted></_>
    <_>
      <rects>
        <_>
          2 0 17 2 -1.</_>
        <_>
          2 1 17 1 2.</_></rects>
      <tilted>0</tilted></_>
    <_>
      <rects>
        <_>
          2 2 6 6 -1.</_>
        <_>
          2 4 6 2 3.</_></rects>
      <tilted>0</tilted></_>
    <_>
      <rects>
        <_>
          2 2 14 2 -1.</_>
        <_>
          2 2 7 1 2.</_>
        <_>
          9 3 7 1 2.</_></rects>
      <tilted>0</tilted></_>
    <_>
      <rects>
        <_>
          2 3 10 4 -1.</_>
        <_>
          2 3 5 2 2.</_>
        <_>
          7 5 5 2 2.</_></rects>
      <tilted>0</tilted></_>
    <_>
      <rects>
        <_>
          2 4 7 6 -1.</_>
        <_>
          2 6 7 2 3.</_></rects>
      <tilted>0</tilted></_>
    <_>
      <rects>
        <_>
          2 6 3 4 -1.</_>
        <_>
          3 6 1 4 3.</_></rects>
      <tilted>0</tilted></_>
    <_>
      <rects>
        <_>
          2 6 22 4 -1.</_>
        <_>
          2 6 11 2 2.</_>
        <_>
          13 8 11 2 2.</_></rects>
      <tilted>0</tilted></_>
    <_>
      <rects>
        <_>
          2 7 9 1 -1.</_>
        <_>
          5 7 3 1 3.</_></rects>
      <tilted>0</tilted></_>
    <_>
      <rects>
        <_>
          2 7 10 3 -1.</_>
        <_>
          2 8 10 1 3.</_></rects>
      <tilted>0</tilted></_>
    <_>
      <rects>
        <_>
          2 9 6 1 -1.</_>
        <_>
          4 9 2 1 3.</_></rects>
      <tilted>0</tilted></_>
    <_>
      <rects>
        <_>
          3 2 6 6 -1.</_>
        <_>
          3 4 6 2 3.</_></rects>
      <tilted>0</tilted></_>
    <_>
      <rects>
        <_>
          3 3 18 2 -1.</_>
        <_>
          9 3 6 2 3.</_></rects>
      <tilted>0</tilted></_>
    <_>
      <rects>
        <_>
          3 6 8 2 -1.</_>
        <_>
          3 6 4 1 2.</_>
        <_>
          7 7 4 1 2.</_></rects>
      <tilted>0</tilted></_>
    <_>
      <rects>
        <_>
          3 6 10 2 -1.</_>
        <_>
          3 6 5 1 2.</_>
        <_>
          8 7 5 1 2.</_></rects>
      <tilted>0</tilted></_>
    <_>
      <rects>
        <_>
          3 7 3 1 -1.</_>
        <_>
          4 7 1 1 3.</_></rects>
      <tilted>0</tilted></_>
    <_>
      <rects>
        <_>
          3 7 18 1 -1.</_>
        <_>
          12 7 9 1 2.</_></rects>
      <tilted>0</tilted></_>
    <_>
      <rects>
        <_>
          4 3 4 3 -1.</_>
        <_>
          4 4 4 1 3.</_></rects>
      <tilted>0</tilted></_>
    <_>
      <rects>
        <_>
          4 4 2 2 -1.</_>
        <_>
          4 5 2 1 2.</_></rects>
      <tilted>0</tilted></_>
    <_>
      <rects>
        <_>
          4 6 3 3 -1.</_>
        <_>
          4 7 3 1 3.</_></rects>
      <tilted>0</tilted></_>
    <_>
      <rects>
        <_>
          4 6 6 2 -1.</_>
        <_>
          4 6 3 1 2.</_>
        <_>
          7 7 3 1 2.</_></rects>
      <tilted>0</tilted></_>
    <_>
      <rects>
        <_>
          4 6 10 2 -1.</_>
        <_>
          4 6 5 1 2.</_>
        <_>
          9 7 5 1 2.</_></rects>
      <tilted>0</tilted></_>
    <_>
      <rects>
        <_>
          4 7 3 1 -1.</_>
        <_>
          5 7 1 1 3.</_></rects>
      <tilted>0</tilted></_>
    <_>
      <rects>
        <_>
          4 7 3 2 -1.</_>
        <_>
          5 7 1 2 3.</_></rects>
      <tilted>0</tilted></_>
    <_>
      <rects>
        <_>
          4 7 6 2 -1.</_>
        <_>
          6 7 2 2 3.</_></rects>
      <tilted>0</tilted></_>
    <_>
      <rects>
        <_>
          4 7 15 3 -1.</_>
        <_>
          4 8 15 1 3.</_></rects>
      <tilted>0</tilted></_>
    <_>
      <rects>
        <_>
          5 3 1 6 -1.</_>
        <_>
          5 5 1 2 3.</_></rects>
      <tilted>0</tilted></_>
    <_>
      <rects>
        <_>
          5 3 16 6 -1.</_>
        <_>
          13 3 8 6 2.</_></rects>
      <tilted>0</tilted></_>
    <_>
      <rects>
        <_>
          5 6 1 3 -1.</_>
        <_>
          5 7 1 1 3.</_></rects>
      <tilted>0</tilted></_>
    <_>
      <rects>
        <_>
          5 7 3 1 -1.</_>
        <_>
          6 7 1 1 3.</_></rects>
      <tilted>0</tilted></_>
    <_>
      <rects>
        <_>
          5 7 3 2 -1.</_>
        <_>
          6 7 1 2 3.</_></rects>
      <tilted>0</tilted></_>
    <_>
      <rects>
        <_>
          6 3 13 6 -1.</_>
        <_>
          6 6 13 3 2.</_></rects>
      <tilted>0</tilted></_>
    <_>
      <rects>
        <_>
          6 3 18 3 -1.</_>
        <_>
          6 4 18 1 3.</_></rects>
      <tilted>0</tilted></_>
    <_>
      <rects>
        <_>
          6 7 11 3 -1.</_>
        <_>
          6 8 11 1 3.</_></rects>
      <tilted>0</tilted></_>
    <_>
      <rects>
        <_>
          7 2 6 2 -1.</_>
        <_>
          10 2 3 2 2.</_></rects>
      <tilted>0</tilted></_>
    <_>
      <rects>
        <_>
          7 2 7 3 -1.</_>
        <_>
          7 3 7 1 3.</_></rects>
      <tilted>0</tilted></_>
    <_>
      <rects>
        <_>
          7 3 2 6 -1.</_>
        <_>
          7 6 2 3 2.</_></rects>
      <tilted>0</tilted></_>
    <_>
      <rects>
        <_>
          7 4 8 4 -1.</_>
        <_>
          11 4 4 4 2.</_></rects>
      <tilted>0</tilted></_>
    <_>
      <rects>
        <_>
          8 7 3 3 -1.</_>
        <_>
          9 7 1 3 3.</_></rects>
      <tilted>0</tilted></_>
    <_>
      <rects>
        <_>
          8 7 5 3 -1.</_>
        <_>
          8 8 5 1 3.</_></rects>
      <tilted>0</tilted></_>
    <_>
      <rects>
        <_>
          8 8 6 1 -1.</_>
        <_>
          10 8 2 1 3.</_></rects>
      <tilted>0</tilted></_>
    <_>
      <rects>
        <_>
          9 6 6 1 -1.</_>
        <_>
          11 6 2 1 3.</_></rects>
      <tilted>0</tilted></_>
    <_>
      <rects>
        <_>
          9 7 3 1 -1.</_>
        <_>
          10 7 1 1 3.</_></rects>
      <tilted>0</tilted></_>
    <_>
      <rects>
        <_>
          9 7 16 2 -1.</_>
        <_>
          9 7 8 1 2.</_>
        <_>
          17 8 8 1 2.</_></rects>
      <tilted>0</tilted></_>
    <_>
      <rects>
        <_>
          10 2 8 3 -1.</_>
        <_>
          10 3 8 1 3.</_></rects>
      <tilted>0</tilted></_>
    <_>
      <rects>
        <_>
          10 5 2 3 -1.</_>
        <_>
          11 5 1 3 2.</_></rects>
      <tilted>0</tilted></_>
    <_>
      <rects>
        <_>
          10 5 2 4 -1.</_>
        <_>
          11 5 1 4 2.</_></rects>
      <tilted>0</tilted></_>
    <_>
      <rects>
        <_>
          10 5 4 5 -1.</_>
        <_>
          12 5 2 5 2.</_></rects>
      <tilted>0</tilted></_>
    <_>
      <rects>
        <_>
          10 5 6 5 -1.</_>
        <_>
          12 5 2 5 3.</_></rects>
      <tilted>0</tilted></_>
    <_>
      <rects>
        <_>
          10 6 2 2 -1.</_>
        <_>
          10 6 1 1 2.</_>
        <_>
          11 7 1 1 2.</_></rects>
      <tilted>0</tilted></_>
    <_>
      <rects>
        <_>
          10 6 4 2 -1.</_>
        <_>
          10 6 2 1 2.</_>
        <_>
          12 7 2 1 2.</_></rects>
      <tilted>0</tilted></_>
    <_>
      <rects>
        <_>
          10 6 4 2 -1.</_>
        <_>
          12 6 2 2 2.</_></rects>
      <tilted>0</tilted></_>
    <_>
      <rects>
        <_>
          10 7 2 3 -1.</_>
        <_>
          11 7 1 3 2.</_></rects>
      <tilted>0</tilted></_>
    <_>
      <rects>
        <_>
          10 7 6 1 -1.</_>
        <_>
          12 7 2 1 3.</_></rects>
      <tilted>0</tilted></_>
    <_>
      <rects>
        <_>
          10 7 6 3 -1.</_>
        <_>
          12 7 2 3 3.</_></rects>
      <tilted>0</tilted></_>
    <_>
      <rects>
        <_>
          11 0 12 6 -1.</_>
        <_>
          11 0 6 3 2.</_>
        <_>
          17 3 6 3 2.</_></rects>
      <tilted>0</tilted></_>
    <_>
      <rects>
        <_>
          11 6 2 4 -1.</_>
        <_>
          12 6 1 4 2.</_></rects>
      <tilted>0</tilted></_>
    <_>
      <rects>
        <_>
          11 6 10 2 -1.</_>
        <_>
          11 6 5 1 2.</_>
        <_>
          16 7 5 1 2.</_></rects>
      <tilted>0</tilted></_>
    <_>
      <rects>
        <_>
          11 8 3 1 -1.</_>
        <_>
          12 8 1 1 3.</_></rects>
      <tilted>0</tilted></_>
    <_>
      <rects>
        <_>
          12 6 2 2 -1.</_>
        <_>
          13 6 1 2 2.</_></rects>
      <tilted>0</tilted></_>
    <_>
      <rects>
        <_>
          12 6 4 3 -1.</_>
        <_>
          14 6 2 3 2.</_></rects>
      <tilted>0</tilted></_>
    <_>
      <rects>
        <_>
          12 6 6 4 -1.</_>
        <_>
          14 6 2 4 3.</_></rects>
      <tilted>0</tilted></_>
    <_>
      <rects>
        <_>
          13 3 10 3 -1.</_>
        <_>
          13 4 10 1 3.</_></rects>
      <tilted>0</tilted></_>
    <_>
      <rects>
        <_>
          13 5 8 2 -1.</_>
        <_>
          13 5 4 1 2.</_>
        <_>
          17 6 4 1 2.</_></rects>
      <tilted>0</tilted></_>
    <_>
      <rects>
        <_>
          13 6 6 1 -1.</_>
        <_>
          15 6 2 1 3.</_></rects>
      <tilted>0</tilted></_>
    <_>
      <rects>
        <_>
          13 8 12 1 -1.</_>
        <_>
          19 8 6 1 2.</_></rects>
      <tilted>0</tilted></_>
    <_>
      <rects>
        <_>
          14 1 10 4 -1.</_>
        <_>
          14 1 5 2 2.</_>
        <_>
          19 3 5 2 2.</_></rects>
      <tilted>0</tilted></_>
    <_>
      <rects>
        <_>
          14 5 6 2 -1.</_>
        <_>
          14 5 3 1 2.</_>
        <_>
          17 6 3 1 2.</_></rects>
      <tilted>0</tilted></_>
    <_>
      <rects>
        <_>
          14 6 2 1 -1.</_>
        <_>
          15 6 1 1 2.</_></rects>
      <tilted>0</tilted></_>
    <_>
      <rects>
        <_>
          15 6 6 2 -1.</_>
        <_>
          15 6 3 1 2.</_>
        <_>
          18 7 3 1 2.</_></rects>
      <tilted>0</tilted></_>
    <_>
      <rects>
        <_>
          15 7 6 2 -1.</_>
        <_>
          17 7 2 2 3.</_></rects>
      <tilted>0</tilted></_>
    <_>
      <rects>
        <_>
          16 5 6 3 -1.</_>
        <_>
          16 6 6 1 3.</_></rects>
      <tilted>0</tilted></_>
    <_>
      <rects>
        <_>
          17 4 7 6 -1.</_>
        <_>
          17 6 7 2 3.</_></rects>
      <tilted>0</tilted></_>
    <_>
      <rects>
        <_>
          17 7 3 1 -1.</_>
        <_>
          18 7 1 1 3.</_></rects>
      <tilted>0</tilted></_>
    <_>
      <rects>
        <_>
          17 9 8 1 -1.</_>
        <_>
          21 9 4 1 2.</_></rects>
      <tilted>0</tilted></_>
    <_>
      <rects>
        <_>
          18 1 4 4 -1.</_>
        <_>
          18 3 4 2 2.</_></rects>
      <tilted>0</tilted></_>
    <_>
      <rects>
        <_>
          18 4 3 5 -1.</_>
        <_>
          19 4 1 5 3.</_></rects>
      <tilted>0</tilted></_>
    <_>
      <rects>
        <_>
          18 5 3 3 -1.</_>
        <_>
          18 6 3 1 3.</_></rects>
      <tilted>0</tilted></_>
    <_>
      <rects>
        <_>
          18 6 6 2 -1.</_>
        <_>
          18 6 3 1 2.</_>
        <_>
          21 7 3 1 2.</_></rects>
      <tilted>0</tilted></_>
    <_>
      <rects>
        <_>
          18 7 3 1 -1.</_>
        <_>
          19 7 1 1 3.</_></rects>
      <tilted>0</tilted></_>
    <_>
      <rects>
        <_>
          18 7 3 2 -1.</_>
        <_>
          19 7 1 2 3.</_></rects>
      <tilted>0</tilted></_>
    <_>
      <rects>
        <_>
          18 8 3 1 -1.</_>
        <_>
          19 8 1 1 3.</_></rects>
      <tilted>0</tilted></_>
    <_>
      <rects>
        <_>
          19 0 3 9 -1.</_>
        <_>
          19 3 3 3 3.</_></rects>
      <tilted>0</tilted></_>
    <_>
      <rects>
        <_>
          19 1 2 6 -1.</_>
        <_>
          19 3 2 2 3.</_></rects>
      <tilted>0</tilted></_>
    <_>
      <rects>
        <_>
          19 5 6 5 -1.</_>
        <_>
          22 5 3 5 2.</_></rects>
      <tilted>0</tilted></_>
    <_>
      <rects>
        <_>
          19 6 4 2 -1.</_>
        <_>
          19 6 2 1 2.</_>
        <_>
          21 7 2 1 2.</_></rects>
      <tilted>0</tilted></_>
    <_>
      <rects>
        <_>
          19 9 6 1 -1.</_>
        <_>
          22 9 3 1 2.</_></rects>
      <tilted>0</tilted></_>
    <_>
      <rects>
        <_>
          20 3 4 4 -1.</_>
        <_>
          20 3 2 2 2.</_>
        <_>
          22 5 2 2 2.</_></rects>
      <tilted>0</tilted></_>
    <_>
      <rects>
        <_>
          20 9 4 1 -1.</_>
        <_>
          22 9 2 1 2.</_></rects>
      <tilted>0</tilted></_>
    <_>
      <rects>
        <_>
          21 1 4 8 -1.</_>
        <_>
          21 1 2 4 2.</_>
        <_>
          23 5 2 4 2.</_></rects>
      <tilted>0</tilted></_>
    <_>
      <rects>
        <_>
          21 3 4 6 -1.</_>
        <_>
          21 3 2 3 2.</_>
        <_>
          23 6 2 3 2.</_></rects>
      <tilted>0</tilted></_>
    <_>
      <rects>
        <_>
          21 6 4 4 -1.</_>
        <_>
          23 6 2 4 2.</_></rects>
      <tilted>0</tilted></_>
    <_>
      <rects>
        <_>
          21 6 4 3 -1.</_>
        <_>
          21 7 4 1 3.</_></rects>
      <tilted>0</tilted></_>
    <_>
      <rects>
        <_>
          21 8 4 2 -1.</_>
        <_>
          23 8 2 2 2.</_></rects>
      <tilted>0</tilted></_>
    <_>
      <rects>
        <_>
          22 7 3 1 -1.</_>
        <_>
          23 7 1 1 3.</_></rects>
      <tilted>0</tilted></_>
    <_>
      <rects>
        <_>
          22 9 2 1 -1.</_>
        <_>
          23 9 1 1 2.</_></rects>
      <tilted>0</tilted></_>
    <_>
      <rects>
        <_>
          23 2 2 6 -1.</_>
        <_>
          23 2 1 3 2.</_>
        <_>
          24 5 1 3 2.</_></rects>
      <tilted>0</tilted></_>
    <_>
      <rects>
        <_>
          23 5 2 4 -1.</_>
        <_>
          24 5 1 4 2.</_></rects>
      <tilted>0</tilted></_>
    <_>
      <rects>
        <_>
          23 6 1 3 -1.</_>
        <_>
          23 7 1 1 3.</_></rects>
      <tilted>0</tilted></_>
    <_>
      <rects>
        <_>
          23 7 1 3 -1.</_>
        <_>
          23 8 1 1 3.</_></rects>
      <tilted>0</tilted></_>
    <_>
      <rects>
        <_>
          23 7 2 3 -1.</_>
        <_>
          24 7 1 3 2.</_></rects>
      <tilted>0</tilted></_>
    <_>
      <rects>
        <_>
          23 8 2 2 -1.</_>
        <_>
          24 8 1 2 2.</_></rects>
      <tilted>0</tilted></_>
    <_>
      <rects>
        <_>
          23 9 2 1 -1.</_>
        <_>
          24 9 1 1 2.</_></rects>
      <tilted>0</tilted></_></features></cascade>
</opencv_storage>
