<?xml version="1.0"?>
<opencv_storage>
<cascade>
  <stageType>BOOST</stageType>
  <featureType>HAAR</featureType>
  <height>10</height>
  <width>25</width>
  <stageParams>
    <boostType>GAB</boostType>
    <minHitRate>9.9500000476837158e-01</minHitRate>
    <maxFalseAlarm>5.0000000000000000e-01</maxFalseAlarm>
    <weightTrimRate>9.4999999999999996e-01</weightTrimRate>
    <maxDepth>1</maxDepth>
    <maxWeakCount>100</maxWeakCount></stageParams>
  <featureParams>
    <maxCatCount>0</maxCatCount>
    <featSize>1</featSize>
    <mode>CORE</mode></featureParams>
  <stageNum>17</stageNum>
  <stages>
    <!-- stage 0 -->
    <_>
      <maxWeakCount>5</maxWeakCount>
      <stageThreshold>-1.7228660583496094e+00</stageThreshold>
      <weakClassifiers>
        <_>
          <internalNodes>
            0 -1 13 -4.0959499776363373e-02</internalNodes>
          <leafValues>
            6.8110233545303345e-01 -7.0325201749801636e-01</leafValues></_>
        <_>
          <internalNodes>
            0 -1 105 -9.7825918346643448e-03</internalNodes>
          <leafValues>
            6.1178898811340332e-01 -6.8119221925735474e-01</leafValues></_>
        <_>
          <internalNodes>
            0 -1 7 -6.1719291843473911e-03</internalNodes>
          <leafValues>
            5.0489920377731323e-01 -7.3062461614608765e-01</leafValues></_>
        <_>
          <internalNodes>
            0 -1 8 -4.6535447239875793e-02</internalNodes>
          <leafValues>
            7.5906687974929810e-01 -5.1123940944671631e-01</leafValues></_>
        <_>
          <internalNodes>
            0 -1 51 -7.2497036308050156e-03</internalNodes>
          <leafValues>
            8.0763655900955200e-01 -3.8953897356987000e-01</leafValues></_></weakClassifiers></_>
    <!-- stage 1 -->
    <_>
      <maxWeakCount>5</maxWeakCount>
      <stageThreshold>-7.5718235969543457e-01</stageThreshold>
      <weakClassifiers>
        <_>
          <internalNodes>
            0 -1 40 -7.5735580176115036e-03</internalNodes>
          <leafValues>
            6.7521369457244873e-01 -5.9398496150970459e-01</leafValues></_>
        <_>
          <internalNodes>
            0 -1 131 7.1620177477598190e-03</internalNodes>
          <leafValues>
            -6.7615830898284912e-01 5.4907476902008057e-01</leafValues></_>
        <_>
          <internalNodes>
            0 -1 33 -4.1217811405658722e-02</internalNodes>
          <leafValues>
            6.5119415521621704e-01 -5.3520095348358154e-01</leafValues></_>
        <_>
          <internalNodes>
            0 -1 9 -2.7825052384287119e-03</internalNodes>
          <leafValues>
            4.9955672025680542e-01 -6.9178205728530884e-01</leafValues></_>
        <_>
          <internalNodes>
            0 -1 57 -8.3982326090335846e-02</internalNodes>
          <leafValues>
            5.5354887247085571e-01 -5.9702533483505249e-01</leafValues></_></weakClassifiers></_>
    <!-- stage 2 -->
    <_>
      <maxWeakCount>7</maxWeakCount>
      <stageThreshold>-1.1670967340469360e+00</stageThreshold>
      <weakClassifiers>
        <_>
          <internalNodes>
            0 -1 37 -1.7346682026982307e-02</internalNodes>
          <leafValues>
            6.6363638639450073e-01 -5.2142858505249023e-01</leafValues></_>
        <_>
          <internalNodes>
            0 -1 49 8.6978584527969360e-02</internalNodes>
          <leafValues>
            -3.6626720428466797e-01 8.0508917570114136e-01</leafValues></_>
        <_>
          <internalNodes>
            0 -1 14 -5.7471193373203278e-02</internalNodes>
          <leafValues>
            6.8609493970870972e-01 -3.4487104415893555e-01</leafValues></_>
        <_>
          <internalNodes>
            0 -1 61 -6.0590278357267380e-02</internalNodes>
          <leafValues>
            7.1465629339218140e-01 -3.5787233710289001e-01</leafValues></_>
        <_>
          <internalNodes>
            0 -1 110 4.6246899291872978e-03</internalNodes>
          <leafValues>
            -6.5273487567901611e-01 3.9146631956100464e-01</leafValues></_>
        <_>
          <internalNodes>
            0 -1 124 -4.8128832131624222e-03</internalNodes>
          <leafValues>
            6.2443798780441284e-01 -4.2211100459098816e-01</leafValues></_>
        <_>
          <internalNodes>
            0 -1 6 -3.5946671850979328e-03</internalNodes>
          <leafValues>
            4.5398718118667603e-01 -5.6239289045333862e-01</leafValues></_></weakClassifiers></_>
    <!-- stage 3 -->
    <_>
      <maxWeakCount>8</maxWeakCount>
      <stageThreshold>-1.0234473943710327e+00</stageThreshold>
      <weakClassifiers>
        <_>
          <internalNodes>
            0 -1 99 8.6738364771008492e-03</internalNodes>
          <leafValues>
            -5.0922507047653198e-01 6.0262006521224976e-01</leafValues></_>
        <_>
          <internalNodes>
            0 -1 129 1.3583512045443058e-02</internalNodes>
          <leafValues>
            -5.2078706026077271e-01 4.6128886938095093e-01</leafValues></_>
        <_>
          <internalNodes>
            0 -1 50 -9.9392058327794075e-03</internalNodes>
          <leafValues>
            6.8474966287612915e-01 -3.3739328384399414e-01</leafValues></_>
        <_>
          <internalNodes>
            0 -1 59 -6.3688740134239197e-02</internalNodes>
          <leafValues>
            7.7789014577865601e-01 -2.5774231553077698e-01</leafValues></_>
        <_>
          <internalNodes>
            0 -1 85 -2.6216530241072178e-03</internalNodes>
          <leafValues>
            -9.0000069141387939e-01 2.5824490189552307e-01</leafValues></_>
        <_>
          <internalNodes>
            0 -1 112 5.2605085074901581e-02</internalNodes>
          <leafValues>
            -3.5931751132011414e-01 5.7417410612106323e-01</leafValues></_>
        <_>
          <internalNodes>
            0 -1 135 2.9695923440158367e-03</internalNodes>
          <leafValues>
            -4.9818035960197449e-01 4.5690259337425232e-01</leafValues></_>
        <_>
          <internalNodes>
            0 -1 71 2.9388214461505413e-03</internalNodes>
          <leafValues>
            2.6746177673339844e-01 -8.8821840286254883e-01</leafValues></_></weakClassifiers></_>
    <!-- stage 4 -->
    <_>
      <maxWeakCount>8</maxWeakCount>
      <stageThreshold>-1.2505536079406738e+00</stageThreshold>
      <weakClassifiers>
        <_>
          <internalNodes>
            0 -1 115 4.4941222295165062e-03</internalNodes>
          <leafValues>
            -4.0988835692405701e-01 6.8900805711746216e-01</leafValues></_>
        <_>
          <internalNodes>
            0 -1 98 -8.1685222685337067e-03</internalNodes>
          <leafValues>
            2.8434193134307861e-01 -8.1770420074462891e-01</leafValues></_>
        <_>
          <internalNodes>
            0 -1 42 4.8729074187576771e-03</internalNodes>
          <leafValues>
            -3.6330011487007141e-01 6.6820996999740601e-01</leafValues></_>
        <_>
          <internalNodes>
            0 -1 72 -1.4073911588639021e-03</internalNodes>
          <leafValues>
            -7.1088445186614990e-01 3.1104144454002380e-01</leafValues></_>
        <_>
          <internalNodes>
            0 -1 4 -7.6748980209231377e-03</internalNodes>
          <leafValues>
            5.3763604164123535e-01 -3.5597512125968933e-01</leafValues></_>
        <_>
          <internalNodes>
            0 -1 78 -3.3229194581508636e-02</internalNodes>
          <leafValues>
            5.2114951610565186e-01 -3.7978893518447876e-01</leafValues></_>
        <_>
          <internalNodes>
            0 -1 31 -8.4908939898014069e-03</internalNodes>
          <leafValues>
            3.6022934317588806e-01 -4.7047194838523865e-01</leafValues></_>
        <_>
          <internalNodes>
            0 -1 82 -4.1038738563656807e-03</internalNodes>
          <leafValues>
            -6.9721376895904541e-01 2.6301094889640808e-01</leafValues></_></weakClassifiers></_>
    <!-- stage 5 -->
    <_>
      <maxWeakCount>7</maxWeakCount>
      <stageThreshold>-8.4875553846359253e-01</stageThreshold>
      <weakClassifiers>
        <_>
          <internalNodes>
            0 -1 123 3.8968536537140608e-03</internalNodes>
          <leafValues>
            -4.1238936781883240e-01 5.3563219308853149e-01</leafValues></_>
        <_>
          <internalNodes>
            0 -1 20 4.6889450401067734e-02</internalNodes>
          <leafValues>
            -2.8950992226600647e-01 7.0021814107894897e-01</leafValues></_>
        <_>
          <internalNodes>
            0 -1 0 -1.2701526284217834e-02</internalNodes>
          <leafValues>
            3.9329490065574646e-01 -5.5346590280532837e-01</leafValues></_>
        <_>
          <internalNodes>
            0 -1 86 1.6692203935235739e-03</internalNodes>
          <leafValues>
            2.4887987971305847e-01 -7.9865837097167969e-01</leafValues></_>
        <_>
          <internalNodes>
            0 -1 38 -6.5468298271298409e-03</internalNodes>
          <leafValues>
            3.2059729099273682e-01 -5.8559709787368774e-01</leafValues></_>
        <_>
          <internalNodes>
            0 -1 136 3.4875869750976562e-03</internalNodes>
          <leafValues>
            -4.9131828546524048e-01 3.8878437876701355e-01</leafValues></_>
        <_>
          <internalNodes>
            0 -1 18 3.3098019659519196e-02</internalNodes>
          <leafValues>
            -4.4199031591415405e-01 4.5531991124153137e-01</leafValues></_></weakClassifiers></_>
    <!-- stage 6 -->
    <_>
      <maxWeakCount>9</maxWeakCount>
      <stageThreshold>-9.8876023292541504e-01</stageThreshold>
      <weakClassifiers>
        <_>
          <internalNodes>
            0 -1 7 -1.1565495282411575e-02</internalNodes>
          <leafValues>
            3.7055838108062744e-01 -5.3545230627059937e-01</leafValues></_>
        <_>
          <internalNodes>
            0 -1 119 -6.0254391282796860e-03</internalNodes>
          <leafValues>
            3.9272427558898926e-01 -5.1833331584930420e-01</leafValues></_>
        <_>
          <internalNodes>
            0 -1 75 -5.3076837211847305e-03</internalNodes>
          <leafValues>
            -8.1096941232681274e-01 2.1031822264194489e-01</leafValues></_>
        <_>
          <internalNodes>
            0 -1 116 1.1210804805159569e-02</internalNodes>
          <leafValues>
            -3.2344499230384827e-01 5.7828098535537720e-01</leafValues></_>
        <_>
          <internalNodes>
            0 -1 2 -6.2346749007701874e-02</internalNodes>
          <leafValues>
            3.5516607761383057e-01 -5.3538292646408081e-01</leafValues></_>
        <_>
          <internalNodes>
            0 -1 43 -9.8991207778453827e-03</internalNodes>
          <leafValues>
            4.4384437799453735e-01 -3.7733489274978638e-01</leafValues></_>
        <_>
          <internalNodes>
            0 -1 54 7.8539494425058365e-03</internalNodes>
          <leafValues>
            -2.3158761858940125e-01 6.8982607126235962e-01</leafValues></_>
        <_>
          <internalNodes>
            0 -1 45 -3.1263311393558979e-03</internalNodes>
          <leafValues>
            -5.7586401700973511e-01 2.9265481233596802e-01</leafValues></_>
        <_>
          <internalNodes>
            0 -1 81 1.4264832716435194e-03</internalNodes>
          <leafValues>
            2.3912765085697174e-01 -6.9350993633270264e-01</leafValues></_></weakClassifiers></_>
    <!-- stage 7 -->
    <_>
      <maxWeakCount>7</maxWeakCount>
      <stageThreshold>-7.8044605255126953e-01</stageThreshold>
      <weakClassifiers>
        <_>
          <internalNodes>
            0 -1 124 -9.5927789807319641e-03</internalNodes>
          <leafValues>
            5.7682621479034424e-01 -3.7976783514022827e-01</leafValues></_>
        <_>
          <internalNodes>
            0 -1 50 -7.1562128141522408e-03</internalNodes>
          <leafValues>
            4.5411333441734314e-01 -3.8847622275352478e-01</leafValues></_>
        <_>
          <internalNodes>
            0 -1 127 5.4908967576920986e-03</internalNodes>
          <leafValues>
            -6.0090404748916626e-01 3.1961634755134583e-01</leafValues></_>
        <_>
          <internalNodes>
            0 -1 60 -5.7250615209341049e-02</internalNodes>
          <leafValues>
            5.7370823621749878e-01 -3.2310745120048523e-01</leafValues></_>
        <_>
          <internalNodes>
            0 -1 11 -8.4077809005975723e-03</internalNodes>
          <leafValues>
            3.0678558349609375e-01 -5.5734002590179443e-01</leafValues></_>
        <_>
          <internalNodes>
            0 -1 89 1.2318668887019157e-03</internalNodes>
          <leafValues>
            2.1172051131725311e-01 -8.3237826824188232e-01</leafValues></_>
        <_>
          <internalNodes>
            0 -1 22 1.4840695261955261e-01</internalNodes>
          <leafValues>
            -3.4215402603149414e-01 5.1688182353973389e-01</leafValues></_></weakClassifiers></_>
    <!-- stage 8 -->
    <_>
      <maxWeakCount>10</maxWeakCount>
      <stageThreshold>-1.0581516027450562e+00</stageThreshold>
      <weakClassifiers>
        <_>
          <internalNodes>
            0 -1 30 -9.2178666964173317e-03</internalNodes>
          <leafValues>
            4.1681572794914246e-01 -5.2834469079971313e-01</leafValues></_>
        <_>
          <internalNodes>
            0 -1 118 3.5687140189111233e-03</internalNodes>
          <leafValues>
            -3.2679212093353271e-01 4.8786681890487671e-01</leafValues></_>
        <_>
          <internalNodes>
            0 -1 104 -6.0363762080669403e-02</internalNodes>
          <leafValues>
            4.0658053755760193e-01 -4.4829967617988586e-01</leafValues></_>
        <_>
          <internalNodes>
            0 -1 91 -2.0250058732926846e-03</internalNodes>
          <leafValues>
            -7.2020781040191650e-01 2.0077475905418396e-01</leafValues></_>
        <_>
          <internalNodes>
            0 -1 42 6.1293276958167553e-03</internalNodes>
          <leafValues>
            -2.5690814852714539e-01 6.0929936170578003e-01</leafValues></_>
        <_>
          <internalNodes>
            0 -1 16 -4.2231400584569201e-05</internalNodes>
          <leafValues>
            2.3001086711883545e-01 -7.2936534881591797e-01</leafValues></_>
        <_>
          <internalNodes>
            0 -1 109 -5.2521806210279465e-03</internalNodes>
          <leafValues>
            6.1350011825561523e-01 -2.7195036411285400e-01</leafValues></_>
        <_>
          <internalNodes>
            0 -1 32 5.2171796560287476e-03</internalNodes>
          <leafValues>
            -2.4671725928783417e-01 7.9047542810440063e-01</leafValues></_>
        <_>
          <internalNodes>
            0 -1 26 6.4843902364373207e-03</internalNodes>
          <leafValues>
            2.3004822432994843e-01 -8.8462316989898682e-01</leafValues></_>
        <_>
          <internalNodes>
            0 -1 28 -8.6148632690310478e-03</internalNodes>
          <leafValues>
            5.8984500169754028e-01 -2.6563245058059692e-01</leafValues></_></weakClassifiers></_>
    <!-- stage 9 -->
    <_>
      <maxWeakCount>11</maxWeakCount>
      <stageThreshold>-1.3554648160934448e+00</stageThreshold>
      <weakClassifiers>
        <_>
          <internalNodes>
            0 -1 116 9.4617493450641632e-03</internalNodes>
          <leafValues>
            -3.6000001430511475e-01 5.4000002145767212e-01</leafValues></_>
        <_>
          <internalNodes>
            0 -1 130 4.4708889909088612e-03</internalNodes>
          <leafValues>
            -5.6759333610534668e-01 2.8337791562080383e-01</leafValues></_>
        <_>
          <internalNodes>
            0 -1 58 5.8955163694918156e-04</internalNodes>
          <leafValues>
            -5.1772326231002808e-01 2.7749291062355042e-01</leafValues></_>
        <_>
          <internalNodes>
            0 -1 67 1.3033105991780758e-02</internalNodes>
          <leafValues>
            1.9353485107421875e-01 -7.9427808523178101e-01</leafValues></_>
        <_>
          <internalNodes>
            0 -1 5 -2.2710771299898624e-03</internalNodes>
          <leafValues>
            4.0204358100891113e-01 -3.6094325780868530e-01</leafValues></_>
        <_>
          <internalNodes>
            0 -1 44 -7.3232933878898621e-02</internalNodes>
          <leafValues>
            4.3575203418731689e-01 -3.6900573968887329e-01</leafValues></_>
        <_>
          <internalNodes>
            0 -1 111 6.9132208824157715e-02</internalNodes>
          <leafValues>
            -2.8066194057464600e-01 5.2852028608322144e-01</leafValues></_>
        <_>
          <internalNodes>
            0 -1 56 -1.4634193480014801e-01</internalNodes>
          <leafValues>
            6.0393130779266357e-01 -2.7419260144233704e-01</leafValues></_>
        <_>
          <internalNodes>
            0 -1 36 4.6328067779541016e-02</internalNodes>
          <leafValues>
            -2.3611047863960266e-01 5.6434416770935059e-01</leafValues></_>
        <_>
          <internalNodes>
            0 -1 52 -7.9869180917739868e-03</internalNodes>
          <leafValues>
            4.5943468809127808e-01 -3.5595938563346863e-01</leafValues></_>
        <_>
          <internalNodes>
            0 -1 73 3.1840261071920395e-03</internalNodes>
          <leafValues>
            1.6258005797863007e-01 -8.3065122365951538e-01</leafValues></_></weakClassifiers></_>
    <!-- stage 10 -->
    <_>
      <maxWeakCount>12</maxWeakCount>
      <stageThreshold>-1.1054186820983887e+00</stageThreshold>
      <weakClassifiers>
        <_>
          <internalNodes>
            0 -1 114 -5.9804553166031837e-03</internalNodes>
          <leafValues>
            3.6096718907356262e-01 -4.9643704295158386e-01</leafValues></_>
        <_>
          <internalNodes>
            0 -1 15 1.2489432469010353e-02</internalNodes>
          <leafValues>
            -2.7378436923027039e-01 5.0527542829513550e-01</leafValues></_>
        <_>
          <internalNodes>
            0 -1 69 -2.4242103099822998e-03</internalNodes>
          <leafValues>
            -6.8821346759796143e-01 2.1041806042194366e-01</leafValues></_>
        <_>
          <internalNodes>
            0 -1 126 -8.9926086366176605e-03</internalNodes>
          <leafValues>
            4.8075395822525024e-01 -2.7969831228256226e-01</leafValues></_>
        <_>
          <internalNodes>
            0 -1 125 5.0739469006657600e-03</internalNodes>
          <leafValues>
            -2.5416523218154907e-01 5.8833926916122437e-01</leafValues></_>
        <_>
          <internalNodes>
            0 -1 137 2.9719332815147936e-04</internalNodes>
          <leafValues>
            -6.2882703542709351e-01 2.7582162618637085e-01</leafValues></_>
        <_>
          <internalNodes>
            0 -1 25 2.0444385707378387e-02</internalNodes>
          <leafValues>
            -3.5373347997665405e-01 4.6110951900482178e-01</leafValues></_>
        <_>
          <internalNodes>
            0 -1 117 -8.0626718699932098e-03</internalNodes>
          <leafValues>
            7.5213211774826050e-01 -2.1536123752593994e-01</leafValues></_>
        <_>
          <internalNodes>
            0 -1 53 -3.0840821564197540e-02</internalNodes>
          <leafValues>
            -5.8605670928955078e-01 2.5702577829360962e-01</leafValues></_>
        <_>
          <internalNodes>
            0 -1 84 -3.1272312626242638e-03</internalNodes>
          <leafValues>
            -6.8911051750183105e-01 1.9695207476615906e-01</leafValues></_>
        <_>
          <internalNodes>
            0 -1 64 1.6749467700719833e-02</internalNodes>
          <leafValues>
            -3.0942535400390625e-01 4.8272538185119629e-01</leafValues></_>
        <_>
          <internalNodes>
            0 -1 23 -1.1736297979950905e-02</internalNodes>
          <leafValues>
            2.0099155604839325e-01 -7.7794486284255981e-01</leafValues></_></weakClassifiers></_>
    <!-- stage 11 -->
    <_>
      <maxWeakCount>11</maxWeakCount>
      <stageThreshold>-1.0702576637268066e+00</stageThreshold>
      <weakClassifiers>
        <_>
          <internalNodes>
            0 -1 99 5.4984763264656067e-03</internalNodes>
          <leafValues>
            -5.3280842304229736e-01 3.2794830203056335e-01</leafValues></_>
        <_>
          <internalNodes>
            0 -1 87 4.8547498881816864e-03</internalNodes>
          <leafValues>
            1.8999467790126801e-01 -7.7393513917922974e-01</leafValues></_>
        <_>
          <internalNodes>
            0 -1 55 -6.8199150264263153e-03</internalNodes>
          <leafValues>
            4.6342062950134277e-01 -3.2905229926109314e-01</leafValues></_>
        <_>
          <internalNodes>
            0 -1 74 2.7212603017687798e-03</internalNodes>
          <leafValues>
            1.5725786983966827e-01 -8.0740892887115479e-01</leafValues></_>
        <_>
          <internalNodes>
            0 -1 70 1.8501628190279007e-02</internalNodes>
          <leafValues>
            -3.0913299322128296e-01 4.2139533162117004e-01</leafValues></_>
        <_>
          <internalNodes>
            0 -1 1 5.9355860576033592e-03</internalNodes>
          <leafValues>
            -2.6386347413063049e-01 4.1224235296249390e-01</leafValues></_>
        <_>
          <internalNodes>
            0 -1 134 2.3218125570565462e-03</internalNodes>
          <leafValues>
            -3.8124772906303406e-01 3.4273204207420349e-01</leafValues></_>
        <_>
          <internalNodes>
            0 -1 121 -6.2796734273433685e-03</internalNodes>
          <leafValues>
            4.4586402177810669e-01 -3.0046522617340088e-01</leafValues></_>
        <_>
          <internalNodes>
            0 -1 66 -1.1131126433610916e-02</internalNodes>
          <leafValues>
            -8.4859764575958252e-01 1.5291646122932434e-01</leafValues></_>
        <_>
          <internalNodes>
            0 -1 27 -1.8899193406105042e-01</internalNodes>
          <leafValues>
            5.4065179824829102e-01 -2.5413560867309570e-01</leafValues></_>
        <_>
          <internalNodes>
            0 -1 95 -2.2462458582594991e-04</internalNodes>
          <leafValues>
            2.4849319458007812e-01 -5.2439123392105103e-01</leafValues></_></weakClassifiers></_>
    <!-- stage 12 -->
    <_>
      <maxWeakCount>12</maxWeakCount>
      <stageThreshold>-1.2837206125259399e+00</stageThreshold>
      <weakClassifiers>
        <_>
          <internalNodes>
            0 -1 40 -1.3428363949060440e-02</internalNodes>
          <leafValues>
            5.0471699237823486e-01 -3.7152779102325439e-01</leafValues></_>
        <_>
          <internalNodes>
            0 -1 96 -4.2231400584569201e-05</internalNodes>
          <leafValues>
            3.4005084633827209e-01 -4.3786543607711792e-01</leafValues></_>
        <_>
          <internalNodes>
            0 -1 10 -6.1924289911985397e-03</internalNodes>
          <leafValues>
            2.5457283854484558e-01 -5.1507419347763062e-01</leafValues></_>
        <_>
          <internalNodes>
            0 -1 21 -1.4223760366439819e-01</internalNodes>
          <leafValues>
            2.4147342145442963e-01 -6.1122256517410278e-01</leafValues></_>
        <_>
          <internalNodes>
            0 -1 126 -9.3093225732445717e-03</internalNodes>
          <leafValues>
            4.0793243050575256e-01 -3.4879839420318604e-01</leafValues></_>
        <_>
          <internalNodes>
            0 -1 100 -4.6624792739748955e-03</internalNodes>
          <leafValues>
            3.8663855195045471e-01 -3.4150943160057068e-01</leafValues></_>
        <_>
          <internalNodes>
            0 -1 90 1.8505000043660402e-03</internalNodes>
          <leafValues>
            2.0687690377235413e-01 -8.1478309631347656e-01</leafValues></_>
        <_>
          <internalNodes>
            0 -1 107 3.0004677828401327e-03</internalNodes>
          <leafValues>
            -3.1101593375205994e-01 5.2184468507766724e-01</leafValues></_>
        <_>
          <internalNodes>
            0 -1 80 1.3048087712377310e-03</internalNodes>
          <leafValues>
            1.6260899603366852e-01 -8.2343387603759766e-01</leafValues></_>
        <_>
          <internalNodes>
            0 -1 133 -7.8038889914751053e-03</internalNodes>
          <leafValues>
            -8.4788596630096436e-01 1.1848955601453781e-01</leafValues></_>
        <_>
          <internalNodes>
            0 -1 102 -3.8517015054821968e-03</internalNodes>
          <leafValues>
            3.9214006066322327e-01 -3.2281824946403503e-01</leafValues></_>
        <_>
          <internalNodes>
            0 -1 108 -2.2272245958447456e-02</internalNodes>
          <leafValues>
            4.5040860772132874e-01 -2.4080491065979004e-01</leafValues></_></weakClassifiers></_>
    <!-- stage 13 -->
    <_>
      <maxWeakCount>12</maxWeakCount>
      <stageThreshold>-8.6029249429702759e-01</stageThreshold>
      <weakClassifiers>
        <_>
          <internalNodes>
            0 -1 39 2.0522009581327438e-03</internalNodes>
          <leafValues>
            -5.6000000238418579e-01 3.0153846740722656e-01</leafValues></_>
        <_>
          <internalNodes>
            0 -1 19 7.7502697706222534e-02</internalNodes>
          <leafValues>
            -2.7547481656074524e-01 4.8194319009780884e-01</leafValues></_>
        <_>
          <internalNodes>
            0 -1 120 -8.3203297108411789e-03</internalNodes>
          <leafValues>
            3.9700379967689514e-01 -3.2612150907516479e-01</leafValues></_>
        <_>
          <internalNodes>
            0 -1 97 -5.4848123341798782e-02</internalNodes>
          <leafValues>
            6.1114102602005005e-01 -2.2739075124263763e-01</leafValues></_>
        <_>
          <internalNodes>
            0 -1 93 2.2432515397667885e-03</internalNodes>
          <leafValues>
            2.3808336257934570e-01 -8.5941874980926514e-01</leafValues></_>
        <_>
          <internalNodes>
            0 -1 101 4.5943215489387512e-02</internalNodes>
          <leafValues>
            -3.1352913379669189e-01 4.3298247456550598e-01</leafValues></_>
        <_>
          <internalNodes>
            0 -1 131 4.3604150414466858e-03</internalNodes>
          <leafValues>
            -6.9051575660705566e-01 1.6963961720466614e-01</leafValues></_>
        <_>
          <internalNodes>
            0 -1 63 1.4022832736372948e-02</internalNodes>
          <leafValues>
            -2.9622337222099304e-01 4.3768000602722168e-01</leafValues></_>
        <_>
          <internalNodes>
            0 -1 3 -8.5723195225000381e-03</internalNodes>
          <leafValues>
            5.3619873523712158e-01 -2.4922578036785126e-01</leafValues></_>
        <_>
          <internalNodes>
            0 -1 76 5.5868271738290787e-03</internalNodes>
          <leafValues>
            1.1739484220743179e-01 -9.6477532386779785e-01</leafValues></_>
        <_>
          <internalNodes>
            0 -1 68 2.9888330027461052e-03</internalNodes>
          <leafValues>
            1.4848491549491882e-01 -7.4928373098373413e-01</leafValues></_>
        <_>
          <internalNodes>
            0 -1 24 -5.2295260131359100e-02</internalNodes>
          <leafValues>
            -7.7771246433258057e-01 1.3142374157905579e-01</leafValues></_></weakClassifiers></_>
    <!-- stage 14 -->
    <_>
      <maxWeakCount>11</maxWeakCount>
      <stageThreshold>-1.1935495138168335e+00</stageThreshold>
      <weakClassifiers>
        <_>
          <internalNodes>
            0 -1 113 -2.4231601506471634e-02</internalNodes>
          <leafValues>
            4.8614609241485596e-01 -3.2006633281707764e-01</leafValues></_>
        <_>
          <internalNodes>
            0 -1 79 -6.8863909691572189e-03</internalNodes>
          <leafValues>
            -8.8137656450271606e-01 1.9070485234260559e-01</leafValues></_>
        <_>
          <internalNodes>
            0 -1 88 -5.9808958321809769e-03</internalNodes>
          <leafValues>
            3.3447739481925964e-01 -5.1823538541793823e-01</leafValues></_>
        <_>
          <internalNodes>
            0 -1 42 3.6302078515291214e-03</internalNodes>
          <leafValues>
            -3.8317877054214478e-01 4.4673475623130798e-01</leafValues></_>
        <_>
          <internalNodes>
            0 -1 41 -3.7083541974425316e-03</internalNodes>
          <leafValues>
            7.3672837018966675e-01 -1.9814535975456238e-01</leafValues></_>
        <_>
          <internalNodes>
            0 -1 62 -7.4391039088368416e-03</internalNodes>
          <leafValues>
            -5.9860801696777344e-01 2.7902406454086304e-01</leafValues></_>
        <_>
          <internalNodes>
            0 -1 47 3.2415705919265747e-01</internalNodes>
          <leafValues>
            -2.3633606731891632e-01 6.8315291404724121e-01</leafValues></_>
        <_>
          <internalNodes>
            0 -1 35 -8.4847867488861084e-02</internalNodes>
          <leafValues>
            5.9015238285064697e-01 -2.8229448199272156e-01</leafValues></_>
        <_>
          <internalNodes>
            0 -1 48 2.1298959851264954e-02</internalNodes>
          <leafValues>
            -2.9566115140914917e-01 5.1795190572738647e-01</leafValues></_>
        <_>
          <internalNodes>
            0 -1 17 -3.8056422490626574e-03</internalNodes>
          <leafValues>
            4.1166490316390991e-01 -3.9416474103927612e-01</leafValues></_>
        <_>
          <internalNodes>
            0 -1 94 -9.1286189854145050e-03</internalNodes>
          <leafValues>
            -9.4110959768295288e-01 1.1209105700254440e-01</leafValues></_></weakClassifiers></_>
    <!-- stage 15 -->
    <_>
      <maxWeakCount>8</maxWeakCount>
      <stageThreshold>-1.4591203927993774e+00</stageThreshold>
      <weakClassifiers>
        <_>
          <internalNodes>
            0 -1 122 -1.5805223956704140e-02</internalNodes>
          <leafValues>
            9.3034827709197998e-01 -2.3404255509376526e-01</leafValues></_>
        <_>
          <internalNodes>
            0 -1 30 -6.4882654696702957e-03</internalNodes>
          <leafValues>
            4.0660825371742249e-01 -6.0652196407318115e-01</leafValues></_>
        <_>
          <internalNodes>
            0 -1 77 3.7598342169076204e-04</internalNodes>
          <leafValues>
            -3.1895273923873901e-01 6.6528534889221191e-01</leafValues></_>
        <_>
          <internalNodes>
            0 -1 65 -3.9760894142091274e-03</internalNodes>
          <leafValues>
            6.9775354862213135e-01 -3.3936011791229248e-01</leafValues></_>
        <_>
          <internalNodes>
            0 -1 106 -2.3482539691030979e-03</internalNodes>
          <leafValues>
            -5.6786996126174927e-01 4.0083214640617371e-01</leafValues></_>
        <_>
          <internalNodes>
            0 -1 83 1.3116616755723953e-03</internalNodes>
          <leafValues>
            2.7127704024314880e-01 -8.2718241214752197e-01</leafValues></_>
        <_>
          <internalNodes>
            0 -1 29 5.5498783476650715e-03</internalNodes>
          <leafValues>
            -3.3030214905738831e-01 7.3711204528808594e-01</leafValues></_>
        <_>
          <internalNodes>
            0 -1 132 -1.6778357326984406e-02</internalNodes>
          <leafValues>
            6.1608481407165527e-01 -3.4647819399833679e-01</leafValues></_></weakClassifiers></_>
    <!-- stage 16 -->
    <_>
      <maxWeakCount>7</maxWeakCount>
      <stageThreshold>-9.9193876981735229e-01</stageThreshold>
      <weakClassifiers>
        <_>
          <internalNodes>
            0 -1 99 1.0489523410797119e-02</internalNodes>
          <leafValues>
            -4.6448087692260742e-01 5.6541019678115845e-01</leafValues></_>
        <_>
          <internalNodes>
            0 -1 103 7.5618140399456024e-02</internalNodes>
          <leafValues>
            -2.9649138450622559e-01 9.1903346776962280e-01</leafValues></_>
        <_>
          <internalNodes>
            0 -1 12 -1.9688221812248230e-01</internalNodes>
          <leafValues>
            9.1903084516525269e-01 -2.6503595709800720e-01</leafValues></_>
        <_>
          <internalNodes>
            0 -1 128 -8.7770377285778522e-04</internalNodes>
          <leafValues>
            -6.9167536497116089e-01 4.8655056953430176e-01</leafValues></_>
        <_>
          <internalNodes>
            0 -1 34 1.3462370261549950e-03</internalNodes>
          <leafValues>
            -4.6610817313194275e-01 6.9334816932678223e-01</leafValues></_>
        <_>
          <internalNodes>
            0 -1 46 1.6800187528133392e-02</internalNodes>
          <leafValues>
            -3.8382828235626221e-01 8.2885771989822388e-01</leafValues></_>
        <_>
          <internalNodes>
            0 -1 92 -3.4358338452875614e-03</internalNodes>
          <leafValues>
            -7.6200097799301147e-01 4.3152815103530884e-01</leafValues></_></weakClassifiers></_></stages>
  <features>
    <_>
      <rects>
        <_>
          0 1 4 8 -1.</_>
        <_>
          0 1 2 4 2.</_>
        <_>
          2 5 2 4 2.</_></rects>
      <tilted>0</tilted></_>
    <_>
      <rects>
        <_>
          0 4 9 1 -1.</_>
        <_>
          3 4 3 1 3.</_></rects>
      <tilted>0</tilted></_>
    <_>
      <rects>
        <_>
          0 4 12 4 -1.</_>
        <_>
          0 6 12 2 2.</_></rects>
      <tilted>0</tilted></_>
    <_>
      <rects>
        <_>
          0 5 6 1 -1.</_>
        <_>
          3 5 3 1 2.</_></rects>
      <tilted>0</tilted></_>
    <_>
      <rects>
        <_>
          0 6 2 4 -1.</_>
        <_>
          1 6 1 4 2.</_></rects>
      <tilted>0</tilted></_>
    <_>
      <rects>
        <_>
          0 7 2 1 -1.</_>
        <_>
          1 7 1 1 2.</_></rects>
      <tilted>0</tilted></_>
    <_>
      <rects>
        <_>
          0 7 2 3 -1.</_>
        <_>
          1 7 1 3 2.</_></rects>
      <tilted>0</tilted></_>
    <_>
      <rects>
        <_>
          0 7 4 3 -1.</_>
        <_>
          2 7 2 3 2.</_></rects>
      <tilted>0</tilted></_>
    <_>
      <rects>
        <_>
          0 7 18 3 -1.</_>
        <_>
          0 8 18 1 3.</_></rects>
      <tilted>0</tilted></_>
    <_>
      <rects>
        <_>
          0 8 4 1 -1.</_>
        <_>
          2 8 2 1 2.</_></rects>
      <tilted>0</tilted></_>
    <_>
      <rects>
        <_>
          0 8 4 2 -1.</_>
        <_>
          2 8 2 2 2.</_></rects>
      <tilted>0</tilted></_>
    <_>
      <rects>
        <_>
          0 8 16 2 -1.</_>
        <_>
          4 8 8 2 2.</_></rects>
      <tilted>0</tilted></_>
    <_>
      <rects>
        <_>
          1 2 15 8 -1.</_>
        <_>
          1 4 15 4 2.</_></rects>
      <tilted>0</tilted></_>
    <_>
      <rects>
        <_>
          1 4 7 6 -1.</_>
        <_>
          1 6 7 2 3.</_></rects>
      <tilted>0</tilted></_>
    <_>
      <rects>
        <_>
          1 4 21 2 -1.</_>
        <_>
          1 5 21 1 2.</_></rects>
      <tilted>0</tilted></_>
    <_>
      <rects>
        <_>
          1 6 6 2 -1.</_>
        <_>
          1 6 3 1 2.</_>
        <_>
          4 7 3 1 2.</_></rects>
      <tilted>0</tilted></_>
    <_>
      <rects>
        <_>
          1 8 2 2 -1.</_>
        <_>
          2 8 1 2 2.</_></rects>
      <tilted>0</tilted></_>
    <_>
      <rects>
        <_>
          1 8 16 2 -1.</_>
        <_>
          5 8 8 2 2.</_></rects>
      <tilted>0</tilted></_>
    <_>
      <rects>
        <_>
          1 8 14 2 -1.</_>
        <_>
          1 9 14 1 2.</_></rects>
      <tilted>0</tilted></_>
    <_>
      <rects>
        <_>
          2 2 5 6 -1.</_>
        <_>
          2 4 5 2 3.</_></rects>
      <tilted>0</tilted></_>
    <_>
      <rects>
        <_>
          2 3 6 4 -1.</_>
        <_>
          2 4 6 2 2.</_></rects>
      <tilted>0</tilted></_>
    <_>
      <rects>
        <_>
          2 3 20 6 -1.</_>
        <_>
          2 6 20 3 2.</_></rects>
      <tilted>0</tilted></_>
    <_>
      <rects>
        <_>
          2 3 23 4 -1.</_>
        <_>
          2 4 23 2 2.</_></rects>
      <tilted>0</tilted></_>
    <_>
      <rects>
        <_>
          2 4 6 6 -1.</_>
        <_>
          2 6 6 2 3.</_></rects>
      <tilted>0</tilted></_>
    <_>
      <rects>
        <_>
          2 4 18 4 -1.</_>
        <_>
          2 4 9 2 2.</_>
        <_>
          11 6 9 2 2.</_></rects>
      <tilted>0</tilted></_>
    <_>
      <rects>
        <_>
          2 8 7 2 -1.</_>
        <_>
          2 9 7 1 2.</_></rects>
      <tilted>0</tilted></_>
    <_>
      <rects>
        <_>
          2 9 8 1 -1.</_>
        <_>
          4 9 4 1 2.</_></rects>
      <tilted>0</tilted></_>
    <_>
      <rects>
        <_>
          3 2 15 8 -1.</_>
        <_>
          3 4 15 4 2.</_></rects>
      <tilted>0</tilted></_>
    <_>
      <rects>
        <_>
          3 6 3 3 -1.</_>
        <_>
          4 6 1 3 3.</_></rects>
      <tilted>0</tilted></_>
    <_>
      <rects>
        <_>
          3 6 4 2 -1.</_>
        <_>
          3 6 2 1 2.</_>
        <_>
          5 7 2 1 2.</_></rects>
      <tilted>0</tilted></_>
    <_>
      <rects>
        <_>
          3 6 8 2 -1.</_>
        <_>
          3 6 4 1 2.</_>
        <_>
          7 7 4 1 2.</_></rects>
      <tilted>0</tilted></_>
    <_>
      <rects>
        <_>
          3 6 10 2 -1.</_>
        <_>
          3 6 5 1 2.</_>
        <_>
          8 7 5 1 2.</_></rects>
      <tilted>0</tilted></_>
    <_>
      <rects>
        <_>
          3 7 3 1 -1.</_>
        <_>
          4 7 1 1 3.</_></rects>
      <tilted>0</tilted></_>
    <_>
      <rects>
        <_>
          3 7 15 3 -1.</_>
        <_>
          3 8 15 1 3.</_></rects>
      <tilted>0</tilted></_>
    <_>
      <rects>
        <_>
          4 1 1 4 -1.</_>
        <_>
          4 3 1 2 2.</_></rects>
      <tilted>0</tilted></_>
    <_>
      <rects>
        <_>
          4 2 13 4 -1.</_>
        <_>
          4 4 13 2 2.</_></rects>
      <tilted>0</tilted></_>
    <_>
      <rects>
        <_>
          4 3 10 3 -1.</_>
        <_>
          4 4 10 1 3.</_></rects>
      <tilted>0</tilted></_>
    <_>
      <rects>
        <_>
          4 4 3 4 -1.</_>
        <_>
          4 5 3 2 2.</_></rects>
      <tilted>0</tilted></_>
    <_>
      <rects>
        <_>
          4 5 6 4 -1.</_>
        <_>
          4 5 3 2 2.</_>
        <_>
          7 7 3 2 2.</_></rects>
      <tilted>0</tilted></_>
    <_>
      <rects>
        <_>
          4 6 3 3 -1.</_>
        <_>
          4 7 3 1 3.</_></rects>
      <tilted>0</tilted></_>
    <_>
      <rects>
        <_>
          4 6 6 2 -1.</_>
        <_>
          4 6 3 1 2.</_>
        <_>
          7 7 3 1 2.</_></rects>
      <tilted>0</tilted></_>
    <_>
      <rects>
        <_>
          4 7 2 1 -1.</_>
        <_>
          5 7 1 1 2.</_></rects>
      <tilted>0</tilted></_>
    <_>
      <rects>
        <_>
          4 7 3 1 -1.</_>
        <_>
          5 7 1 1 3.</_></rects>
      <tilted>0</tilted></_>
    <_>
      <rects>
        <_>
          4 7 6 2 -1.</_>
        <_>
          6 7 2 2 3.</_></rects>
      <tilted>0</tilted></_>
    <_>
      <rects>
        <_>
          4 7 14 3 -1.</_>
        <_>
          4 8 14 1 3.</_></rects>
      <tilted>0</tilted></_>
    <_>
      <rects>
        <_>
          4 8 20 1 -1.</_>
        <_>
          14 8 10 1 2.</_></rects>
      <tilted>0</tilted></_>
    <_>
      <rects>
        <_>
          5 0 16 4 -1.</_>
        <_>
          5 0 8 2 2.</_>
        <_>
          13 2 8 2 2.</_></rects>
      <tilted>0</tilted></_>
    <_>
      <rects>
        <_>
          5 2 20 6 -1.</_>
        <_>
          5 4 20 2 3.</_></rects>
      <tilted>0</tilted></_>
    <_>
      <rects>
        <_>
          5 3 8 4 -1.</_>
        <_>
          5 3 4 2 2.</_>
        <_>
          9 5 4 2 2.</_></rects>
      <tilted>0</tilted></_>
    <_>
      <rects>
        <_>
          5 3 17 4 -1.</_>
        <_>
          5 4 17 2 2.</_></rects>
      <tilted>0</tilted></_>
    <_>
      <rects>
        <_>
          5 4 1 4 -1.</_>
        <_>
          5 5 1 2 2.</_></rects>
      <tilted>0</tilted></_>
    <_>
      <rects>
        <_>
          5 6 4 3 -1.</_>
        <_>
          6 6 2 3 2.</_></rects>
      <tilted>0</tilted></_>
    <_>
      <rects>
        <_>
          5 6 4 2 -1.</_>
        <_>
          5 6 2 1 2.</_>
        <_>
          7 7 2 1 2.</_></rects>
      <tilted>0</tilted></_>
    <_>
      <rects>
        <_>
          5 6 20 4 -1.</_>
        <_>
          5 6 10 2 2.</_>
        <_>
          15 8 10 2 2.</_></rects>
      <tilted>0</tilted></_>
    <_>
      <rects>
        <_>
          5 7 3 2 -1.</_>
        <_>
          6 7 1 2 3.</_></rects>
      <tilted>0</tilted></_>
    <_>
      <rects>
        <_>
          5 7 4 2 -1.</_>
        <_>
          6 7 2 2 2.</_></rects>
      <tilted>0</tilted></_>
    <_>
      <rects>
        <_>
          6 1 11 6 -1.</_>
        <_>
          6 4 11 3 2.</_></rects>
      <tilted>0</tilted></_>
    <_>
      <rects>
        <_>
          6 4 17 4 -1.</_>
        <_>
          6 6 17 2 2.</_></rects>
      <tilted>0</tilted></_>
    <_>
      <rects>
        <_>
          6 6 12 1 -1.</_>
        <_>
          10 6 4 1 3.</_></rects>
      <tilted>0</tilted></_>
    <_>
      <rects>
        <_>
          6 7 8 3 -1.</_>
        <_>
          6 8 8 1 3.</_></rects>
      <tilted>0</tilted></_>
    <_>
      <rects>
        <_>
          7 6 10 4 -1.</_>
        <_>
          7 7 10 2 2.</_></rects>
      <tilted>0</tilted></_>
    <_>
      <rects>
        <_>
          7 7 11 3 -1.</_>
        <_>
          7 8 11 1 3.</_></rects>
      <tilted>0</tilted></_>
    <_>
      <rects>
        <_>
          7 9 12 1 -1.</_>
        <_>
          11 9 4 1 3.</_></rects>
      <tilted>0</tilted></_>
    <_>
      <rects>
        <_>
          8 0 6 4 -1.</_>
        <_>
          8 1 6 2 2.</_></rects>
      <tilted>0</tilted></_>
    <_>
      <rects>
        <_>
          9 0 7 4 -1.</_>
        <_>
          9 1 7 2 2.</_></rects>
      <tilted>0</tilted></_>
    <_>
      <rects>
        <_>
          9 2 8 2 -1.</_>
        <_>
          11 2 4 2 2.</_></rects>
      <tilted>0</tilted></_>
    <_>
      <rects>
        <_>
          9 4 4 6 -1.</_>
        <_>
          11 4 2 6 2.</_></rects>
      <tilted>0</tilted></_>
    <_>
      <rects>
        <_>
          9 5 8 4 -1.</_>
        <_>
          9 5 4 2 2.</_>
        <_>
          13 7 4 2 2.</_></rects>
      <tilted>0</tilted></_>
    <_>
      <rects>
        <_>
          9 6 4 3 -1.</_>
        <_>
          10 6 2 3 2.</_></rects>
      <tilted>0</tilted></_>
    <_>
      <rects>
        <_>
          9 6 6 1 -1.</_>
        <_>
          11 6 2 1 3.</_></rects>
      <tilted>0</tilted></_>
    <_>
      <rects>
        <_>
          9 7 16 2 -1.</_>
        <_>
          9 7 8 1 2.</_>
        <_>
          17 8 8 1 2.</_></rects>
      <tilted>0</tilted></_>
    <_>
      <rects>
        <_>
          10 5 2 5 -1.</_>
        <_>
          11 5 1 5 2.</_></rects>
      <tilted>0</tilted></_>
    <_>
      <rects>
        <_>
          10 6 2 3 -1.</_>
        <_>
          11 6 1 3 2.</_></rects>
      <tilted>0</tilted></_>
    <_>
      <rects>
        <_>
          10 6 4 3 -1.</_>
        <_>
          11 6 2 3 2.</_></rects>
      <tilted>0</tilted></_>
    <_>
      <rects>
        <_>
          10 6 4 1 -1.</_>
        <_>
          12 6 2 1 2.</_></rects>
      <tilted>0</tilted></_>
    <_>
      <rects>
        <_>
          10 6 6 2 -1.</_>
        <_>
          12 6 2 2 3.</_></rects>
      <tilted>0</tilted></_>
    <_>
      <rects>
        <_>
          10 8 4 2 -1.</_>
        <_>
          12 8 2 2 2.</_></rects>
      <tilted>0</tilted></_>
    <_>
      <rects>
        <_>
          11 0 3 2 -1.</_>
        <_>
          12 0 1 2 3.</_></rects>
      <tilted>0</tilted></_>
    <_>
      <rects>
        <_>
          11 2 10 6 -1.</_>
        <_>
          11 2 5 3 2.</_>
        <_>
          16 5 5 3 2.</_></rects>
      <tilted>0</tilted></_>
    <_>
      <rects>
        <_>
          11 5 4 4 -1.</_>
        <_>
          11 5 2 2 2.</_>
        <_>
          13 7 2 2 2.</_></rects>
      <tilted>0</tilted></_>
    <_>
      <rects>
        <_>
          11 6 2 2 -1.</_>
        <_>
          11 6 1 1 2.</_>
        <_>
          12 7 1 1 2.</_></rects>
      <tilted>0</tilted></_>
    <_>
      <rects>
        <_>
          11 6 2 4 -1.</_>
        <_>
          12 6 1 4 2.</_></rects>
      <tilted>0</tilted></_>
    <_>
      <rects>
        <_>
          11 6 6 1 -1.</_>
        <_>
          14 6 3 1 2.</_></rects>
      <tilted>0</tilted></_>
    <_>
      <rects>
        <_>
          11 7 2 2 -1.</_>
        <_>
          12 7 1 2 2.</_></rects>
      <tilted>0</tilted></_>
    <_>
      <rects>
        <_>
          11 7 6 1 -1.</_>
        <_>
          14 7 3 1 2.</_></rects>
      <tilted>0</tilted></_>
    <_>
      <rects>
        <_>
          12 6 4 2 -1.</_>
        <_>
          12 6 2 1 2.</_>
        <_>
          14 7 2 1 2.</_></rects>
      <tilted>0</tilted></_>
    <_>
      <rects>
        <_>
          12 7 2 3 -1.</_>
        <_>
          13 7 1 3 2.</_></rects>
      <tilted>0</tilted></_>
    <_>
      <rects>
        <_>
          12 9 12 1 -1.</_>
        <_>
          15 9 6 1 2.</_></rects>
      <tilted>0</tilted></_>
    <_>
      <rects>
        <_>
          13 5 12 2 -1.</_>
        <_>
          16 5 6 2 2.</_></rects>
      <tilted>0</tilted></_>
    <_>
      <rects>
        <_>
          13 6 2 2 -1.</_>
        <_>
          13 6 1 1 2.</_>
        <_>
          14 7 1 1 2.</_></rects>
      <tilted>0</tilted></_>
    <_>
      <rects>
        <_>
          13 6 2 2 -1.</_>
        <_>
          14 6 1 2 2.</_></rects>
      <tilted>0</tilted></_>
    <_>
      <rects>
        <_>
          13 6 4 2 -1.</_>
        <_>
          14 6 2 2 2.</_></rects>
      <tilted>0</tilted></_>
    <_>
      <rects>
        <_>
          13 6 4 2 -1.</_>
        <_>
          15 6 2 2 2.</_></rects>
      <tilted>0</tilted></_>
    <_>
      <rects>
        <_>
          13 9 3 1 -1.</_>
        <_>
          14 9 1 1 3.</_></rects>
      <tilted>0</tilted></_>
    <_>
      <rects>
        <_>
          14 4 4 2 -1.</_>
        <_>
          16 4 2 2 2.</_></rects>
      <tilted>0</tilted></_>
    <_>
      <rects>
        <_>
          14 6 1 2 -1.</_>
        <_>
          14 7 1 1 2.</_></rects>
      <tilted>0</tilted></_>
    <_>
      <rects>
        <_>
          14 9 4 1 -1.</_>
        <_>
          16 9 2 1 2.</_></rects>
      <tilted>0</tilted></_>
    <_>
      <rects>
        <_>
          15 0 2 8 -1.</_>
        <_>
          15 4 2 4 2.</_></rects>
      <tilted>0</tilted></_>
    <_>
      <rects>
        <_>
          15 2 4 8 -1.</_>
        <_>
          15 6 4 4 2.</_></rects>
      <tilted>0</tilted></_>
    <_>
      <rects>
        <_>
          15 6 6 2 -1.</_>
        <_>
          15 6 3 1 2.</_>
        <_>
          18 7 3 1 2.</_></rects>
      <tilted>0</tilted></_>
    <_>
      <rects>
        <_>
          15 7 6 1 -1.</_>
        <_>
          17 7 2 1 3.</_></rects>
      <tilted>0</tilted></_>
    <_>
      <rects>
        <_>
          16 3 6 4 -1.</_>
        <_>
          16 4 6 2 2.</_></rects>
      <tilted>0</tilted></_>
    <_>
      <rects>
        <_>
          16 5 4 2 -1.</_>
        <_>
          16 5 2 1 2.</_>
        <_>
          18 6 2 1 2.</_></rects>
      <tilted>0</tilted></_>
    <_>
      <rects>
        <_>
          17 2 4 6 -1.</_>
        <_>
          17 4 4 2 3.</_></rects>
      <tilted>0</tilted></_>
    <_>
      <rects>
        <_>
          17 4 7 4 -1.</_>
        <_>
          17 6 7 2 2.</_></rects>
      <tilted>0</tilted></_>
    <_>
      <rects>
        <_>
          17 5 5 3 -1.</_>
        <_>
          17 6 5 1 3.</_></rects>
      <tilted>0</tilted></_>
    <_>
      <rects>
        <_>
          17 6 3 3 -1.</_>
        <_>
          17 7 3 1 3.</_></rects>
      <tilted>0</tilted></_>
    <_>
      <rects>
        <_>
          17 7 3 1 -1.</_>
        <_>
          18 7 1 1 3.</_></rects>
      <tilted>0</tilted></_>
    <_>
      <rects>
        <_>
          17 7 3 3 -1.</_>
        <_>
          18 8 1 1 9.</_></rects>
      <tilted>0</tilted></_>
    <_>
      <rects>
        <_>
          17 7 4 2 -1.</_>
        <_>
          18 7 2 2 2.</_></rects>
      <tilted>0</tilted></_>
    <_>
      <rects>
        <_>
          17 8 8 2 -1.</_>
        <_>
          21 8 4 2 2.</_></rects>
      <tilted>0</tilted></_>
    <_>
      <rects>
        <_>
          18 0 4 8 -1.</_>
        <_>
          18 2 4 4 2.</_></rects>
      <tilted>0</tilted></_>
    <_>
      <rects>
        <_>
          18 2 3 6 -1.</_>
        <_>
          18 4 3 2 3.</_></rects>
      <tilted>0</tilted></_>
    <_>
      <rects>
        <_>
          18 5 3 3 -1.</_>
        <_>
          18 6 3 1 3.</_></rects>
      <tilted>0</tilted></_>
    <_>
      <rects>
        <_>
          18 6 6 2 -1.</_>
        <_>
          18 6 3 1 2.</_>
        <_>
          21 7 3 1 2.</_></rects>
      <tilted>0</tilted></_>
    <_>
      <rects>
        <_>
          18 7 3 1 -1.</_>
        <_>
          19 7 1 1 3.</_></rects>
      <tilted>0</tilted></_>
    <_>
      <rects>
        <_>
          18 7 3 2 -1.</_>
        <_>
          19 7 1 2 3.</_></rects>
      <tilted>0</tilted></_>
    <_>
      <rects>
        <_>
          18 7 4 2 -1.</_>
        <_>
          19 7 2 2 2.</_></rects>
      <tilted>0</tilted></_>
    <_>
      <rects>
        <_>
          18 8 3 1 -1.</_>
        <_>
          19 8 1 1 3.</_></rects>
      <tilted>0</tilted></_>
    <_>
      <rects>
        <_>
          19 3 1 4 -1.</_>
        <_>
          19 5 1 2 2.</_></rects>
      <tilted>0</tilted></_>
    <_>
      <rects>
        <_>
          19 4 1 4 -1.</_>
        <_>
          19 5 1 2 2.</_></rects>
      <tilted>0</tilted></_>
    <_>
      <rects>
        <_>
          19 4 6 1 -1.</_>
        <_>
          22 4 3 1 2.</_></rects>
      <tilted>0</tilted></_>
    <_>
      <rects>
        <_>
          19 5 2 2 -1.</_>
        <_>
          19 6 2 1 2.</_></rects>
      <tilted>0</tilted></_>
    <_>
      <rects>
        <_>
          19 6 1 2 -1.</_>
        <_>
          19 7 1 1 2.</_></rects>
      <tilted>0</tilted></_>
    <_>
      <rects>
        <_>
          19 6 4 2 -1.</_>
        <_>
          19 6 2 1 2.</_>
        <_>
          21 7 2 1 2.</_></rects>
      <tilted>0</tilted></_>
    <_>
      <rects>
        <_>
          19 7 3 1 -1.</_>
        <_>
          20 7 1 1 3.</_></rects>
      <tilted>0</tilted></_>
    <_>
      <rects>
        <_>
          19 7 4 2 -1.</_>
        <_>
          20 7 2 2 2.</_></rects>
      <tilted>0</tilted></_>
    <_>
      <rects>
        <_>
          19 8 6 2 -1.</_>
        <_>
          22 8 3 2 2.</_></rects>
      <tilted>0</tilted></_>
    <_>
      <rects>
        <_>
          20 9 4 1 -1.</_>
        <_>
          22 9 2 1 2.</_></rects>
      <tilted>0</tilted></_>
    <_>
      <rects>
        <_>
          21 3 4 6 -1.</_>
        <_>
          21 3 2 3 2.</_>
        <_>
          23 6 2 3 2.</_></rects>
      <tilted>0</tilted></_>
    <_>
      <rects>
        <_>
          21 7 4 2 -1.</_>
        <_>
          23 7 2 2 2.</_></rects>
      <tilted>0</tilted></_>
    <_>
      <rects>
        <_>
          21 7 4 3 -1.</_>
        <_>
          23 7 2 3 2.</_></rects>
      <tilted>0</tilted></_>
    <_>
      <rects>
        <_>
          22 6 3 3 -1.</_>
        <_>
          23 7 1 1 9.</_></rects>
      <tilted>0</tilted></_>
    <_>
      <rects>
        <_>
          22 8 3 2 -1.</_>
        <_>
          23 8 1 2 3.</_></rects>
      <tilted>0</tilted></_>
    <_>
      <rects>
        <_>
          23 7 2 1 -1.</_>
        <_>
          24 7 1 1 2.</_></rects>
      <tilted>0</tilted></_>
    <_>
      <rects>
        <_>
          23 7 2 2 -1.</_>
        <_>
          24 7 1 2 2.</_></rects>
      <tilted>0</tilted></_>
    <_>
      <rects>
        <_>
          23 7 2 3 -1.</_>
        <_>
          24 7 1 3 2.</_></rects>
      <tilted>0</tilted></_>
    <_>
      <rects>
        <_>
          23 8 2 2 -1.</_>
        <_>
          24 8 1 2 2.</_></rects>
      <tilted>0</tilted></_></features></cascade>
</opencv_storage>
