<?xml version="1.0"?>
<opencv_storage>
<cascade>
  <stageType>BOOST</stageType>
  <featureType>HAAR</featureType>
  <height>40</height>
  <width>100</width>
  <stageParams>
    <boostType>GAB</boostType>
    <minHitRate>9.9500000476837158e-01</minHitRate>
    <maxFalseAlarm>5.0000000000000000e-01</maxFalseAlarm>
    <weightTrimRate>9.4999999999999996e-01</weightTrimRate>
    <maxDepth>1</maxDepth>
    <maxWeakCount>100</maxWeakCount></stageParams>
  <featureParams>
    <maxCatCount>0</maxCatCount>
    <featSize>1</featSize>
    <mode>ALL</mode></featureParams>
  <stageNum>6</stageNum>
  <stages>
    <!-- stage 0 -->
    <_>
      <maxWeakCount>4</maxWeakCount>
      <stageThreshold>-1.4594022035598755e+00</stageThreshold>
      <weakClassifiers>
        <_>
          <internalNodes>
            0 -1 5 -4.6876523643732071e-02</internalNodes>
          <leafValues>
            7.3469388484954834e-01 -7.0588237047195435e-01</leafValues></_>
        <_>
          <internalNodes>
            0 -1 20 5.7303532958030701e-03</internalNodes>
          <leafValues>
            -7.5361716747283936e-01 6.8179488182067871e-01</leafValues></_>
        <_>
          <internalNodes>
            0 -1 8 1.1934645473957062e-02</internalNodes>
          <leafValues>
            -6.2185347080230713e-01 8.1202626228332520e-01</leafValues></_>
        <_>
          <internalNodes>
            0 -1 3 -1.9878363236784935e-03</internalNodes>
          <leafValues>
            6.2195080518722534e-01 -6.8611687421798706e-01</leafValues></_></weakClassifiers></_>
    <!-- stage 1 -->
    <_>
      <maxWeakCount>5</maxWeakCount>
      <stageThreshold>-9.4238227605819702e-01</stageThreshold>
      <weakClassifiers>
        <_>
          <internalNodes>
            0 -1 16 -1.4830835163593292e-02</internalNodes>
          <leafValues>
            7.7903681993484497e-01 -6.1521250009536743e-01</leafValues></_>
        <_>
          <internalNodes>
            0 -1 4 -6.8283767905086279e-04</internalNodes>
          <leafValues>
            5.3211677074432373e-01 -7.4599587917327881e-01</leafValues></_>
        <_>
          <internalNodes>
            0 -1 1 -3.4008589573204517e-03</internalNodes>
          <leafValues>
            4.8588827252388000e-01 -7.5954592227935791e-01</leafValues></_>
        <_>
          <internalNodes>
            0 -1 10 1.6120139509439468e-02</internalNodes>
          <leafValues>
            -5.6497055292129517e-01 7.2287416458129883e-01</leafValues></_>
        <_>
          <internalNodes>
            0 -1 19 3.1840342562645674e-03</internalNodes>
          <leafValues>
            -7.5934213399887085e-01 4.9790838360786438e-01</leafValues></_></weakClassifiers></_>
    <!-- stage 2 -->
    <_>
      <maxWeakCount>6</maxWeakCount>
      <stageThreshold>-1.0163340568542480e+00</stageThreshold>
      <weakClassifiers>
        <_>
          <internalNodes>
            0 -1 17 -6.0056103393435478e-03</internalNodes>
          <leafValues>
            7.0078742504119873e-01 -6.3723152875900269e-01</leafValues></_>
        <_>
          <internalNodes>
            0 -1 2 -1.0641486383974552e-02</internalNodes>
          <leafValues>
            7.5721508264541626e-01 -4.7938001155853271e-01</leafValues></_>
        <_>
          <internalNodes>
            0 -1 18 1.7279663588851690e-03</internalNodes>
          <leafValues>
            -7.0720106363296509e-01 5.1563096046447754e-01</leafValues></_>
        <_>
          <internalNodes>
            0 -1 9 -1.2062123976647854e-02</internalNodes>
          <leafValues>
            8.5223019123077393e-01 -4.7262236475944519e-01</leafValues></_>
        <_>
          <internalNodes>
            0 -1 7 -3.2644290477037430e-02</internalNodes>
          <leafValues>
            8.3473503589630127e-01 -4.2597723007202148e-01</leafValues></_>
        <_>
          <internalNodes>
            0 -1 14 -2.0099661196582019e-04</internalNodes>
          <leafValues>
            -9.2332798242568970e-01 4.8324608802795410e-01</leafValues></_></weakClassifiers></_>
    <!-- stage 3 -->
    <_>
      <maxWeakCount>3</maxWeakCount>
      <stageThreshold>-6.3918083906173706e-01</stageThreshold>
      <weakClassifiers>
        <_>
          <internalNodes>
            0 -1 15 -8.5010938346385956e-03</internalNodes>
          <leafValues>
            8.6086958646774292e-01 -6.5274727344512939e-01</leafValues></_>
        <_>
          <internalNodes>
            0 -1 12 1.4250699896365404e-03</internalNodes>
          <leafValues>
            5.9614944458007812e-01 -8.5999351739883423e-01</leafValues></_>
        <_>
          <internalNodes>
            0 -1 11 -5.3301127627491951e-03</internalNodes>
          <leafValues>
            9.2250037193298340e-01 -5.8258306980133057e-01</leafValues></_></weakClassifiers></_>
    <!-- stage 4 -->
    <_>
      <maxWeakCount>2</maxWeakCount>
      <stageThreshold>1.1299192160367966e-01</stageThreshold>
      <weakClassifiers>
        <_>
          <internalNodes>
            0 -1 13 4.3971301056444645e-04</internalNodes>
          <leafValues>
            8.6567163467407227e-01 -8.7437188625335693e-01</leafValues></_>
        <_>
          <internalNodes>
            0 -1 6 -7.5697400607168674e-03</internalNodes>
          <leafValues>
            1. -7.5267970561981201e-01</leafValues></_></weakClassifiers></_>
    <!-- stage 5 -->
    <_>
      <maxWeakCount>1</maxWeakCount>
      <stageThreshold>1.</stageThreshold>
      <weakClassifiers>
        <_>
          <internalNodes>
            0 -1 0 -4.3609604472294450e-04</internalNodes>
          <leafValues>
            -1. 1.</leafValues></_></weakClassifiers></_></stages>
  <features>
    <_>
      <rects>
        <_>
          0 0 1 2 -1.</_>
        <_>
          0 1 1 1 2.</_></rects>
      <tilted>0</tilted></_>
    <_>
      <rects>
        <_>
          0 25 58 10 -1.</_>
        <_>
          0 25 29 5 2.</_>
        <_>
          29 30 29 5 2.</_></rects>
      <tilted>0</tilted></_>
    <_>
      <rects>
        <_>
          0 27 16 11 -1.</_>
        <_>
          8 27 8 11 2.</_></rects>
      <tilted>0</tilted></_>
    <_>
      <rects>
        <_>
          0 33 16 4 -1.</_>
        <_>
          8 33 8 4 2.</_></rects>
      <tilted>0</tilted></_>
    <_>
      <rects>
        <_>
          1 30 8 9 -1.</_>
        <_>
          5 30 4 9 2.</_></rects>
      <tilted>0</tilted></_>
    <_>
      <rects>
        <_>
          5 17 87 10 -1.</_>
        <_>
          5 22 87 5 2.</_></rects>
      <tilted>0</tilted></_>
    <_>
      <rects>
        <_>
          7 19 23 15 -1.</_>
        <_>
          7 24 23 5 3.</_></rects>
      <tilted>0</tilted></_>
    <_>
      <rects>
        <_>
          8 28 55 12 -1.</_>
        <_>
          8 31 55 6 2.</_></rects>
      <tilted>0</tilted></_>
    <_>
      <rects>
        <_>
          12 36 59 4 -1.</_>
        <_>
          12 38 59 2 2.</_></rects>
      <tilted>0</tilted></_>
    <_>
      <rects>
        <_>
          14 23 28 10 -1.</_>
        <_>
          14 23 14 5 2.</_>
        <_>
          28 28 14 5 2.</_></rects>
      <tilted>0</tilted></_>
    <_>
      <rects>
        <_>
          16 36 67 4 -1.</_>
        <_>
          16 38 67 2 2.</_></rects>
      <tilted>0</tilted></_>
    <_>
      <rects>
        <_>
          38 15 52 14 -1.</_>
        <_>
          38 15 26 7 2.</_>
        <_>
          64 22 26 7 2.</_></rects>
      <tilted>0</tilted></_>
    <_>
      <rects>
        <_>
          47 22 12 8 -1.</_>
        <_>
          51 22 4 8 3.</_></rects>
      <tilted>0</tilted></_>
    <_>
      <rects>
        <_>
          51 27 14 1 -1.</_>
        <_>
          58 27 7 1 2.</_></rects>
      <tilted>0</tilted></_>
    <_>
      <rects>
        <_>
          54 25 2 12 -1.</_>
        <_>
          54 25 1 6 2.</_>
        <_>
          55 31 1 6 2.</_></rects>
      <tilted>0</tilted></_>
    <_>
      <rects>
        <_>
          72 19 15 12 -1.</_>
        <_>
          72 23 15 4 3.</_></rects>
      <tilted>0</tilted></_>
    <_>
      <rects>
        <_>
          73 18 13 15 -1.</_>
        <_>
          73 23 13 5 3.</_></rects>
      <tilted>0</tilted></_>
    <_>
      <rects>
        <_>
          74 17 7 16 -1.</_>
        <_>
          74 21 7 8 2.</_></rects>
      <tilted>0</tilted></_>
    <_>
      <rects>
        <_>
          78 35 22 5 -1.</_>
        <_>
          89 35 11 5 2.</_></rects>
      <tilted>0</tilted></_>
    <_>
      <rects>
        <_>
          81 13 2 20 -1.</_>
        <_>
          81 13 2 10 2.</_></rects>
      <tilted>1</tilted></_>
    <_>
      <rects>
        <_>
          82 30 18 10 -1.</_>
        <_>
          91 30 9 10 2.</_></rects>
      <tilted>0</tilted></_></features></cascade>
</opencv_storage>
