<?xml version="1.0"?>
<opencv_storage>
<stage11>
  <maxWeakCount>11</maxWeakCount>
  <stageThreshold>-7.7500134706497192e-01</stageThreshold>
  <weakClassifiers>
    <_>
      <internalNodes>
        0 -1 37342 5.9944922104477882e-03</internalNodes>
      <leafValues>
        -2.3583181202411652e-01 6.4872521162033081e-01</leafValues></_>
    <_>
      <internalNodes>
        0 -1 14268 -2.0764932036399841e-02</internalNodes>
      <leafValues>
        -8.2675373554229736e-01 2.0600296556949615e-01</leafValues></_>
    <_>
      <internalNodes>
        0 -1 35411 -4.0319813415408134e-03</internalNodes>
      <leafValues>
        4.5896208286285400e-01 -3.1249579787254333e-01</leafValues></_>
    <_>
      <internalNodes>
        0 -1 14091 7.9416427761316299e-03</internalNodes>
      <leafValues>
        -3.0248212814331055e-01 4.7714862227439880e-01</leafValues></_>
    <_>
      <internalNodes>
        0 -1 14091 -6.6623375751078129e-03</internalNodes>
      <leafValues>
        7.9894876480102539e-01 -2.4545866250991821e-01</leafValues></_>
    <_>
      <internalNodes>
        0 -1 25427 -5.2662016823887825e-03</internalNodes>
      <leafValues>
        -8.1697410345077515e-01 2.5635817646980286e-01</leafValues></_>
    <_>
      <internalNodes>
        0 -1 11465 -7.7093332074582577e-03</internalNodes>
      <leafValues>
        5.9193724393844604e-01 -2.6302808523178101e-01</leafValues></_>
    <_>
      <internalNodes>
        0 -1 11459 3.5203658044338226e-03</internalNodes>
      <leafValues>
        -3.0315166711807251e-01 5.7924699783325195e-01</leafValues></_>
    <_>
      <internalNodes>
        0 -1 25135 2.3167040199041367e-03</internalNodes>
      <leafValues>
        2.2770708799362183e-01 -8.0413675308227539e-01</leafValues></_>
    <_>
      <internalNodes>
        0 -1 31832 2.7642785571515560e-03</internalNodes>
      <leafValues>
        1.3224516808986664e-01 -9.0954971313476562e-01</leafValues></_>
    <_>
      <internalNodes>
        0 -1 21011 -3.0446625314652920e-03</internalNodes>
      <leafValues>
        2.1737183630466461e-01 -5.2356374263763428e-01</leafValues></_></weakClassifiers></stage11>
</opencv_storage>
