<?xml version="1.0"?>
<opencv_storage>
<stage6>
  <maxWeakCount>7</maxWeakCount>
  <stageThreshold>-8.9442539215087891e-01</stageThreshold>
  <weakClassifiers>
    <_>
      <internalNodes>
        0 -1 13928 -1.3020947575569153e-02</internalNodes>
      <leafValues>
        4.3650794029235840e-01 -5.6569343805313110e-01</leafValues></_>
    <_>
      <internalNodes>
        0 -1 38082 -3.9862636476755142e-03</internalNodes>
      <leafValues>
        4.6988189220428467e-01 -3.8283833861351013e-01</leafValues></_>
    <_>
      <internalNodes>
        0 -1 37206 -2.7857461944222450e-02</internalNodes>
      <leafValues>
        3.0326163768768311e-01 -6.1607795953750610e-01</leafValues></_>
    <_>
      <internalNodes>
        0 -1 2976 -8.0897942185401917e-02</internalNodes>
      <leafValues>
        4.9099993705749512e-01 -3.8421466946601868e-01</leafValues></_>
    <_>
      <internalNodes>
        0 -1 2847 -1.0771751403808594e-03</internalNodes>
      <leafValues>
        3.0351093411445618e-01 -6.8058931827545166e-01</leafValues></_>
    <_>
      <internalNodes>
        0 -1 24343 -3.1112167984247208e-02</internalNodes>
      <leafValues>
        6.4734351634979248e-01 -2.7833113074302673e-01</leafValues></_>
    <_>
      <internalNodes>
        0 -1 28586 5.2436105906963348e-03</internalNodes>
      <leafValues>
        2.4125966429710388e-01 -8.3217823505401611e-01</leafValues></_></weakClassifiers></stage6>
</opencv_storage>
