<?xml version="1.0"?>
<opencv_storage>
<stage5>
  <maxWeakCount>6</maxWeakCount>
  <stageThreshold>-6.7100512981414795e-01</stageThreshold>
  <weakClassifiers>
    <_>
      <internalNodes>
        0 -1 458091 -8.3779850974678993e-03</internalNodes>
      <leafValues>
        7.3584908246994019e-01 -4.3402224779129028e-01</leafValues></_>
    <_>
      <internalNodes>
        0 -1 185002 -4.9140867777168751e-03</internalNodes>
      <leafValues>
        3.8276380300521851e-01 -6.9123768806457520e-01</leafValues></_>
    <_>
      <internalNodes>
        0 -1 298002 2.1545710042119026e-03</internalNodes>
      <leafValues>
        2.5744810700416565e-01 -8.4977823495864868e-01</leafValues></_>
    <_>
      <internalNodes>
        0 -1 363578 1.0767708532512188e-02</internalNodes>
      <leafValues>
        -6.0417717695236206e-01 4.0729531645774841e-01</leafValues></_>
    <_>
      <internalNodes>
        0 -1 16144 -6.4491585362702608e-04</internalNodes>
      <leafValues>
        6.0626459121704102e-01 -4.1750293970108032e-01</leafValues></_>
    <_>
      <internalNodes>
        0 -1 373575 3.0065665487200022e-03</internalNodes>
      <leafValues>
        2.7296969294548035e-01 -8.6698716878890991e-01</leafValues></_></weakClassifiers></stage5>
</opencv_storage>
