<?xml version="1.0"?>
<opencv_storage>
<stage11>
  <maxWeakCount>9</maxWeakCount>
  <stageThreshold>-5.6786274909973145e-01</stageThreshold>
  <weakClassifiers>
    <_>
      <internalNodes>
        0 -1 41527 8.9067332446575165e-03</internalNodes>
      <leafValues>
        -1.3302752375602722e-01 7.0879119634628296e-01</leafValues></_>
    <_>
      <internalNodes>
        0 -1 14486 -4.3510310351848602e-03</internalNodes>
      <leafValues>
        3.5234752297401428e-01 -5.3219425678253174e-01</leafValues></_>
    <_>
      <internalNodes>
        0 -1 31029 -2.4515464901924133e-03</internalNodes>
      <leafValues>
        -8.4616512060165405e-01 1.7631620168685913e-01</leafValues></_>
    <_>
      <internalNodes>
        0 -1 31290 5.4713897407054901e-03</internalNodes>
      <leafValues>
        1.7725181579589844e-01 -7.5892752408981323e-01</leafValues></_>
    <_>
      <internalNodes>
        0 -1 10498 -2.6204749941825867e-02</internalNodes>
      <leafValues>
        4.9371969699859619e-01 -3.1370738148689270e-01</leafValues></_>
    <_>
      <internalNodes>
        0 -1 7385 2.1187257021665573e-02</internalNodes>
      <leafValues>
        -3.3367028832435608e-01 4.6901273727416992e-01</leafValues></_>
    <_>
      <internalNodes>
        0 -1 6081 -8.0018915468826890e-05</internalNodes>
      <leafValues>
        1.8423397839069366e-01 -7.9653406143188477e-01</leafValues></_>
    <_>
      <internalNodes>
        0 -1 27071 -1.8330381717532873e-03</internalNodes>
      <leafValues>
        -8.1983965635299683e-01 1.7615619301795959e-01</leafValues></_>
    <_>
      <internalNodes>
        0 -1 43986 1.3374876230955124e-02</internalNodes>
      <leafValues>
        -4.6558615565299988e-01 3.0322408676147461e-01</leafValues></_></weakClassifiers></stage11>
</opencv_storage>
