<?xml version="1.0"?>
<opencv_storage>
<cascade>
  <stageType>BOOST</stageType>
  <featureType>HAAR</featureType>
  <height>20</height>
  <width>50</width>
  <stageParams>
    <boostType>GAB</boostType>
    <minHitRate>9.9500000476837158e-01</minHitRate>
    <maxFalseAlarm>5.0000000000000000e-01</maxFalseAlarm>
    <weightTrimRate>9.4999999999999996e-01</weightTrimRate>
    <maxDepth>1</maxDepth>
    <maxWeakCount>100</maxWeakCount></stageParams>
  <featureParams>
    <maxCatCount>0</maxCatCount>
    <featSize>1</featSize>
    <mode>CORE</mode></featureParams>
  <stageNum>18</stageNum>
  <stages>
    <!-- stage 0 -->
    <_>
      <maxWeakCount>3</maxWeakCount>
      <stageThreshold>-6.1626428365707397e-01</stageThreshold>
      <weakClassifiers>
        <_>
          <internalNodes>
            0 -1 11 1.5116441994905472e-02</internalNodes>
          <leafValues>
            -5.3658539056777954e-01 9.1338580846786499e-01</leafValues></_>
        <_>
          <internalNodes>
            0 -1 2 -2.8451286256313324e-02</internalNodes>
          <leafValues>
            7.3027408123016357e-01 -6.5461802482604980e-01</leafValues></_>
        <_>
          <internalNodes>
            0 -1 82 1.5387439634650946e-03</internalNodes>
          <leafValues>
            -8.0995303392410278e-01 6.1652761697769165e-01</leafValues></_></weakClassifiers></_>
    <!-- stage 1 -->
    <_>
      <maxWeakCount>4</maxWeakCount>
      <stageThreshold>-9.7975552082061768e-01</stageThreshold>
      <weakClassifiers>
        <_>
          <internalNodes>
            0 -1 28 1.8817307427525520e-02</internalNodes>
          <leafValues>
            -4.6303501725196838e-01 9.0123456716537476e-01</leafValues></_>
        <_>
          <internalNodes>
            0 -1 7 -8.2278379704803228e-04</internalNodes>
          <leafValues>
            6.4759105443954468e-01 -7.1396547555923462e-01</leafValues></_>
        <_>
          <internalNodes>
            0 -1 56 5.0351396203041077e-03</internalNodes>
          <leafValues>
            -6.6684973239898682e-01 6.5673458576202393e-01</leafValues></_>
        <_>
          <internalNodes>
            0 -1 81 2.4215444922447205e-02</internalNodes>
          <leafValues>
            -4.9746179580688477e-01 7.4283587932586670e-01</leafValues></_></weakClassifiers></_>
    <!-- stage 2 -->
    <_>
      <maxWeakCount>5</maxWeakCount>
      <stageThreshold>-4.0693676471710205e-01</stageThreshold>
      <weakClassifiers>
        <_>
          <internalNodes>
            0 -1 17 -4.4364079833030701e-02</internalNodes>
          <leafValues>
            7.9850745201110840e-01 -4.9137932062149048e-01</leafValues></_>
        <_>
          <internalNodes>
            0 -1 85 5.4505933076143265e-03</internalNodes>
          <leafValues>
            -6.7121160030364990e-01 5.6214421987533569e-01</leafValues></_>
        <_>
          <internalNodes>
            0 -1 73 -2.1541947498917580e-03</internalNodes>
          <leafValues>
            6.7644619941711426e-01 -4.6602731943130493e-01</leafValues></_>
        <_>
          <internalNodes>
            0 -1 6 -2.4800268001854420e-03</internalNodes>
          <leafValues>
            6.4084810018539429e-01 -5.7587951421737671e-01</leafValues></_>
        <_>
          <internalNodes>
            0 -1 14 -1.7133409157395363e-02</internalNodes>
          <leafValues>
            5.8083337545394897e-01 -5.4146808385848999e-01</leafValues></_></weakClassifiers></_>
    <!-- stage 3 -->
    <_>
      <maxWeakCount>6</maxWeakCount>
      <stageThreshold>-7.5940304994583130e-01</stageThreshold>
      <weakClassifiers>
        <_>
          <internalNodes>
            0 -1 23 -6.8287705071270466e-03</internalNodes>
          <leafValues>
            8.0076628923416138e-01 -4.5606693625450134e-01</leafValues></_>
        <_>
          <internalNodes>
            0 -1 72 -2.5182032957673073e-02</internalNodes>
          <leafValues>
            6.5784198045730591e-01 -4.5180898904800415e-01</leafValues></_>
        <_>
          <internalNodes>
            0 -1 42 -1.3796119950711727e-02</internalNodes>
          <leafValues>
            7.4893176555633545e-01 -3.3675423264503479e-01</leafValues></_>
        <_>
          <internalNodes>
            0 -1 59 8.7608592584729195e-03</internalNodes>
          <leafValues>
            -6.8581140041351318e-01 4.2548850178718567e-01</leafValues></_>
        <_>
          <internalNodes>
            0 -1 34 1.1369241774082184e-01</internalNodes>
          <leafValues>
            -3.3074221014976501e-01 8.7546014785766602e-01</leafValues></_>
        <_>
          <internalNodes>
            0 -1 54 -1.0205766186118126e-02</internalNodes>
          <leafValues>
            -8.4638714790344238e-01 3.9048084616661072e-01</leafValues></_></weakClassifiers></_>
    <!-- stage 4 -->
    <_>
      <maxWeakCount>5</maxWeakCount>
      <stageThreshold>-9.0967130661010742e-01</stageThreshold>
      <weakClassifiers>
        <_>
          <internalNodes>
            0 -1 71 -1.2005660682916641e-02</internalNodes>
          <leafValues>
            7.1929824352264404e-01 -4.8837208747863770e-01</leafValues></_>
        <_>
          <internalNodes>
            0 -1 1 -2.3749584332108498e-02</internalNodes>
          <leafValues>
            6.6352176666259766e-01 -4.6769022941589355e-01</leafValues></_>
        <_>
          <internalNodes>
            0 -1 86 2.6297662407159805e-03</internalNodes>
          <leafValues>
            -5.5414164066314697e-01 5.9851938486099243e-01</leafValues></_>
        <_>
          <internalNodes>
            0 -1 55 -7.1217422373592854e-04</internalNodes>
          <leafValues>
            -9.4119733572006226e-01 3.1079965829849243e-01</leafValues></_>
        <_>
          <internalNodes>
            0 -1 22 -3.5866685211658478e-02</internalNodes>
          <leafValues>
            -8.7256234884262085e-01 2.8973299264907837e-01</leafValues></_></weakClassifiers></_>
    <!-- stage 5 -->
    <_>
      <maxWeakCount>5</maxWeakCount>
      <stageThreshold>-5.1886475086212158e-01</stageThreshold>
      <weakClassifiers>
        <_>
          <internalNodes>
            0 -1 29 -9.7723715007305145e-03</internalNodes>
          <leafValues>
            7.1955716609954834e-01 -4.1484716534614563e-01</leafValues></_>
        <_>
          <internalNodes>
            0 -1 65 -3.1707130372524261e-02</internalNodes>
          <leafValues>
            5.8673667907714844e-01 -6.3423949480056763e-01</leafValues></_>
        <_>
          <internalNodes>
            0 -1 87 8.2188693340867758e-04</internalNodes>
          <leafValues>
            -6.6112232208251953e-01 5.1280295848846436e-01</leafValues></_>
        <_>
          <internalNodes>
            0 -1 12 2.2013399004936218e-01</internalNodes>
          <leafValues>
            -3.8259515166282654e-01 7.9742997884750366e-01</leafValues></_>
        <_>
          <internalNodes>
            0 -1 48 4.5958436094224453e-03</internalNodes>
          <leafValues>
            4.3953499197959900e-01 -7.8541976213455200e-01</leafValues></_></weakClassifiers></_>
    <!-- stage 6 -->
    <_>
      <maxWeakCount>5</maxWeakCount>
      <stageThreshold>-4.2531859874725342e-01</stageThreshold>
      <weakClassifiers>
        <_>
          <internalNodes>
            0 -1 63 4.5445756986737251e-03</internalNodes>
          <leafValues>
            -4.4339624047279358e-01 6.7361110448837280e-01</leafValues></_>
        <_>
          <internalNodes>
            0 -1 60 1.8971582176163793e-03</internalNodes>
          <leafValues>
            4.2086493968963623e-01 -8.2511723041534424e-01</leafValues></_>
        <_>
          <internalNodes>
            0 -1 32 -2.8713617939502001e-03</internalNodes>
          <leafValues>
            5.3271210193634033e-01 -6.0738682746887207e-01</leafValues></_>
        <_>
          <internalNodes>
            0 -1 25 -1.0400072671473026e-02</internalNodes>
          <leafValues>
            7.0127558708190918e-01 -4.1170197725296021e-01</leafValues></_>
        <_>
          <internalNodes>
            0 -1 77 -2.5471495464444160e-03</internalNodes>
          <leafValues>
            7.3290365934371948e-01 -3.9079281687736511e-01</leafValues></_></weakClassifiers></_>
    <!-- stage 7 -->
    <_>
      <maxWeakCount>4</maxWeakCount>
      <stageThreshold>-1.0576273202896118e+00</stageThreshold>
      <weakClassifiers>
        <_>
          <internalNodes>
            0 -1 58 -3.2481565140187740e-03</internalNodes>
          <leafValues>
            -6.9536423683166504e-01 5.8739256858825684e-01</leafValues></_>
        <_>
          <internalNodes>
            0 -1 19 -3.7800881545990705e-03</internalNodes>
          <leafValues>
            7.4055826663970947e-01 -4.8777917027473450e-01</leafValues></_>
        <_>
          <internalNodes>
            0 -1 84 8.5702836513519287e-03</internalNodes>
          <leafValues>
            -5.9476923942565918e-01 6.2828177213668823e-01</leafValues></_>
        <_>
          <internalNodes>
            0 -1 3 -1.8410637974739075e-02</internalNodes>
          <leafValues>
            6.4454573392868042e-01 -5.6247150897979736e-01</leafValues></_></weakClassifiers></_>
    <!-- stage 8 -->
    <_>
      <maxWeakCount>6</maxWeakCount>
      <stageThreshold>-7.7745145559310913e-01</stageThreshold>
      <weakClassifiers>
        <_>
          <internalNodes>
            0 -1 31 -3.5921379458159208e-03</internalNodes>
          <leafValues>
            7.6666665077209473e-01 -3.2307693362236023e-01</leafValues></_>
        <_>
          <internalNodes>
            0 -1 69 -5.6825578212738037e-03</internalNodes>
          <leafValues>
            8.1967025995254517e-01 -3.1867104768753052e-01</leafValues></_>
        <_>
          <internalNodes>
            0 -1 40 -1.5815621241927147e-02</internalNodes>
          <leafValues>
            4.3889325857162476e-01 -6.9596648216247559e-01</leafValues></_>
        <_>
          <internalNodes>
            0 -1 83 1.2600420042872429e-02</internalNodes>
          <leafValues>
            -5.4582202434539795e-01 4.5019492506980896e-01</leafValues></_>
        <_>
          <internalNodes>
            0 -1 89 2.0518302917480469e-03</internalNodes>
          <leafValues>
            -3.8584196567535400e-01 8.3675861358642578e-01</leafValues></_>
        <_>
          <internalNodes>
            0 -1 18 -4.3279840610921383e-03</internalNodes>
          <leafValues>
            4.9591004848480225e-01 -5.7522207498550415e-01</leafValues></_></weakClassifiers></_>
    <!-- stage 9 -->
    <_>
      <maxWeakCount>7</maxWeakCount>
      <stageThreshold>-8.1595975160598755e-01</stageThreshold>
      <weakClassifiers>
        <_>
          <internalNodes>
            0 -1 76 -6.9712204858660698e-03</internalNodes>
          <leafValues>
            8.6274510622024536e-01 -2.5675675272941589e-01</leafValues></_>
        <_>
          <internalNodes>
            0 -1 90 5.6248047621920705e-04</internalNodes>
          <leafValues>
            -3.1087136268615723e-01 6.6863328218460083e-01</leafValues></_>
        <_>
          <internalNodes>
            0 -1 64 1.5500407898798585e-03</internalNodes>
          <leafValues>
            -3.5462734103202820e-01 6.4064151048660278e-01</leafValues></_>
        <_>
          <internalNodes>
            0 -1 51 1.5895726159214973e-02</internalNodes>
          <leafValues>
            -4.8769244551658630e-01 5.5785447359085083e-01</leafValues></_>
        <_>
          <internalNodes>
            0 -1 82 1.1943969875574112e-03</internalNodes>
          <leafValues>
            -7.0072156190872192e-01 3.5681918263435364e-01</leafValues></_>
        <_>
          <internalNodes>
            0 -1 35 -7.8930426388978958e-03</internalNodes>
          <leafValues>
            7.9425454139709473e-01 -3.7635150551795959e-01</leafValues></_>
        <_>
          <internalNodes>
            0 -1 13 -4.0711225010454655e-03</internalNodes>
          <leafValues>
            7.4412554502487183e-01 -3.6598417162895203e-01</leafValues></_></weakClassifiers></_>
    <!-- stage 10 -->
    <_>
      <maxWeakCount>7</maxWeakCount>
      <stageThreshold>-3.9999392628669739e-01</stageThreshold>
      <weakClassifiers>
        <_>
          <internalNodes>
            0 -1 75 2.0936205983161926e-03</internalNodes>
          <leafValues>
            -2.5088340044021606e-01 7.8801840543746948e-01</leafValues></_>
        <_>
          <internalNodes>
            0 -1 62 -7.3452005162835121e-03</internalNodes>
          <leafValues>
            6.0275238752365112e-01 -3.4068667888641357e-01</leafValues></_>
        <_>
          <internalNodes>
            0 -1 67 -3.1601808965206146e-02</internalNodes>
          <leafValues>
            5.4859918355941772e-01 -4.6074259281158447e-01</leafValues></_>
        <_>
          <internalNodes>
            0 -1 30 -3.0818087980151176e-03</internalNodes>
          <leafValues>
            4.2154213786125183e-01 -5.2938538789749146e-01</leafValues></_>
        <_>
          <internalNodes>
            0 -1 52 -1.1389416176825762e-03</internalNodes>
          <leafValues>
            -8.8967353105545044e-01 2.4189703166484833e-01</leafValues></_>
        <_>
          <internalNodes>
            0 -1 70 1.5961281955242157e-02</internalNodes>
          <leafValues>
            -3.7860083580017090e-01 6.3711506128311157e-01</leafValues></_>
        <_>
          <internalNodes>
            0 -1 53 -8.6590548744425178e-04</internalNodes>
          <leafValues>
            4.9719771742820740e-01 -4.7262784838676453e-01</leafValues></_></weakClassifiers></_>
    <!-- stage 11 -->
    <_>
      <maxWeakCount>6</maxWeakCount>
      <stageThreshold>-4.0945741534233093e-01</stageThreshold>
      <weakClassifiers>
        <_>
          <internalNodes>
            0 -1 80 8.8537612464278936e-04</internalNodes>
          <leafValues>
            -3.5510203242301941e-01 7.3333334922790527e-01</leafValues></_>
        <_>
          <internalNodes>
            0 -1 49 -5.8778491802513599e-04</internalNodes>
          <leafValues>
            -6.9062137603759766e-01 4.5180171728134155e-01</leafValues></_>
        <_>
          <internalNodes>
            0 -1 43 -1.6598036512732506e-02</internalNodes>
          <leafValues>
            7.3005098104476929e-01 -3.6842387914657593e-01</leafValues></_>
        <_>
          <internalNodes>
            0 -1 33 -4.5810230076313019e-03</internalNodes>
          <leafValues>
            8.7158304452896118e-01 -2.7594235539436340e-01</leafValues></_>
        <_>
          <internalNodes>
            0 -1 37 3.1532600987702608e-03</internalNodes>
          <leafValues>
            -2.6218461990356445e-01 7.7743440866470337e-01</leafValues></_>
        <_>
          <internalNodes>
            0 -1 10 -2.3163200821727514e-03</internalNodes>
          <leafValues>
            4.5438146591186523e-01 -5.9407204389572144e-01</leafValues></_></weakClassifiers></_>
    <!-- stage 12 -->
    <_>
      <maxWeakCount>5</maxWeakCount>
      <stageThreshold>-4.1851165890693665e-01</stageThreshold>
      <weakClassifiers>
        <_>
          <internalNodes>
            0 -1 9 3.5886759869754314e-03</internalNodes>
          <leafValues>
            -2.9850745201110840e-01 7.7586209774017334e-01</leafValues></_>
        <_>
          <internalNodes>
            0 -1 5 -7.9731736332178116e-03</internalNodes>
          <leafValues>
            5.4121381044387817e-01 -5.1285755634307861e-01</leafValues></_>
        <_>
          <internalNodes>
            0 -1 45 6.4682490192353725e-03</internalNodes>
          <leafValues>
            -5.3666448593139648e-01 5.0185298919677734e-01</leafValues></_>
        <_>
          <internalNodes>
            0 -1 46 6.3992198556661606e-04</internalNodes>
          <leafValues>
            3.3784443140029907e-01 -7.7171707153320312e-01</leafValues></_>
        <_>
          <internalNodes>
            0 -1 66 -3.6855419166386127e-03</internalNodes>
          <leafValues>
            8.2365143299102783e-01 -3.9135393500328064e-01</leafValues></_></weakClassifiers></_>
    <!-- stage 13 -->
    <_>
      <maxWeakCount>6</maxWeakCount>
      <stageThreshold>-1.1204618215560913e+00</stageThreshold>
      <weakClassifiers>
        <_>
          <internalNodes>
            0 -1 4 -2.8471136465668678e-03</internalNodes>
          <leafValues>
            6.0689657926559448e-01 -3.6190477013587952e-01</leafValues></_>
        <_>
          <internalNodes>
            0 -1 38 -3.4442022442817688e-03</internalNodes>
          <leafValues>
            6.7435163259506226e-01 -3.9673823118209839e-01</leafValues></_>
        <_>
          <internalNodes>
            0 -1 50 1.7463912954553962e-03</internalNodes>
          <leafValues>
            3.1037789583206177e-01 -8.9918911457061768e-01</leafValues></_>
        <_>
          <internalNodes>
            0 -1 27 1.3666673563420773e-02</internalNodes>
          <leafValues>
            -4.5607694983482361e-01 5.2513009309768677e-01</leafValues></_>
        <_>
          <internalNodes>
            0 -1 74 -3.7444029003381729e-02</internalNodes>
          <leafValues>
            4.3125894665718079e-01 -6.1132997274398804e-01</leafValues></_>
        <_>
          <internalNodes>
            0 -1 61 -3.4655132913030684e-04</internalNodes>
          <leafValues>
            -7.1428638696670532e-01 3.9521023631095886e-01</leafValues></_></weakClassifiers></_>
    <!-- stage 14 -->
    <_>
      <maxWeakCount>5</maxWeakCount>
      <stageThreshold>-5.1946836709976196e-01</stageThreshold>
      <weakClassifiers>
        <_>
          <internalNodes>
            0 -1 24 8.2926563918590546e-03</internalNodes>
          <leafValues>
            4.8691099882125854e-01 -7.2881358861923218e-01</leafValues></_>
        <_>
          <internalNodes>
            0 -1 21 4.7277454286813736e-03</internalNodes>
          <leafValues>
            -3.4188759326934814e-01 8.7446421384811401e-01</leafValues></_>
        <_>
          <internalNodes>
            0 -1 26 -2.0586652681231499e-03</internalNodes>
          <leafValues>
            5.9216052293777466e-01 -4.4564339518547058e-01</leafValues></_>
        <_>
          <internalNodes>
            0 -1 16 -9.1985436156392097e-03</internalNodes>
          <leafValues>
            3.4343555569648743e-01 -8.4021818637847900e-01</leafValues></_>
        <_>
          <internalNodes>
            0 -1 0 -2.6131165213882923e-03</internalNodes>
          <leafValues>
            7.9233276844024658e-01 -3.8436326384544373e-01</leafValues></_></weakClassifiers></_>
    <!-- stage 15 -->
    <_>
      <maxWeakCount>7</maxWeakCount>
      <stageThreshold>-6.8012505769729614e-01</stageThreshold>
      <weakClassifiers>
        <_>
          <internalNodes>
            0 -1 79 -2.6359683834016323e-03</internalNodes>
          <leafValues>
            8.0444443225860596e-01 -2.9454544186592102e-01</leafValues></_>
        <_>
          <internalNodes>
            0 -1 39 1.3478072360157967e-03</internalNodes>
          <leafValues>
            -4.1892102360725403e-01 6.4837890863418579e-01</leafValues></_>
        <_>
          <internalNodes>
            0 -1 78 -3.3848716411739588e-03</internalNodes>
          <leafValues>
            9.1108226776123047e-01 -2.6794514060020447e-01</leafValues></_>
        <_>
          <internalNodes>
            0 -1 68 -5.6602652184665203e-03</internalNodes>
          <leafValues>
            7.7744406461715698e-01 -3.7520188093185425e-01</leafValues></_>
        <_>
          <internalNodes>
            0 -1 15 2.1355401258915663e-04</internalNodes>
          <leafValues>
            -3.9022850990295410e-01 6.5263181924819946e-01</leafValues></_>
        <_>
          <internalNodes>
            0 -1 47 1.8422893481329083e-03</internalNodes>
          <leafValues>
            3.5817062854766846e-01 -7.2217857837677002e-01</leafValues></_>
        <_>
          <internalNodes>
            0 -1 88 3.0289200367406011e-04</internalNodes>
          <leafValues>
            -3.5875362157821655e-01 8.1098461151123047e-01</leafValues></_></weakClassifiers></_>
    <!-- stage 16 -->
    <_>
      <maxWeakCount>5</maxWeakCount>
      <stageThreshold>-1.2153352499008179e+00</stageThreshold>
      <weakClassifiers>
        <_>
          <internalNodes>
            0 -1 76 -3.7076030857861042e-03</internalNodes>
          <leafValues>
            7.8461539745330811e-01 -4.3333333730697632e-01</leafValues></_>
        <_>
          <internalNodes>
            0 -1 44 -1.8157640006393194e-03</internalNodes>
          <leafValues>
            -6.0527801513671875e-01 6.9425714015960693e-01</leafValues></_>
        <_>
          <internalNodes>
            0 -1 20 -1.6637649969197810e-04</internalNodes>
          <leafValues>
            7.4599003791809082e-01 -6.0942298173904419e-01</leafValues></_>
        <_>
          <internalNodes>
            0 -1 8 -2.1344069391489029e-03</internalNodes>
          <leafValues>
            9.6269565820693970e-01 -4.2284008860588074e-01</leafValues></_>
        <_>
          <internalNodes>
            0 -1 57 2.7030005003325641e-04</internalNodes>
          <leafValues>
            7.6234763860702515e-01 -4.9987378716468811e-01</leafValues></_></weakClassifiers></_>
    <!-- stage 17 -->
    <_>
      <maxWeakCount>2</maxWeakCount>
      <stageThreshold>-6.6421397030353546e-02</stageThreshold>
      <weakClassifiers>
        <_>
          <internalNodes>
            0 -1 36 -1.9756447523832321e-02</internalNodes>
          <leafValues>
            -9.2307692766189575e-01 8.4276729822158813e-01</leafValues></_>
        <_>
          <internalNodes>
            0 -1 41 -8.3646804094314575e-02</internalNodes>
          <leafValues>
            -9.0918868780136108e-01 8.6586618423461914e-01</leafValues></_></weakClassifiers></_></stages>
  <features>
    <_>
      <rects>
        <_>
          0 6 2 10 -1.</_>
        <_>
          0 6 1 5 2.</_>
        <_>
          1 11 1 5 2.</_></rects>
      <tilted>0</tilted></_>
    <_>
      <rects>
        <_>
          0 8 13 6 -1.</_>
        <_>
          0 11 13 3 2.</_></rects>
      <tilted>0</tilted></_>
    <_>
      <rects>
        <_>
          0 9 45 4 -1.</_>
        <_>
          0 11 45 2 2.</_></rects>
      <tilted>0</tilted></_>
    <_>
      <rects>
        <_>
          0 11 36 8 -1.</_>
        <_>
          0 11 18 4 2.</_>
        <_>
          18 15 18 4 2.</_></rects>
      <tilted>0</tilted></_>
    <_>
      <rects>
        <_>
          0 13 4 7 -1.</_>
        <_>
          2 13 2 7 2.</_></rects>
      <tilted>0</tilted></_>
    <_>
      <rects>
        <_>
          0 14 8 6 -1.</_>
        <_>
          4 14 4 6 2.</_></rects>
      <tilted>0</tilted></_>
    <_>
      <rects>
        <_>
          0 15 6 2 -1.</_>
        <_>
          3 15 3 2 2.</_></rects>
      <tilted>0</tilted></_>
    <_>
      <rects>
        <_>
          0 16 8 2 -1.</_>
        <_>
          4 16 4 2 2.</_></rects>
      <tilted>0</tilted></_>
    <_>
      <rects>
        <_>
          1 7 6 6 -1.</_>
        <_>
          1 7 3 3 2.</_>
        <_>
          4 10 3 3 2.</_></rects>
      <tilted>0</tilted></_>
    <_>
      <rects>
        <_>
          1 11 12 4 -1.</_>
        <_>
          1 11 6 2 2.</_>
        <_>
          7 13 6 2 2.</_></rects>
      <tilted>0</tilted></_>
    <_>
      <rects>
        <_>
          1 17 12 2 -1.</_>
        <_>
          7 17 6 2 2.</_></rects>
      <tilted>0</tilted></_>
    <_>
      <rects>
        <_>
          1 18 45 2 -1.</_>
        <_>
          1 19 45 1 2.</_></rects>
      <tilted>0</tilted></_>
    <_>
      <rects>
        <_>
          2 3 44 15 -1.</_>
        <_>
          2 8 44 5 3.</_></rects>
      <tilted>0</tilted></_>
    <_>
      <rects>
        <_>
          2 15 26 2 -1.</_>
        <_>
          2 15 13 1 2.</_>
        <_>
          15 16 13 1 2.</_></rects>
      <tilted>0</tilted></_>
    <_>
      <rects>
        <_>
          2 16 34 4 -1.</_>
        <_>
          2 17 34 2 2.</_></rects>
      <tilted>0</tilted></_>
    <_>
      <rects>
        <_>
          2 18 2 2 -1.</_>
        <_>
          2 19 2 1 2.</_></rects>
      <tilted>0</tilted></_>
    <_>
      <rects>
        <_>
          4 8 15 12 -1.</_>
        <_>
          4 12 15 4 3.</_></rects>
      <tilted>0</tilted></_>
    <_>
      <rects>
        <_>
          4 9 42 4 -1.</_>
        <_>
          4 11 42 2 2.</_></rects>
      <tilted>0</tilted></_>
    <_>
      <rects>
        <_>
          4 13 28 4 -1.</_>
        <_>
          4 13 14 2 2.</_>
        <_>
          18 15 14 2 2.</_></rects>
      <tilted>0</tilted></_>
    <_>
      <rects>
        <_>
          4 14 8 6 -1.</_>
        <_>
          4 14 4 3 2.</_>
        <_>
          8 17 4 3 2.</_></rects>
      <tilted>0</tilted></_>
    <_>
      <rects>
        <_>
          4 16 2 4 -1.</_>
        <_>
          5 16 1 4 2.</_></rects>
      <tilted>0</tilted></_>
    <_>
      <rects>
        <_>
          5 11 6 4 -1.</_>
        <_>
          5 11 3 2 2.</_>
        <_>
          8 13 3 2 2.</_></rects>
      <tilted>0</tilted></_>
    <_>
      <rects>
        <_>
          6 11 38 7 -1.</_>
        <_>
          25 11 19 7 2.</_></rects>
      <tilted>0</tilted></_>
    <_>
      <rects>
        <_>
          6 12 16 4 -1.</_>
        <_>
          6 12 8 2 2.</_>
        <_>
          14 14 8 2 2.</_></rects>
      <tilted>0</tilted></_>
    <_>
      <rects>
        <_>
          6 14 42 1 -1.</_>
        <_>
          27 14 21 1 2.</_></rects>
      <tilted>0</tilted></_>
    <_>
      <rects>
        <_>
          6 16 12 4 -1.</_>
        <_>
          6 17 12 2 2.</_></rects>
      <tilted>0</tilted></_>
    <_>
      <rects>
        <_>
          7 16 21 1 -1.</_>
        <_>
          14 16 7 1 3.</_></rects>
      <tilted>0</tilted></_>
    <_>
      <rects>
        <_>
          7 18 22 2 -1.</_>
        <_>
          7 19 22 1 2.</_></rects>
      <tilted>0</tilted></_>
    <_>
      <rects>
        <_>
          7 18 36 2 -1.</_>
        <_>
          7 19 36 1 2.</_></rects>
      <tilted>0</tilted></_>
    <_>
      <rects>
        <_>
          8 8 5 8 -1.</_>
        <_>
          8 10 5 4 2.</_></rects>
      <tilted>0</tilted></_>
    <_>
      <rects>
        <_>
          8 12 10 4 -1.</_>
        <_>
          8 12 5 2 2.</_>
        <_>
          13 14 5 2 2.</_></rects>
      <tilted>0</tilted></_>
    <_>
      <rects>
        <_>
          8 15 12 2 -1.</_>
        <_>
          12 15 4 2 3.</_></rects>
      <tilted>0</tilted></_>
    <_>
      <rects>
        <_>
          9 9 2 8 -1.</_>
        <_>
          9 11 2 4 2.</_></rects>
      <tilted>0</tilted></_>
    <_>
      <rects>
        <_>
          9 14 8 2 -1.</_>
        <_>
          11 14 4 2 2.</_></rects>
      <tilted>0</tilted></_>
    <_>
      <rects>
        <_>
          10 6 31 9 -1.</_>
        <_>
          10 9 31 3 3.</_></rects>
      <tilted>0</tilted></_>
    <_>
      <rects>
        <_>
          10 8 2 8 -1.</_>
        <_>
          10 10 2 4 2.</_></rects>
      <tilted>0</tilted></_>
    <_>
      <rects>
        <_>
          10 12 38 6 -1.</_>
        <_>
          10 12 19 3 2.</_>
        <_>
          29 15 19 3 2.</_></rects>
      <tilted>0</tilted></_>
    <_>
      <rects>
        <_>
          10 13 4 5 -1.</_>
        <_>
          11 13 2 5 2.</_></rects>
      <tilted>0</tilted></_>
    <_>
      <rects>
        <_>
          10 14 8 3 -1.</_>
        <_>
          12 14 4 3 2.</_></rects>
      <tilted>0</tilted></_>
    <_>
      <rects>
        <_>
          12 7 8 6 -1.</_>
        <_>
          12 7 4 3 2.</_>
        <_>
          16 10 4 3 2.</_></rects>
      <tilted>0</tilted></_>
    <_>
      <rects>
        <_>
          13 6 6 12 -1.</_>
        <_>
          13 12 6 6 2.</_></rects>
      <tilted>0</tilted></_>
    <_>
      <rects>
        <_>
          13 10 30 6 -1.</_>
        <_>
          23 12 10 2 9.</_></rects>
      <tilted>0</tilted></_>
    <_>
      <rects>
        <_>
          13 16 21 3 -1.</_>
        <_>
          13 17 21 1 3.</_></rects>
      <tilted>0</tilted></_>
    <_>
      <rects>
        <_>
          14 4 27 6 -1.</_>
        <_>
          14 6 27 2 3.</_></rects>
      <tilted>0</tilted></_>
    <_>
      <rects>
        <_>
          14 11 10 7 -1.</_>
        <_>
          19 11 5 7 2.</_></rects>
      <tilted>0</tilted></_>
    <_>
      <rects>
        <_>
          17 13 26 4 -1.</_>
        <_>
          17 13 13 2 2.</_>
        <_>
          30 15 13 2 2.</_></rects>
      <tilted>0</tilted></_>
    <_>
      <rects>
        <_>
          18 11 4 4 -1.</_>
        <_>
          18 11 2 2 2.</_>
        <_>
          20 13 2 2 2.</_></rects>
      <tilted>0</tilted></_>
    <_>
      <rects>
        <_>
          19 11 8 4 -1.</_>
        <_>
          23 11 4 4 2.</_></rects>
      <tilted>0</tilted></_>
    <_>
      <rects>
        <_>
          19 11 15 6 -1.</_>
        <_>
          24 11 5 6 3.</_></rects>
      <tilted>0</tilted></_>
    <_>
      <rects>
        <_>
          19 13 8 2 -1.</_>
        <_>
          21 13 4 2 2.</_></rects>
      <tilted>0</tilted></_>
    <_>
      <rects>
        <_>
          21 11 6 3 -1.</_>
        <_>
          23 11 2 3 3.</_></rects>
      <tilted>0</tilted></_>
    <_>
      <rects>
        <_>
          22 1 24 8 -1.</_>
        <_>
          22 1 12 4 2.</_>
        <_>
          34 5 12 4 2.</_></rects>
      <tilted>0</tilted></_>
    <_>
      <rects>
        <_>
          22 13 6 2 -1.</_>
        <_>
          25 13 3 2 2.</_></rects>
      <tilted>0</tilted></_>
    <_>
      <rects>
        <_>
          22 15 13 2 -1.</_>
        <_>
          22 16 13 1 2.</_></rects>
      <tilted>0</tilted></_>
    <_>
      <rects>
        <_>
          23 10 6 6 -1.</_>
        <_>
          25 12 2 2 9.</_></rects>
      <tilted>0</tilted></_>
    <_>
      <rects>
        <_>
          23 13 4 4 -1.</_>
        <_>
          24 13 2 4 2.</_></rects>
      <tilted>0</tilted></_>
    <_>
      <rects>
        <_>
          23 13 24 4 -1.</_>
        <_>
          23 13 12 2 2.</_>
        <_>
          35 15 12 2 2.</_></rects>
      <tilted>0</tilted></_>
    <_>
      <rects>
        <_>
          24 2 2 6 -1.</_>
        <_>
          24 5 2 3 2.</_></rects>
      <tilted>0</tilted></_>
    <_>
      <rects>
        <_>
          25 11 9 8 -1.</_>
        <_>
          28 11 3 8 3.</_></rects>
      <tilted>0</tilted></_>
    <_>
      <rects>
        <_>
          26 15 24 4 -1.</_>
        <_>
          38 15 12 4 2.</_></rects>
      <tilted>0</tilted></_>
    <_>
      <rects>
        <_>
          27 11 4 7 -1.</_>
        <_>
          29 11 2 7 2.</_></rects>
      <tilted>0</tilted></_>
    <_>
      <rects>
        <_>
          28 14 4 2 -1.</_>
        <_>
          30 14 2 2 2.</_></rects>
      <tilted>0</tilted></_>
    <_>
      <rects>
        <_>
          28 17 17 3 -1.</_>
        <_>
          28 18 17 1 3.</_></rects>
      <tilted>0</tilted></_>
    <_>
      <rects>
        <_>
          30 12 12 4 -1.</_>
        <_>
          30 12 6 2 2.</_>
        <_>
          36 14 6 2 2.</_></rects>
      <tilted>0</tilted></_>
    <_>
      <rects>
        <_>
          30 18 2 2 -1.</_>
        <_>
          30 19 2 1 2.</_></rects>
      <tilted>0</tilted></_>
    <_>
      <rects>
        <_>
          31 5 7 14 -1.</_>
        <_>
          31 12 7 7 2.</_></rects>
      <tilted>0</tilted></_>
    <_>
      <rects>
        <_>
          31 17 3 3 -1.</_>
        <_>
          31 18 3 1 3.</_></rects>
      <tilted>0</tilted></_>
    <_>
      <rects>
        <_>
          32 8 13 6 -1.</_>
        <_>
          32 11 13 3 2.</_></rects>
      <tilted>0</tilted></_>
    <_>
      <rects>
        <_>
          32 13 12 7 -1.</_>
        <_>
          36 13 4 7 3.</_></rects>
      <tilted>0</tilted></_>
    <_>
      <rects>
        <_>
          32 14 8 4 -1.</_>
        <_>
          34 14 4 4 2.</_></rects>
      <tilted>0</tilted></_>
    <_>
      <rects>
        <_>
          32 17 18 2 -1.</_>
        <_>
          41 17 9 2 2.</_></rects>
      <tilted>0</tilted></_>
    <_>
      <rects>
        <_>
          36 8 6 6 -1.</_>
        <_>
          36 11 6 3 2.</_></rects>
      <tilted>0</tilted></_>
    <_>
      <rects>
        <_>
          36 9 11 9 -1.</_>
        <_>
          36 12 11 3 3.</_></rects>
      <tilted>0</tilted></_>
    <_>
      <rects>
        <_>
          36 13 12 2 -1.</_>
        <_>
          36 13 6 1 2.</_>
        <_>
          42 14 6 1 2.</_></rects>
      <tilted>0</tilted></_>
    <_>
      <rects>
        <_>
          37 7 10 10 -1.</_>
        <_>
          37 12 10 5 2.</_></rects>
      <tilted>0</tilted></_>
    <_>
      <rects>
        <_>
          37 14 4 6 -1.</_>
        <_>
          38 14 2 6 2.</_></rects>
      <tilted>0</tilted></_>
    <_>
      <rects>
        <_>
          38 12 8 4 -1.</_>
        <_>
          38 12 4 2 2.</_>
        <_>
          42 14 4 2 2.</_></rects>
      <tilted>0</tilted></_>
    <_>
      <rects>
        <_>
          38 13 8 2 -1.</_>
        <_>
          40 13 4 2 2.</_></rects>
      <tilted>0</tilted></_>
    <_>
      <rects>
        <_>
          38 16 8 2 -1.</_>
        <_>
          40 16 4 2 2.</_></rects>
      <tilted>0</tilted></_>
    <_>
      <rects>
        <_>
          39 8 1 8 -1.</_>
        <_>
          39 10 1 4 2.</_></rects>
      <tilted>0</tilted></_>
    <_>
      <rects>
        <_>
          39 12 1 4 -1.</_>
        <_>
          39 14 1 2 2.</_></rects>
      <tilted>0</tilted></_>
    <_>
      <rects>
        <_>
          40 5 10 12 -1.</_>
        <_>
          40 5 5 6 2.</_>
        <_>
          45 11 5 6 2.</_></rects>
      <tilted>0</tilted></_>
    <_>
      <rects>
        <_>
          40 17 10 2 -1.</_>
        <_>
          45 17 5 2 2.</_></rects>
      <tilted>0</tilted></_>
    <_>
      <rects>
        <_>
          42 6 8 12 -1.</_>
        <_>
          42 6 4 6 2.</_>
        <_>
          46 12 4 6 2.</_></rects>
      <tilted>0</tilted></_>
    <_>
      <rects>
        <_>
          42 7 8 10 -1.</_>
        <_>
          42 7 4 5 2.</_>
        <_>
          46 12 4 5 2.</_></rects>
      <tilted>0</tilted></_>
    <_>
      <rects>
        <_>
          42 14 8 5 -1.</_>
        <_>
          46 14 4 5 2.</_></rects>
      <tilted>0</tilted></_>
    <_>
      <rects>
        <_>
          46 14 4 6 -1.</_>
        <_>
          48 14 2 6 2.</_></rects>
      <tilted>0</tilted></_>
    <_>
      <rects>
        <_>
          46 15 4 4 -1.</_>
        <_>
          48 15 2 4 2.</_></rects>
      <tilted>0</tilted></_>
    <_>
      <rects>
        <_>
          47 12 2 1 -1.</_>
        <_>
          48 12 1 1 2.</_></rects>
      <tilted>0</tilted></_>
    <_>
      <rects>
        <_>
          48 11 2 7 -1.</_>
        <_>
          49 11 1 7 2.</_></rects>
      <tilted>0</tilted></_>
    <_>
      <rects>
        <_>
          48 13 2 4 -1.</_>
        <_>
          49 13 1 4 2.</_></rects>
      <tilted>0</tilted></_></features></cascade>
</opencv_storage>
