<?xml version="1.0"?>
<opencv_storage>
<stage6>
  <maxWeakCount>5</maxWeakCount>
  <stageThreshold>-7.4749237298965454e-01</stageThreshold>
  <weakClassifiers>
    <_>
      <internalNodes>
        0 -1 404590 1.4016039669513702e-02</internalNodes>
      <leafValues>
        -5.2870088815689087e-01 6.5055763721466064e-01</leafValues></_>
    <_>
      <internalNodes>
        0 -1 162799 -3.1950347125530243e-02</internalNodes>
      <leafValues>
        7.0926296710968018e-01 -4.2912027239799500e-01</leafValues></_>
    <_>
      <internalNodes>
        0 -1 475131 -3.2409508712589741e-03</internalNodes>
      <leafValues>
        -7.1560561656951904e-01 4.0973958373069763e-01</leafValues></_>
    <_>
      <internalNodes>
        0 -1 731611 1.5128614613786340e-03</internalNodes>
      <leafValues>
        -4.0526369214057922e-01 6.0420095920562744e-01</leafValues></_>
    <_>
      <internalNodes>
        0 -1 420579 -1.1810313444584608e-03</internalNodes>
      <leafValues>
        -7.8674143552780151e-01 3.2173347473144531e-01</leafValues></_></weakClassifiers></stage6>
</opencv_storage>
