<?xml version="1.0"?>
<opencv_storage>
<stage8>
  <maxWeakCount>9</maxWeakCount>
  <stageThreshold>-1.2413206100463867e+00</stageThreshold>
  <weakClassifiers>
    <_>
      <internalNodes>
        0 -1 42449 3.4769568592309952e-03</internalNodes>
      <leafValues>
        -4.3580469489097595e-01 5.3914988040924072e-01</leafValues></_>
    <_>
      <internalNodes>
        0 -1 14467 -1.1353048495948315e-02</internalNodes>
      <leafValues>
        4.3083977699279785e-01 -3.6429640650749207e-01</leafValues></_>
    <_>
      <internalNodes>
        0 -1 14717 -7.2297841310501099e-02</internalNodes>
      <leafValues>
        5.1872932910919189e-01 -3.2386398315429688e-01</leafValues></_>
    <_>
      <internalNodes>
        0 -1 43699 2.2547619417309761e-02</internalNodes>
      <leafValues>
        -4.8402196168899536e-01 3.6656913161277771e-01</leafValues></_>
    <_>
      <internalNodes>
        0 -1 2860 -1.1112888343632221e-02</internalNodes>
      <leafValues>
        3.2242402434349060e-01 -5.4621398448944092e-01</leafValues></_>
    <_>
      <internalNodes>
        0 -1 10759 4.2988620698451996e-02</internalNodes>
      <leafValues>
        -2.6829680800437927e-01 6.6231888532638550e-01</leafValues></_>
    <_>
      <internalNodes>
        0 -1 33371 -8.1436961889266968e-02</internalNodes>
      <leafValues>
        5.5543881654739380e-01 -2.9535016417503357e-01</leafValues></_>
    <_>
      <internalNodes>
        0 -1 30903 6.5944520756602287e-03</internalNodes>
      <leafValues>
        2.4298682808876038e-01 -8.6614477634429932e-01</leafValues></_>
    <_>
      <internalNodes>
        0 -1 10768 1.7386145889759064e-02</internalNodes>
      <leafValues>
        -4.8568856716156006e-01 3.4100112318992615e-01</leafValues></_></weakClassifiers></stage8>
</opencv_storage>
