<?xml version="1.0"?>
<opencv_storage>
<stage15>
  <maxWeakCount>5</maxWeakCount>
  <stageThreshold>-6.7156505584716797e-01</stageThreshold>
  <weakClassifiers>
    <_>
      <internalNodes>
        0 -1 86223 -1.5276651829481125e-02</internalNodes>
      <leafValues>
        6.3285022974014282e-01 -5.6643354892730713e-01</leafValues></_>
    <_>
      <internalNodes>
        0 -1 261383 -1.9302294822409749e-04</internalNodes>
      <leafValues>
        -7.3948907852172852e-01 4.8424282670021057e-01</leafValues></_>
    <_>
      <internalNodes>
        0 -1 200114 4.3242762330919504e-04</internalNodes>
      <leafValues>
        -6.6562110185623169e-01 5.7240432500839233e-01</leafValues></_>
    <_>
      <internalNodes>
        0 -1 174457 -8.3638040814548731e-04</internalNodes>
      <leafValues>
        9.1965115070343018e-01 -4.4906595349311829e-01</leafValues></_>
    <_>
      <internalNodes>
        0 -1 485133 -1.7001689411699772e-03</internalNodes>
      <leafValues>
        6.7383718490600586e-01 -6.7397111654281616e-01</leafValues></_></weakClassifiers></stage15>
</opencv_storage>
