<?xml version="1.0"?>
<opencv_storage>
<stage15>
  <maxWeakCount>5</maxWeakCount>
  <stageThreshold>-9.4468277692794800e-01</stageThreshold>
  <weakClassifiers>
    <_>
      <internalNodes>
        0 -1 13383 -7.1137454360723495e-03</internalNodes>
      <leafValues>
        1. -5.9045726060867310e-01</leafValues></_>
    <_>
      <internalNodes>
        0 -1 13898 1.3977310620248318e-02</internalNodes>
      <leafValues>
        -3.0308097600936890e-01 1.</leafValues></_>
    <_>
      <internalNodes>
        0 -1 11259 -4.2686150409281254e-03</internalNodes>
      <leafValues>
        1. -2.2354269027709961e-01</leafValues></_>
    <_>
      <internalNodes>
        0 -1 11459 2.9041904490441084e-03</internalNodes>
      <leafValues>
        -2.8985372185707092e-01 8.0172437429428101e-01</leafValues></_>
    <_>
      <internalNodes>
        0 -1 26859 2.4835127405822277e-03</internalNodes>
      <leafValues>
        5.1151603460311890e-01 -6.2932622432708740e-01</leafValues></_></weakClassifiers></stage15>
</opencv_storage>
