<?xml version="1.0"?>
<opencv_storage>
<stage13>
  <maxWeakCount>10</maxWeakCount>
  <stageThreshold>-6.1894959211349487e-01</stageThreshold>
  <weakClassifiers>
    <_>
      <internalNodes>
        0 -1 39269 -2.5598669890314341e-03</internalNodes>
      <leafValues>
        5.8974361419677734e-01 -2.1649484336376190e-01</leafValues></_>
    <_>
      <internalNodes>
        0 -1 40466 9.6041746437549591e-03</internalNodes>
      <leafValues>
        -1.7727343738079071e-01 7.1803182363510132e-01</leafValues></_>
    <_>
      <internalNodes>
        0 -1 29186 -3.3536320552229881e-03</internalNodes>
      <leafValues>
        -7.6455271244049072e-01 1.9546671211719513e-01</leafValues></_>
    <_>
      <internalNodes>
        0 -1 21859 -4.9822114408016205e-02</internalNodes>
      <leafValues>
        6.5726292133331299e-01 -2.2618603706359863e-01</leafValues></_>
    <_>
      <internalNodes>
        0 -1 40256 8.0872103571891785e-03</internalNodes>
      <leafValues>
        -4.8083299398422241e-01 3.1090790033340454e-01</leafValues></_>
    <_>
      <internalNodes>
        0 -1 40461 -5.5293133482336998e-03</internalNodes>
      <leafValues>
        6.6315728425979614e-01 -2.3368203639984131e-01</leafValues></_>
    <_>
      <internalNodes>
        0 -1 6167 -4.8890232574194670e-04</internalNodes>
      <leafValues>
        2.6742097735404968e-01 -5.1801347732543945e-01</leafValues></_>
    <_>
      <internalNodes>
        0 -1 31035 1.6435033176094294e-03</internalNodes>
      <leafValues>
        2.3948164284229279e-01 -6.9634860754013062e-01</leafValues></_>
    <_>
      <internalNodes>
        0 -1 43606 -2.2509723901748657e-02</internalNodes>
      <leafValues>
        7.7076917886734009e-01 -2.4803456664085388e-01</leafValues></_>
    <_>
      <internalNodes>
        0 -1 27013 9.3778539448976517e-03</internalNodes>
      <leafValues>
        -4.0096408128738403e-01 4.1126680374145508e-01</leafValues></_></weakClassifiers></stage13>
</opencv_storage>
