<?xml version="1.0"?>
<opencv_storage>
<stage6>
  <maxWeakCount>5</maxWeakCount>
  <stageThreshold>-8.3784437179565430e-01</stageThreshold>
  <weakClassifiers>
    <_>
      <internalNodes>
        0 -1 137399 -3.1660236418247223e-02</internalNodes>
      <leafValues>
        7.7586209774017334e-01 -4.8913043737411499e-01</leafValues></_>
    <_>
      <internalNodes>
        0 -1 372537 -3.9601083844900131e-03</internalNodes>
      <leafValues>
        -8.8185977935791016e-01 4.1550493240356445e-01</leafValues></_>
    <_>
      <internalNodes>
        0 -1 463170 -3.1816521659493446e-03</internalNodes>
      <leafValues>
        5.4751634597778320e-01 -5.4962599277496338e-01</leafValues></_>
    <_>
      <internalNodes>
        0 -1 352988 -2.8395073022693396e-03</internalNodes>
      <leafValues>
        -7.2465419769287109e-01 3.8973408937454224e-01</leafValues></_>
    <_>
      <internalNodes>
        0 -1 253574 -2.2179409861564636e-02</internalNodes>
      <leafValues>
        7.2722798585891724e-01 -4.0410459041595459e-01</leafValues></_></weakClassifiers></stage6>
</opencv_storage>
