<?xml version="1.0"?>
<opencv_storage>
<cascade>
  <stageType>BOOST</stageType>
  <featureType>HAAR</featureType>
  <height>20</height>
  <width>50</width>
  <stageParams>
    <boostType>GAB</boostType>
    <minHitRate>9.9500000476837158e-01</minHitRate>
    <maxFalseAlarm>5.0000000000000000e-01</maxFalseAlarm>
    <weightTrimRate>9.4999999999999996e-01</weightTrimRate>
    <maxDepth>1</maxDepth>
    <maxWeakCount>100</maxWeakCount></stageParams>
  <featureParams>
    <maxCatCount>0</maxCatCount>
    <featSize>1</featSize>
    <mode>ALL</mode></featureParams>
  <stageNum>18</stageNum>
  <stages>
    <!-- stage 0 -->
    <_>
      <maxWeakCount>3</maxWeakCount>
      <stageThreshold>-7.9012805223464966e-01</stageThreshold>
      <weakClassifiers>
        <_>
          <internalNodes>
            0 -1 13 1.5678780153393745e-02</internalNodes>
          <leafValues>
            -6.5497076511383057e-01 8.6821705102920532e-01</leafValues></_>
        <_>
          <internalNodes>
            0 -1 1 -2.8597299009561539e-02</internalNodes>
          <leafValues>
            7.1042883396148682e-01 -7.2071713209152222e-01</leafValues></_>
        <_>
          <internalNodes>
            0 -1 88 1.5387439634650946e-03</internalNodes>
          <leafValues>
            -8.1682372093200684e-01 5.8555984497070312e-01</leafValues></_></weakClassifiers></_>
    <!-- stage 1 -->
    <_>
      <maxWeakCount>3</maxWeakCount>
      <stageThreshold>-5.4557573795318604e-01</stageThreshold>
      <weakClassifiers>
        <_>
          <internalNodes>
            0 -1 23 1.9228171557188034e-02</internalNodes>
          <leafValues>
            -6.0451978445053101e-01 8.6991870403289795e-01</leafValues></_>
        <_>
          <internalNodes>
            0 -1 7 -3.4826262854039669e-03</internalNodes>
          <leafValues>
            6.5547740459442139e-01 -6.4155292510986328e-01</leafValues></_>
        <_>
          <internalNodes>
            0 -1 73 2.3609777912497520e-02</internalNodes>
          <leafValues>
            -5.6546765565872192e-01 7.0049697160720825e-01</leafValues></_></weakClassifiers></_>
    <!-- stage 2 -->
    <_>
      <maxWeakCount>5</maxWeakCount>
      <stageThreshold>-1.5916147232055664e+00</stageThreshold>
      <weakClassifiers>
        <_>
          <internalNodes>
            0 -1 21 -7.6514547690749168e-03</internalNodes>
          <leafValues>
            7.1863120794296265e-01 -5.6083083152770996e-01</leafValues></_>
        <_>
          <internalNodes>
            0 -1 98 2.5569146964699030e-03</internalNodes>
          <leafValues>
            -5.4417520761489868e-01 6.0986149311065674e-01</leafValues></_>
        <_>
          <internalNodes>
            0 -1 19 -1.8677800893783569e-02</internalNodes>
          <leafValues>
            6.2818038463592529e-01 -5.7949250936508179e-01</leafValues></_>
        <_>
          <internalNodes>
            0 -1 63 2.1050213836133480e-03</internalNodes>
          <leafValues>
            -6.8293839693069458e-01 4.1659486293792725e-01</leafValues></_>
        <_>
          <internalNodes>
            0 -1 74 2.2262165322899818e-02</internalNodes>
          <leafValues>
            -4.3185058236122131e-01 7.7467340230941772e-01</leafValues></_></weakClassifiers></_>
    <!-- stage 3 -->
    <_>
      <maxWeakCount>3</maxWeakCount>
      <stageThreshold>-4.2035403847694397e-01</stageThreshold>
      <weakClassifiers>
        <_>
          <internalNodes>
            0 -1 79 -7.4977679178118706e-03</internalNodes>
          <leafValues>
            7.8165936470031738e-01 -4.8247978091239929e-01</leafValues></_>
        <_>
          <internalNodes>
            0 -1 5 -1.3795314589515328e-03</internalNodes>
          <leafValues>
            5.5725848674774170e-01 -6.1748117208480835e-01</leafValues></_>
        <_>
          <internalNodes>
            0 -1 82 6.0681678354740143e-02</internalNodes>
          <leafValues>
            -4.2413568496704102e-01 6.7960691452026367e-01</leafValues></_></weakClassifiers></_>
    <!-- stage 4 -->
    <_>
      <maxWeakCount>5</maxWeakCount>
      <stageThreshold>-1.4062126874923706e+00</stageThreshold>
      <weakClassifiers>
        <_>
          <internalNodes>
            0 -1 69 5.1939799450337887e-03</internalNodes>
          <leafValues>
            -5.3079175949096680e-01 6.9884169101715088e-01</leafValues></_>
        <_>
          <internalNodes>
            0 -1 15 1.6409691423177719e-02</internalNodes>
          <leafValues>
            -5.1605457067489624e-01 6.3079279661178589e-01</leafValues></_>
        <_>
          <internalNodes>
            0 -1 84 1.0204466059803963e-02</internalNodes>
          <leafValues>
            -6.2169480323791504e-01 5.7926124334335327e-01</leafValues></_>
        <_>
          <internalNodes>
            0 -1 10 4.6566375531256199e-03</internalNodes>
          <leafValues>
            -4.3395030498504639e-01 6.2502503395080566e-01</leafValues></_>
        <_>
          <internalNodes>
            0 -1 40 1.0630053468048573e-02</internalNodes>
          <leafValues>
            -5.0467735528945923e-01 5.1640486717224121e-01</leafValues></_></weakClassifiers></_>
    <!-- stage 5 -->
    <_>
      <maxWeakCount>7</maxWeakCount>
      <stageThreshold>-7.1899431943893433e-01</stageThreshold>
      <weakClassifiers>
        <_>
          <internalNodes>
            0 -1 9 3.0853431671857834e-02</internalNodes>
          <leafValues>
            -4.4680851697921753e-01 7.5000000000000000e-01</leafValues></_>
        <_>
          <internalNodes>
            0 -1 92 7.8819710761308670e-03</internalNodes>
          <leafValues>
            -7.1518111228942871e-01 4.6952471137046814e-01</leafValues></_>
        <_>
          <internalNodes>
            0 -1 14 -4.9926392734050751e-02</internalNodes>
          <leafValues>
            6.2987869977951050e-01 -5.4469251632690430e-01</leafValues></_>
        <_>
          <internalNodes>
            0 -1 12 -4.3019186705350876e-04</internalNodes>
          <leafValues>
            3.7672409415245056e-01 -7.5396782159805298e-01</leafValues></_>
        <_>
          <internalNodes>
            0 -1 71 -2.6091795880347490e-03</internalNodes>
          <leafValues>
            3.6564314365386963e-01 -7.4160987138748169e-01</leafValues></_>
        <_>
          <internalNodes>
            0 -1 87 -1.0598944500088692e-02</internalNodes>
          <leafValues>
            8.3674466609954834e-01 -3.7308725714683533e-01</leafValues></_>
        <_>
          <internalNodes>
            0 -1 11 -8.3339828997850418e-03</internalNodes>
          <leafValues>
            6.1840784549713135e-01 -4.3133068084716797e-01</leafValues></_></weakClassifiers></_>
    <!-- stage 6 -->
    <_>
      <maxWeakCount>5</maxWeakCount>
      <stageThreshold>-7.4749237298965454e-01</stageThreshold>
      <weakClassifiers>
        <_>
          <internalNodes>
            0 -1 41 1.4016039669513702e-02</internalNodes>
          <leafValues>
            -5.2870088815689087e-01 6.5055763721466064e-01</leafValues></_>
        <_>
          <internalNodes>
            0 -1 18 -3.1950347125530243e-02</internalNodes>
          <leafValues>
            7.0926296710968018e-01 -4.2912027239799500e-01</leafValues></_>
        <_>
          <internalNodes>
            0 -1 51 -3.2409508712589741e-03</internalNodes>
          <leafValues>
            -7.1560561656951904e-01 4.0973958373069763e-01</leafValues></_>
        <_>
          <internalNodes>
            0 -1 99 1.5128614613786340e-03</internalNodes>
          <leafValues>
            -4.0526369214057922e-01 6.0420095920562744e-01</leafValues></_>
        <_>
          <internalNodes>
            0 -1 42 -1.1810313444584608e-03</internalNodes>
          <leafValues>
            -7.8674143552780151e-01 3.2173347473144531e-01</leafValues></_></weakClassifiers></_>
    <!-- stage 7 -->
    <_>
      <maxWeakCount>6</maxWeakCount>
      <stageThreshold>-1.0660851001739502e+00</stageThreshold>
      <weakClassifiers>
        <_>
          <internalNodes>
            0 -1 66 1.0791668668389320e-02</internalNodes>
          <leafValues>
            -5.5910545587539673e-01 6.0975611209869385e-01</leafValues></_>
        <_>
          <internalNodes>
            0 -1 80 2.8847483918070793e-03</internalNodes>
          <leafValues>
            -3.8317078351974487e-01 7.9274851083755493e-01</leafValues></_>
        <_>
          <internalNodes>
            0 -1 68 1.0617418447509408e-03</internalNodes>
          <leafValues>
            3.1944245100021362e-01 -9.9394720792770386e-01</leafValues></_>
        <_>
          <internalNodes>
            0 -1 57 1.1090202257037163e-02</internalNodes>
          <leafValues>
            -5.3188860416412354e-01 5.0194579362869263e-01</leafValues></_>
        <_>
          <internalNodes>
            0 -1 96 5.5404920130968094e-03</internalNodes>
          <leafValues>
            -4.2144709825515747e-01 6.9715166091918945e-01</leafValues></_>
        <_>
          <internalNodes>
            0 -1 43 3.5623349249362946e-03</internalNodes>
          <leafValues>
            -5.1952058076858521e-01 5.1008433103561401e-01</leafValues></_></weakClassifiers></_>
    <!-- stage 8 -->
    <_>
      <maxWeakCount>6</maxWeakCount>
      <stageThreshold>-1.2414529323577881e+00</stageThreshold>
      <weakClassifiers>
        <_>
          <internalNodes>
            0 -1 30 -9.4692129641771317e-03</internalNodes>
          <leafValues>
            6.4806866645812988e-01 -4.1144412755966187e-01</leafValues></_>
        <_>
          <internalNodes>
            0 -1 97 2.2544409148395061e-03</internalNodes>
          <leafValues>
            -5.6831836700439453e-01 4.6538120508193970e-01</leafValues></_>
        <_>
          <internalNodes>
            0 -1 67 -2.4130423844326288e-04</internalNodes>
          <leafValues>
            -7.6002901792526245e-01 3.5103154182434082e-01</leafValues></_>
        <_>
          <internalNodes>
            0 -1 17 8.5749141871929169e-03</internalNodes>
          <leafValues>
            -4.9410367012023926e-01 5.2347427606582642e-01</leafValues></_>
        <_>
          <internalNodes>
            0 -1 81 2.9504287522286177e-03</internalNodes>
          <leafValues>
            -3.8185617327690125e-01 7.0283049345016479e-01</leafValues></_>
        <_>
          <internalNodes>
            0 -1 65 -8.4874627646058798e-04</internalNodes>
          <leafValues>
            -8.2576757669448853e-01 2.6323789358139038e-01</leafValues></_></weakClassifiers></_>
    <!-- stage 9 -->
    <_>
      <maxWeakCount>7</maxWeakCount>
      <stageThreshold>-9.7705084085464478e-01</stageThreshold>
      <weakClassifiers>
        <_>
          <internalNodes>
            0 -1 38 -2.0426828414201736e-02</internalNodes>
          <leafValues>
            7.6119405031204224e-01 -3.8345864415168762e-01</leafValues></_>
        <_>
          <internalNodes>
            0 -1 94 3.8578892126679420e-03</internalNodes>
          <leafValues>
            -6.3212972879409790e-01 4.5503151416778564e-01</leafValues></_>
        <_>
          <internalNodes>
            0 -1 4 -7.2993226349353790e-03</internalNodes>
          <leafValues>
            5.2835208177566528e-01 -4.3670159578323364e-01</leafValues></_>
        <_>
          <internalNodes>
            0 -1 77 4.5425608754158020e-02</internalNodes>
          <leafValues>
            -3.3393728733062744e-01 8.7942099571228027e-01</leafValues></_>
        <_>
          <internalNodes>
            0 -1 35 7.5783468782901764e-03</internalNodes>
          <leafValues>
            3.8929671049118042e-01 -6.9124054908752441e-01</leafValues></_>
        <_>
          <internalNodes>
            0 -1 53 -4.8930163029581308e-04</internalNodes>
          <leafValues>
            -7.3547816276550293e-01 2.9258760809898376e-01</leafValues></_>
        <_>
          <internalNodes>
            0 -1 45 1.2216748436912894e-03</internalNodes>
          <leafValues>
            -8.3776164054870605e-01 2.1894900500774384e-01</leafValues></_></weakClassifiers></_>
    <!-- stage 10 -->
    <_>
      <maxWeakCount>8</maxWeakCount>
      <stageThreshold>-1.1367150545120239e+00</stageThreshold>
      <weakClassifiers>
        <_>
          <internalNodes>
            0 -1 76 2.0903632976114750e-03</internalNodes>
          <leafValues>
            -4.1554960608482361e-01 6.8281936645507812e-01</leafValues></_>
        <_>
          <internalNodes>
            0 -1 58 1.8834512680768967e-02</internalNodes>
          <leafValues>
            -3.8562852144241333e-01 6.0926783084869385e-01</leafValues></_>
        <_>
          <internalNodes>
            0 -1 16 -1.6526117920875549e-02</internalNodes>
          <leafValues>
            3.3742257952690125e-01 -6.7173224687576294e-01</leafValues></_>
        <_>
          <internalNodes>
            0 -1 8 -3.0939560383558273e-03</internalNodes>
          <leafValues>
            4.0463244915008545e-01 -6.6625165939331055e-01</leafValues></_>
        <_>
          <internalNodes>
            0 -1 37 -1.1475052684545517e-02</internalNodes>
          <leafValues>
            7.2734183073043823e-01 -3.1206214427947998e-01</leafValues></_>
        <_>
          <internalNodes>
            0 -1 59 -2.9897081549279392e-04</internalNodes>
          <leafValues>
            -6.5660929679870605e-01 3.3955907821655273e-01</leafValues></_>
        <_>
          <internalNodes>
            0 -1 0 -2.1370302420109510e-03</internalNodes>
          <leafValues>
            7.1601319313049316e-01 -3.5141971707344055e-01</leafValues></_>
        <_>
          <internalNodes>
            0 -1 47 3.5545043647289276e-03</internalNodes>
          <leafValues>
            3.1848689913749695e-01 -8.8348293304443359e-01</leafValues></_></weakClassifiers></_>
    <!-- stage 11 -->
    <_>
      <maxWeakCount>7</maxWeakCount>
      <stageThreshold>-1.0557109117507935e+00</stageThreshold>
      <weakClassifiers>
        <_>
          <internalNodes>
            0 -1 78 -7.8731533139944077e-03</internalNodes>
          <leafValues>
            7.8894472122192383e-01 -3.9152118563652039e-01</leafValues></_>
        <_>
          <internalNodes>
            0 -1 91 1.5916481614112854e-02</internalNodes>
          <leafValues>
            -5.4155975580215454e-01 4.4659239053726196e-01</leafValues></_>
        <_>
          <internalNodes>
            0 -1 44 1.6976735787466168e-03</internalNodes>
          <leafValues>
            -6.9456315040588379e-01 3.4289941191673279e-01</leafValues></_>
        <_>
          <internalNodes>
            0 -1 48 -1.8359296955168247e-03</internalNodes>
          <leafValues>
            -7.9914212226867676e-01 2.8671285510063171e-01</leafValues></_>
        <_>
          <internalNodes>
            0 -1 62 -8.8008434977382421e-04</internalNodes>
          <leafValues>
            -7.5532323122024536e-01 2.5560158491134644e-01</leafValues></_>
        <_>
          <internalNodes>
            0 -1 28 -7.0154224522411823e-04</internalNodes>
          <leafValues>
            4.6870741248130798e-01 -4.8295226693153381e-01</leafValues></_>
        <_>
          <internalNodes>
            0 -1 46 -1.0675139725208282e-02</internalNodes>
          <leafValues>
            6.3782262802124023e-01 -3.9069628715515137e-01</leafValues></_></weakClassifiers></_>
    <!-- stage 12 -->
    <_>
      <maxWeakCount>7</maxWeakCount>
      <stageThreshold>-1.0145164728164673e+00</stageThreshold>
      <weakClassifiers>
        <_>
          <internalNodes>
            0 -1 89 6.1252834275364876e-03</internalNodes>
          <leafValues>
            -5.5636364221572876e-01 4.7076922655105591e-01</leafValues></_>
        <_>
          <internalNodes>
            0 -1 32 -4.1441395878791809e-03</internalNodes>
          <leafValues>
            6.9446605443954468e-01 -3.8354462385177612e-01</leafValues></_>
        <_>
          <internalNodes>
            0 -1 61 -8.4171481430530548e-03</internalNodes>
          <leafValues>
            6.3135451078414917e-01 -3.5197308659553528e-01</leafValues></_>
        <_>
          <internalNodes>
            0 -1 55 -4.8553412780165672e-03</internalNodes>
          <leafValues>
            8.9401441812515259e-01 -2.9674831032752991e-01</leafValues></_>
        <_>
          <internalNodes>
            0 -1 52 -8.0304767470806837e-04</internalNodes>
          <leafValues>
            -7.4649131298065186e-01 3.3902278542518616e-01</leafValues></_>
        <_>
          <internalNodes>
            0 -1 70 1.0566292330622673e-02</internalNodes>
          <leafValues>
            -3.1834030151367188e-01 7.5771588087081909e-01</leafValues></_>
        <_>
          <internalNodes>
            0 -1 20 1.4987751841545105e-02</internalNodes>
          <leafValues>
            -4.0256443619728088e-01 6.5561723709106445e-01</leafValues></_></weakClassifiers></_>
    <!-- stage 13 -->
    <_>
      <maxWeakCount>6</maxWeakCount>
      <stageThreshold>-7.8682994842529297e-01</stageThreshold>
      <weakClassifiers>
        <_>
          <internalNodes>
            0 -1 31 2.4342921096831560e-03</internalNodes>
          <leafValues>
            -5.4181820154190063e-01 4.5846155285835266e-01</leafValues></_>
        <_>
          <internalNodes>
            0 -1 72 -2.6013208553195000e-03</internalNodes>
          <leafValues>
            3.6742714047431946e-01 -5.7798880338668823e-01</leafValues></_>
        <_>
          <internalNodes>
            0 -1 39 -2.6509286835789680e-03</internalNodes>
          <leafValues>
            -7.8962033987045288e-01 2.8139457106590271e-01</leafValues></_>
        <_>
          <internalNodes>
            0 -1 90 1.0322816669940948e-03</internalNodes>
          <leafValues>
            -4.2076486349105835e-01 4.7377291321754456e-01</leafValues></_>
        <_>
          <internalNodes>
            0 -1 86 2.9715942218899727e-03</internalNodes>
          <leafValues>
            -8.1175237894058228e-01 2.4555793404579163e-01</leafValues></_>
        <_>
          <internalNodes>
            0 -1 6 -2.9981129337102175e-03</internalNodes>
          <leafValues>
            3.5461476445198059e-01 -5.9701317548751831e-01</leafValues></_></weakClassifiers></_>
    <!-- stage 14 -->
    <_>
      <maxWeakCount>8</maxWeakCount>
      <stageThreshold>-8.3551508188247681e-01</stageThreshold>
      <weakClassifiers>
        <_>
          <internalNodes>
            0 -1 29 -3.3656366169452667e-02</internalNodes>
          <leafValues>
            7.8409093618392944e-01 -3.2547169923782349e-01</leafValues></_>
        <_>
          <internalNodes>
            0 -1 24 1.8005800666287541e-03</internalNodes>
          <leafValues>
            -2.9124391078948975e-01 7.3659026622772217e-01</leafValues></_>
        <_>
          <internalNodes>
            0 -1 27 2.9364672955125570e-03</internalNodes>
          <leafValues>
            -3.6384606361389160e-01 7.2075736522674561e-01</leafValues></_>
        <_>
          <internalNodes>
            0 -1 36 -1.3427529484033585e-02</internalNodes>
          <leafValues>
            7.2576147317886353e-01 -3.6344632506370544e-01</leafValues></_>
        <_>
          <internalNodes>
            0 -1 75 1.7857622355222702e-02</internalNodes>
          <leafValues>
            -5.4596239328384399e-01 4.2478266358375549e-01</leafValues></_>
        <_>
          <internalNodes>
            0 -1 56 9.0771568939089775e-03</internalNodes>
          <leafValues>
            -4.4576573371887207e-01 5.1772785186767578e-01</leafValues></_>
        <_>
          <internalNodes>
            0 -1 93 -9.0170541079714894e-04</internalNodes>
          <leafValues>
            -7.9788535833358765e-01 2.7466014027595520e-01</leafValues></_>
        <_>
          <internalNodes>
            0 -1 50 -3.3171830000355840e-04</internalNodes>
          <leafValues>
            -7.8625893592834473e-01 2.5481584668159485e-01</leafValues></_></weakClassifiers></_>
    <!-- stage 15 -->
    <_>
      <maxWeakCount>5</maxWeakCount>
      <stageThreshold>-4.3371582031250000e-01</stageThreshold>
      <weakClassifiers>
        <_>
          <internalNodes>
            0 -1 83 1.0982963431160897e-04</internalNodes>
          <leafValues>
            -5.7432430982589722e-01 5.5921053886413574e-01</leafValues></_>
        <_>
          <internalNodes>
            0 -1 33 3.6171346437186003e-03</internalNodes>
          <leafValues>
            -3.3477398753166199e-01 7.9223209619522095e-01</leafValues></_>
        <_>
          <internalNodes>
            0 -1 54 1.3145589269697666e-02</internalNodes>
          <leafValues>
            -3.2167208194732666e-01 7.6296794414520264e-01</leafValues></_>
        <_>
          <internalNodes>
            0 -1 95 4.9037779681384563e-03</internalNodes>
          <leafValues>
            -6.4603978395462036e-01 4.3698269128799438e-01</leafValues></_>
        <_>
          <internalNodes>
            0 -1 64 -4.6832943335175514e-03</internalNodes>
          <leafValues>
            -7.5221818685531616e-01 3.6007189750671387e-01</leafValues></_></weakClassifiers></_>
    <!-- stage 16 -->
    <_>
      <maxWeakCount>5</maxWeakCount>
      <stageThreshold>-5.4763299226760864e-01</stageThreshold>
      <weakClassifiers>
        <_>
          <internalNodes>
            0 -1 22 7.5011141598224640e-04</internalNodes>
          <leafValues>
            -4.0594059228897095e-01 8.3673471212387085e-01</leafValues></_>
        <_>
          <internalNodes>
            0 -1 60 3.1717470847070217e-04</internalNodes>
          <leafValues>
            4.8110261559486389e-01 -6.9564950466156006e-01</leafValues></_>
        <_>
          <internalNodes>
            0 -1 26 4.0005862712860107e-02</internalNodes>
          <leafValues>
            -4.4649705290794373e-01 7.6376110315322876e-01</leafValues></_>
        <_>
          <internalNodes>
            0 -1 2 -2.5399823207408190e-03</internalNodes>
          <leafValues>
            5.9010779857635498e-01 -6.1311233043670654e-01</leafValues></_>
        <_>
          <internalNodes>
            0 -1 49 -7.4883038178086281e-03</internalNodes>
          <leafValues>
            -7.6640576124191284e-01 5.1625430583953857e-01</leafValues></_></weakClassifiers></_>
    <!-- stage 17 -->
    <_>
      <maxWeakCount>4</maxWeakCount>
      <stageThreshold>-4.8524183034896851e-01</stageThreshold>
      <weakClassifiers>
        <_>
          <internalNodes>
            0 -1 34 -1.0159860830754042e-03</internalNodes>
          <leafValues>
            1. -5.1515150070190430e-01</leafValues></_>
        <_>
          <internalNodes>
            0 -1 25 -1.6478146426379681e-03</internalNodes>
          <leafValues>
            8.7834310531616211e-01 -5.3084284067153931e-01</leafValues></_>
        <_>
          <internalNodes>
            0 -1 85 1.7374970018863678e-02</internalNodes>
          <leafValues>
            -4.2647466063499451e-01 1.</leafValues></_>
        <_>
          <internalNodes>
            0 -1 3 -6.5635319333523512e-04</internalNodes>
          <leafValues>
            1. -4.2195877432823181e-01</leafValues></_></weakClassifiers></_></stages>
  <features>
    <_>
      <rects>
        <_>
          0 6 2 10 -1.</_>
        <_>
          0 6 1 5 2.</_>
        <_>
          1 11 1 5 2.</_></rects>
      <tilted>0</tilted></_>
    <_>
      <rects>
        <_>
          0 9 45 4 -1.</_>
        <_>
          0 11 45 2 2.</_></rects>
      <tilted>0</tilted></_>
    <_>
      <rects>
        <_>
          0 10 4 8 -1.</_>
        <_>
          2 10 2 8 2.</_></rects>
      <tilted>0</tilted></_>
    <_>
      <rects>
        <_>
          0 12 2 3 -1.</_>
        <_>
          1 12 1 3 2.</_></rects>
      <tilted>0</tilted></_>
    <_>
      <rects>
        <_>
          0 13 6 5 -1.</_>
        <_>
          3 13 3 5 2.</_></rects>
      <tilted>0</tilted></_>
    <_>
      <rects>
        <_>
          0 14 4 5 -1.</_>
        <_>
          2 14 2 5 2.</_></rects>
      <tilted>0</tilted></_>
    <_>
      <rects>
        <_>
          0 15 6 3 -1.</_>
        <_>
          3 15 3 3 2.</_></rects>
      <tilted>0</tilted></_>
    <_>
      <rects>
        <_>
          0 16 8 3 -1.</_>
        <_>
          4 16 4 3 2.</_></rects>
      <tilted>0</tilted></_>
    <_>
      <rects>
        <_>
          0 17 10 3 -1.</_>
        <_>
          5 17 5 3 2.</_></rects>
      <tilted>0</tilted></_>
    <_>
      <rects>
        <_>
          0 18 40 2 -1.</_>
        <_>
          0 19 40 1 2.</_></rects>
      <tilted>0</tilted></_>
    <_>
      <rects>
        <_>
          1 11 12 4 -1.</_>
        <_>
          1 11 6 2 2.</_>
        <_>
          7 13 6 2 2.</_></rects>
      <tilted>0</tilted></_>
    <_>
      <rects>
        <_>
          2 13 32 4 -1.</_>
        <_>
          2 13 16 2 2.</_>
        <_>
          18 15 16 2 2.</_></rects>
      <tilted>0</tilted></_>
    <_>
      <rects>
        <_>
          2 14 4 6 -1.</_>
        <_>
          4 14 2 6 2.</_></rects>
      <tilted>0</tilted></_>
    <_>
      <rects>
        <_>
          2 18 43 2 -1.</_>
        <_>
          2 19 43 1 2.</_></rects>
      <tilted>0</tilted></_>
    <_>
      <rects>
        <_>
          4 9 43 4 -1.</_>
        <_>
          4 11 43 2 2.</_></rects>
      <tilted>0</tilted></_>
    <_>
      <rects>
        <_>
          4 18 36 2 -1.</_>
        <_>
          4 19 36 1 2.</_></rects>
      <tilted>0</tilted></_>
    <_>
      <rects>
        <_>
          5 8 9 12 -1.</_>
        <_>
          5 11 9 6 2.</_></rects>
      <tilted>0</tilted></_>
    <_>
      <rects>
        <_>
          6 7 25 4 -1.</_>
        <_>
          6 8 25 2 2.</_></rects>
      <tilted>0</tilted></_>
    <_>
      <rects>
        <_>
          6 8 7 9 -1.</_>
        <_>
          6 11 7 3 3.</_></rects>
      <tilted>0</tilted></_>
    <_>
      <rects>
        <_>
          6 8 9 6 -1.</_>
        <_>
          6 11 9 3 2.</_></rects>
      <tilted>0</tilted></_>
    <_>
      <rects>
        <_>
          6 8 18 6 -1.</_>
        <_>
          6 8 9 3 2.</_>
        <_>
          15 11 9 3 2.</_></rects>
      <tilted>0</tilted></_>
    <_>
      <rects>
        <_>
          6 12 16 4 -1.</_>
        <_>
          6 12 8 2 2.</_>
        <_>
          14 14 8 2 2.</_></rects>
      <tilted>0</tilted></_>
    <_>
      <rects>
        <_>
          6 15 4 1 -1.</_>
        <_>
          8 15 2 1 2.</_></rects>
      <tilted>0</tilted></_>
    <_>
      <rects>
        <_>
          6 18 38 2 -1.</_>
        <_>
          6 19 38 1 2.</_></rects>
      <tilted>0</tilted></_>
    <_>
      <rects>
        <_>
          7 14 4 4 -1.</_>
        <_>
          8 14 2 4 2.</_></rects>
      <tilted>0</tilted></_>
    <_>
      <rects>
        <_>
          7 14 24 4 -1.</_>
        <_>
          13 14 12 4 2.</_></rects>
      <tilted>0</tilted></_>
    <_>
      <rects>
        <_>
          8 7 33 6 -1.</_>
        <_>
          8 9 33 2 3.</_></rects>
      <tilted>0</tilted></_>
    <_>
      <rects>
        <_>
          8 14 4 3 -1.</_>
        <_>
          10 14 2 3 2.</_></rects>
      <tilted>0</tilted></_>
    <_>
      <rects>
        <_>
          8 16 6 2 -1.</_>
        <_>
          8 17 6 1 2.</_></rects>
      <tilted>0</tilted></_>
    <_>
      <rects>
        <_>
          8 17 35 3 -1.</_>
        <_>
          8 18 35 1 3.</_></rects>
      <tilted>0</tilted></_>
    <_>
      <rects>
        <_>
          9 11 8 6 -1.</_>
        <_>
          9 11 4 3 2.</_>
        <_>
          13 14 4 3 2.</_></rects>
      <tilted>0</tilted></_>
    <_>
      <rects>
        <_>
          9 12 5 6 -1.</_>
        <_>
          9 14 5 2 3.</_></rects>
      <tilted>0</tilted></_>
    <_>
      <rects>
        <_>
          10 8 1 8 -1.</_>
        <_>
          10 10 1 4 2.</_></rects>
      <tilted>0</tilted></_>
    <_>
      <rects>
        <_>
          10 11 4 4 -1.</_>
        <_>
          11 12 2 4 2.</_></rects>
      <tilted>1</tilted></_>
    <_>
      <rects>
        <_>
          11 7 12 4 -1.</_>
        <_>
          17 7 6 4 2.</_></rects>
      <tilted>0</tilted></_>
    <_>
      <rects>
        <_>
          11 8 28 3 -1.</_>
        <_>
          18 8 14 3 2.</_></rects>
      <tilted>0</tilted></_>
    <_>
      <rects>
        <_>
          12 16 23 3 -1.</_>
        <_>
          12 17 23 1 3.</_></rects>
      <tilted>0</tilted></_>
    <_>
      <rects>
        <_>
          13 9 7 4 -1.</_>
        <_>
          12 10 7 2 2.</_></rects>
      <tilted>1</tilted></_>
    <_>
      <rects>
        <_>
          14 8 4 6 -1.</_>
        <_>
          12 10 4 2 3.</_></rects>
      <tilted>1</tilted></_>
    <_>
      <rects>
        <_>
          14 11 16 4 -1.</_>
        <_>
          18 11 8 4 2.</_></rects>
      <tilted>0</tilted></_>
    <_>
      <rects>
        <_>
          17 1 28 8 -1.</_>
        <_>
          17 1 14 4 2.</_>
        <_>
          31 5 14 4 2.</_></rects>
      <tilted>0</tilted></_>
    <_>
      <rects>
        <_>
          17 18 24 2 -1.</_>
        <_>
          17 19 24 1 2.</_></rects>
      <tilted>0</tilted></_>
    <_>
      <rects>
        <_>
          18 12 6 5 -1.</_>
        <_>
          20 12 2 5 3.</_></rects>
      <tilted>0</tilted></_>
    <_>
      <rects>
        <_>
          19 12 24 4 -1.</_>
        <_>
          19 12 12 2 2.</_>
        <_>
          31 14 12 2 2.</_></rects>
      <tilted>0</tilted></_>
    <_>
      <rects>
        <_>
          19 12 24 6 -1.</_>
        <_>
          19 12 12 3 2.</_>
        <_>
          31 15 12 3 2.</_></rects>
      <tilted>0</tilted></_>
    <_>
      <rects>
        <_>
          20 4 8 8 -1.</_>
        <_>
          20 4 8 4 2.</_></rects>
      <tilted>1</tilted></_>
    <_>
      <rects>
        <_>
          20 4 9 6 -1.</_>
        <_>
          20 6 9 2 3.</_></rects>
      <tilted>0</tilted></_>
    <_>
      <rects>
        <_>
          20 11 8 8 -1.</_>
        <_>
          20 11 4 4 2.</_>
        <_>
          24 15 4 4 2.</_></rects>
      <tilted>0</tilted></_>
    <_>
      <rects>
        <_>
          20 12 8 4 -1.</_>
        <_>
          20 12 4 2 2.</_>
        <_>
          24 14 4 2 2.</_></rects>
      <tilted>0</tilted></_>
    <_>
      <rects>
        <_>
          21 9 15 11 -1.</_>
        <_>
          26 9 5 11 3.</_></rects>
      <tilted>0</tilted></_>
    <_>
      <rects>
        <_>
          21 14 3 3 -1.</_>
        <_>
          22 14 1 3 3.</_></rects>
      <tilted>0</tilted></_>
    <_>
      <rects>
        <_>
          21 17 15 3 -1.</_>
        <_>
          26 17 5 3 3.</_></rects>
      <tilted>0</tilted></_>
    <_>
      <rects>
        <_>
          22 11 12 1 -1.</_>
        <_>
          25 11 6 1 2.</_></rects>
      <tilted>0</tilted></_>
    <_>
      <rects>
        <_>
          22 12 4 4 -1.</_>
        <_>
          24 12 2 4 2.</_></rects>
      <tilted>0</tilted></_>
    <_>
      <rects>
        <_>
          22 14 28 4 -1.</_>
        <_>
          22 14 14 2 2.</_>
        <_>
          36 16 14 2 2.</_></rects>
      <tilted>0</tilted></_>
    <_>
      <rects>
        <_>
          22 16 4 3 -1.</_>
        <_>
          22 17 4 1 3.</_></rects>
      <tilted>0</tilted></_>
    <_>
      <rects>
        <_>
          23 12 20 4 -1.</_>
        <_>
          23 12 10 2 2.</_>
        <_>
          33 14 10 2 2.</_></rects>
      <tilted>0</tilted></_>
    <_>
      <rects>
        <_>
          23 18 27 2 -1.</_>
        <_>
          23 19 27 1 2.</_></rects>
      <tilted>0</tilted></_>
    <_>
      <rects>
        <_>
          24 12 20 6 -1.</_>
        <_>
          24 12 10 3 2.</_>
        <_>
          34 15 10 3 2.</_></rects>
      <tilted>0</tilted></_>
    <_>
      <rects>
        <_>
          25 6 14 4 -1.</_>
        <_>
          32 6 7 4 2.</_></rects>
      <tilted>0</tilted></_>
    <_>
      <rects>
        <_>
          25 15 2 5 -1.</_>
        <_>
          26 15 1 5 2.</_></rects>
      <tilted>0</tilted></_>
    <_>
      <rects>
        <_>
          25 17 13 3 -1.</_>
        <_>
          25 18 13 1 3.</_></rects>
      <tilted>0</tilted></_>
    <_>
      <rects>
        <_>
          26 13 8 4 -1.</_>
        <_>
          28 13 4 4 2.</_></rects>
      <tilted>0</tilted></_>
    <_>
      <rects>
        <_>
          26 17 24 1 -1.</_>
        <_>
          38 17 12 1 2.</_></rects>
      <tilted>0</tilted></_>
    <_>
      <rects>
        <_>
          27 9 2 6 -1.</_>
        <_>
          25 11 2 2 3.</_></rects>
      <tilted>1</tilted></_>
    <_>
      <rects>
        <_>
          27 12 4 6 -1.</_>
        <_>
          27 12 2 3 2.</_>
        <_>
          29 15 2 3 2.</_></rects>
      <tilted>0</tilted></_>
    <_>
      <rects>
        <_>
          27 12 16 6 -1.</_>
        <_>
          27 12 8 3 2.</_>
        <_>
          35 15 8 3 2.</_></rects>
      <tilted>0</tilted></_>
    <_>
      <rects>
        <_>
          29 13 2 3 -1.</_>
        <_>
          30 13 1 3 2.</_></rects>
      <tilted>0</tilted></_>
    <_>
      <rects>
        <_>
          29 13 2 7 -1.</_>
        <_>
          30 13 1 7 2.</_></rects>
      <tilted>0</tilted></_>
    <_>
      <rects>
        <_>
          32 12 10 4 -1.</_>
        <_>
          32 12 5 2 2.</_>
        <_>
          37 14 5 2 2.</_></rects>
      <tilted>0</tilted></_>
    <_>
      <rects>
        <_>
          33 11 8 6 -1.</_>
        <_>
          33 11 4 3 2.</_>
        <_>
          37 14 4 3 2.</_></rects>
      <tilted>0</tilted></_>
    <_>
      <rects>
        <_>
          35 3 1 16 -1.</_>
        <_>
          35 11 1 8 2.</_></rects>
      <tilted>0</tilted></_>
    <_>
      <rects>
        <_>
          35 12 14 4 -1.</_>
        <_>
          35 12 7 2 2.</_>
        <_>
          42 14 7 2 2.</_></rects>
      <tilted>0</tilted></_>
    <_>
      <rects>
        <_>
          36 5 9 9 -1.</_>
        <_>
          36 8 9 3 3.</_></rects>
      <tilted>0</tilted></_>
    <_>
      <rects>
        <_>
          36 8 14 6 -1.</_>
        <_>
          36 8 7 3 2.</_>
        <_>
          43 11 7 3 2.</_></rects>
      <tilted>0</tilted></_>
    <_>
      <rects>
        <_>
          36 11 14 8 -1.</_>
        <_>
          43 11 7 8 2.</_></rects>
      <tilted>0</tilted></_>
    <_>
      <rects>
        <_>
          36 15 6 1 -1.</_>
        <_>
          38 15 2 1 3.</_></rects>
      <tilted>0</tilted></_>
    <_>
      <rects>
        <_>
          37 6 6 8 -1.</_>
        <_>
          37 6 3 8 2.</_></rects>
      <tilted>1</tilted></_>
    <_>
      <rects>
        <_>
          37 10 4 4 -1.</_>
        <_>
          38 11 2 4 2.</_></rects>
      <tilted>1</tilted></_>
    <_>
      <rects>
        <_>
          37 12 10 4 -1.</_>
        <_>
          37 12 5 2 2.</_>
        <_>
          42 14 5 2 2.</_></rects>
      <tilted>0</tilted></_>
    <_>
      <rects>
        <_>
          37 13 4 6 -1.</_>
        <_>
          38 13 2 6 2.</_></rects>
      <tilted>0</tilted></_>
    <_>
      <rects>
        <_>
          37 14 4 5 -1.</_>
        <_>
          38 14 2 5 2.</_></rects>
      <tilted>0</tilted></_>
    <_>
      <rects>
        <_>
          38 2 7 15 -1.</_>
        <_>
          38 7 7 5 3.</_></rects>
      <tilted>0</tilted></_>
    <_>
      <rects>
        <_>
          38 11 6 3 -1.</_>
        <_>
          37 12 6 1 3.</_></rects>
      <tilted>1</tilted></_>
    <_>
      <rects>
        <_>
          38 13 12 7 -1.</_>
        <_>
          44 13 6 7 2.</_></rects>
      <tilted>0</tilted></_>
    <_>
      <rects>
        <_>
          39 0 11 6 -1.</_>
        <_>
          37 2 11 2 3.</_></rects>
      <tilted>1</tilted></_>
    <_>
      <rects>
        <_>
          40 6 1 12 -1.</_>
        <_>
          40 6 1 6 2.</_></rects>
      <tilted>1</tilted></_>
    <_>
      <rects>
        <_>
          40 8 6 4 -1.</_>
        <_>
          39 9 6 2 2.</_></rects>
      <tilted>1</tilted></_>
    <_>
      <rects>
        <_>
          40 17 10 2 -1.</_>
        <_>
          45 17 5 2 2.</_></rects>
      <tilted>0</tilted></_>
    <_>
      <rects>
        <_>
          41 15 8 4 -1.</_>
        <_>
          45 15 4 4 2.</_></rects>
      <tilted>0</tilted></_>
    <_>
      <rects>
        <_>
          41 16 4 3 -1.</_>
        <_>
          43 16 2 3 2.</_></rects>
      <tilted>0</tilted></_>
    <_>
      <rects>
        <_>
          42 3 8 16 -1.</_>
        <_>
          42 3 4 8 2.</_>
        <_>
          46 11 4 8 2.</_></rects>
      <tilted>0</tilted></_>
    <_>
      <rects>
        <_>
          42 4 8 14 -1.</_>
        <_>
          42 4 4 7 2.</_>
        <_>
          46 11 4 7 2.</_></rects>
      <tilted>0</tilted></_>
    <_>
      <rects>
        <_>
          42 8 6 1 -1.</_>
        <_>
          42 8 3 1 2.</_></rects>
      <tilted>1</tilted></_>
    <_>
      <rects>
        <_>
          42 16 8 3 -1.</_>
        <_>
          46 16 4 3 2.</_></rects>
      <tilted>0</tilted></_>
    <_>
      <rects>
        <_>
          43 6 6 12 -1.</_>
        <_>
          43 6 3 6 2.</_>
        <_>
          46 12 3 6 2.</_></rects>
      <tilted>0</tilted></_>
    <_>
      <rects>
        <_>
          46 7 4 10 -1.</_>
        <_>
          46 7 2 5 2.</_>
        <_>
          48 12 2 5 2.</_></rects>
      <tilted>0</tilted></_>
    <_>
      <rects>
        <_>
          46 13 4 7 -1.</_>
        <_>
          48 13 2 7 2.</_></rects>
      <tilted>0</tilted></_>
    <_>
      <rects>
        <_>
          46 14 4 6 -1.</_>
        <_>
          48 14 2 6 2.</_></rects>
      <tilted>0</tilted></_>
    <_>
      <rects>
        <_>
          48 8 2 10 -1.</_>
        <_>
          49 8 1 10 2.</_></rects>
      <tilted>0</tilted></_></features></cascade>
</opencv_storage>
