<?xml version="1.0"?>
<opencv_storage>
<cascade>
  <stageType>BOOST</stageType>
  <featureType>HAAR</featureType>
  <height>20</height>
  <width>50</width>
  <stageParams>
    <boostType>GAB</boostType>
    <minHitRate>9.9500000476837158e-01</minHitRate>
    <maxFalseAlarm>5.0000000000000000e-01</maxFalseAlarm>
    <weightTrimRate>9.4999999999999996e-01</weightTrimRate>
    <maxDepth>1</maxDepth>
    <maxWeakCount>100</maxWeakCount></stageParams>
  <featureParams>
    <maxCatCount>0</maxCatCount>
    <featSize>1</featSize>
    <mode>CORE</mode></featureParams>
  <stageNum>17</stageNum>
  <stages>
    <!-- stage 0 -->
    <_>
      <maxWeakCount>4</maxWeakCount>
      <stageThreshold>-1.7360444068908691e+00</stageThreshold>
      <weakClassifiers>
        <_>
          <internalNodes>
            0 -1 35 1.8227340653538704e-02</internalNodes>
          <leafValues>
            -8.4644913673400879e-01 7.8770947456359863e-01</leafValues></_>
        <_>
          <internalNodes>
            0 -1 26 -4.5208156108856201e-02</internalNodes>
          <leafValues>
            7.0092362165451050e-01 -7.0996999740600586e-01</leafValues></_>
        <_>
          <internalNodes>
            0 -1 7 -5.1751714199781418e-03</internalNodes>
          <leafValues>
            5.9805619716644287e-01 -6.6441571712493896e-01</leafValues></_>
        <_>
          <internalNodes>
            0 -1 88 2.0246505737304688e-03</internalNodes>
          <leafValues>
            -7.7768146991729736e-01 5.0734704732894897e-01</leafValues></_></weakClassifiers></_>
    <!-- stage 1 -->
    <_>
      <maxWeakCount>6</maxWeakCount>
      <stageThreshold>-1.6121448278427124e+00</stageThreshold>
      <weakClassifiers>
        <_>
          <internalNodes>
            0 -1 48 1.5861961990594864e-02</internalNodes>
          <leafValues>
            -8.0816328525543213e-01 4.5714285969734192e-01</leafValues></_>
        <_>
          <internalNodes>
            0 -1 22 -1.2700630351901054e-02</internalNodes>
          <leafValues>
            6.0305261611938477e-01 -6.9560027122497559e-01</leafValues></_>
        <_>
          <internalNodes>
            0 -1 9 -2.0804242230951786e-03</internalNodes>
          <leafValues>
            4.8502635955810547e-01 -7.0402127504348755e-01</leafValues></_>
        <_>
          <internalNodes>
            0 -1 86 2.1337062120437622e-02</internalNodes>
          <leafValues>
            -5.2621722221374512e-01 7.3186182975769043e-01</leafValues></_>
        <_>
          <internalNodes>
            0 -1 80 -5.4227286018431187e-03</internalNodes>
          <leafValues>
            6.8590760231018066e-01 -4.3443852663040161e-01</leafValues></_>
        <_>
          <internalNodes>
            0 -1 17 8.6365116294473410e-04</internalNodes>
          <leafValues>
            3.6724811792373657e-01 -8.6629426479339600e-01</leafValues></_></weakClassifiers></_>
    <!-- stage 2 -->
    <_>
      <maxWeakCount>7</maxWeakCount>
      <stageThreshold>-1.6448464393615723e+00</stageThreshold>
      <weakClassifiers>
        <_>
          <internalNodes>
            0 -1 33 -1.8962752074003220e-02</internalNodes>
          <leafValues>
            5.2499997615814209e-01 -7.1111112833023071e-01</leafValues></_>
        <_>
          <internalNodes>
            0 -1 95 6.8198388908058405e-04</internalNodes>
          <leafValues>
            -7.4277067184448242e-01 3.8637900352478027e-01</leafValues></_>
        <_>
          <internalNodes>
            0 -1 74 4.2690865695476532e-02</internalNodes>
          <leafValues>
            -5.4867577552795410e-01 5.4891544580459595e-01</leafValues></_>
        <_>
          <internalNodes>
            0 -1 45 -1.2608998455107212e-02</internalNodes>
          <leafValues>
            7.4896126985549927e-01 -3.9422109723091125e-01</leafValues></_>
        <_>
          <internalNodes>
            0 -1 90 6.4440248534083366e-03</internalNodes>
          <leafValues>
            -6.0677891969680786e-01 4.7952800989151001e-01</leafValues></_>
        <_>
          <internalNodes>
            0 -1 3 -7.2185869794338942e-04</internalNodes>
          <leafValues>
            5.6608891487121582e-01 -4.9394288659095764e-01</leafValues></_>
        <_>
          <internalNodes>
            0 -1 24 4.0853995829820633e-02</internalNodes>
          <leafValues>
            -3.0496907234191895e-01 8.4014916419982910e-01</leafValues></_></weakClassifiers></_>
    <!-- stage 3 -->
    <_>
      <maxWeakCount>6</maxWeakCount>
      <stageThreshold>-1.7524123191833496e+00</stageThreshold>
      <weakClassifiers>
        <_>
          <internalNodes>
            0 -1 77 6.4763505943119526e-03</internalNodes>
          <leafValues>
            -7.0863306522369385e-01 6.5277779102325439e-01</leafValues></_>
        <_>
          <internalNodes>
            0 -1 32 8.8731544092297554e-03</internalNodes>
          <leafValues>
            -4.8998120427131653e-01 6.6072005033493042e-01</leafValues></_>
        <_>
          <internalNodes>
            0 -1 84 -1.4419244602322578e-02</internalNodes>
          <leafValues>
            6.2010282278060913e-01 -5.1843351125717163e-01</leafValues></_>
        <_>
          <internalNodes>
            0 -1 6 -2.5452580302953720e-03</internalNodes>
          <leafValues>
            5.1877814531326294e-01 -5.9820222854614258e-01</leafValues></_>
        <_>
          <internalNodes>
            0 -1 59 1.6719803679734468e-03</internalNodes>
          <leafValues>
            2.5060862302780151e-01 -9.8094981908798218e-01</leafValues></_>
        <_>
          <internalNodes>
            0 -1 60 -1.6299518756568432e-03</internalNodes>
          <leafValues>
            -8.2630723714828491e-01 3.1628251075744629e-01</leafValues></_></weakClassifiers></_>
    <!-- stage 4 -->
    <_>
      <maxWeakCount>6</maxWeakCount>
      <stageThreshold>-1.8067649602890015e+00</stageThreshold>
      <weakClassifiers>
        <_>
          <internalNodes>
            0 -1 37 -1.0013974271714687e-02</internalNodes>
          <leafValues>
            7.4774771928787231e-01 -6.5025466680526733e-01</leafValues></_>
        <_>
          <internalNodes>
            0 -1 5 -1.0453051654621959e-03</internalNodes>
          <leafValues>
            4.1503021121025085e-01 -6.4957606792449951e-01</leafValues></_>
        <_>
          <internalNodes>
            0 -1 12 3.0010119080543518e-02</internalNodes>
          <leafValues>
            -4.7385272383689880e-01 6.0871279239654541e-01</leafValues></_>
        <_>
          <internalNodes>
            0 -1 46 1.6016438603401184e-02</internalNodes>
          <leafValues>
            -4.2369493842124939e-01 6.7488670349121094e-01</leafValues></_>
        <_>
          <internalNodes>
            0 -1 96 1.6108884010463953e-03</internalNodes>
          <leafValues>
            -3.6886966228485107e-01 6.7767959833145142e-01</leafValues></_>
        <_>
          <internalNodes>
            0 -1 85 4.5197356492280960e-02</internalNodes>
          <leafValues>
            -3.2308244705200195e-01 7.9075646400451660e-01</leafValues></_></weakClassifiers></_>
    <!-- stage 5 -->
    <_>
      <maxWeakCount>5</maxWeakCount>
      <stageThreshold>-1.1208457946777344e+00</stageThreshold>
      <weakClassifiers>
        <_>
          <internalNodes>
            0 -1 81 -8.0289393663406372e-03</internalNodes>
          <leafValues>
            5.2795028686523438e-01 -7.1428573131561279e-01</leafValues></_>
        <_>
          <internalNodes>
            0 -1 33 -8.6517333984375000e-03</internalNodes>
          <leafValues>
            4.6540424227714539e-01 -6.1913841962814331e-01</leafValues></_>
        <_>
          <internalNodes>
            0 -1 92 9.2390570789575577e-03</internalNodes>
          <leafValues>
            -5.5489873886108398e-01 5.5028879642486572e-01</leafValues></_>
        <_>
          <internalNodes>
            0 -1 67 1.0136102791875601e-03</internalNodes>
          <leafValues>
            2.5279799103736877e-01 -9.6126532554626465e-01</leafValues></_>
        <_>
          <internalNodes>
            0 -1 16 -4.6316981315612793e-03</internalNodes>
          <leafValues>
            5.1467901468276978e-01 -4.7981485724449158e-01</leafValues></_></weakClassifiers></_>
    <!-- stage 6 -->
    <_>
      <maxWeakCount>7</maxWeakCount>
      <stageThreshold>-1.8990103006362915e+00</stageThreshold>
      <weakClassifiers>
        <_>
          <internalNodes>
            0 -1 44 -5.2781701087951660e-03</internalNodes>
          <leafValues>
            4.9367088079452515e-01 -6.9741696119308472e-01</leafValues></_>
        <_>
          <internalNodes>
            0 -1 75 -1.3426488265395164e-02</internalNodes>
          <leafValues>
            2.2528626024723053e-01 -8.6588996648788452e-01</leafValues></_>
        <_>
          <internalNodes>
            0 -1 70 7.6929987408220768e-03</internalNodes>
          <leafValues>
            -4.5954370498657227e-01 5.7805019617080688e-01</leafValues></_>
        <_>
          <internalNodes>
            0 -1 89 2.7677111793309450e-03</internalNodes>
          <leafValues>
            -6.6264241933822632e-01 3.6621314287185669e-01</leafValues></_>
        <_>
          <internalNodes>
            0 -1 64 -5.0775124691426754e-03</internalNodes>
          <leafValues>
            -8.9569842815399170e-01 2.5198614597320557e-01</leafValues></_>
        <_>
          <internalNodes>
            0 -1 2 -4.2474186047911644e-03</internalNodes>
          <leafValues>
            3.2249879837036133e-01 -6.7370826005935669e-01</leafValues></_>
        <_>
          <internalNodes>
            0 -1 51 -5.7148578343912959e-04</internalNodes>
          <leafValues>
            -9.0012985467910767e-01 1.7934925854206085e-01</leafValues></_></weakClassifiers></_>
    <!-- stage 7 -->
    <_>
      <maxWeakCount>6</maxWeakCount>
      <stageThreshold>-1.2239274978637695e+00</stageThreshold>
      <weakClassifiers>
        <_>
          <internalNodes>
            0 -1 68 1.2866985052824020e-02</internalNodes>
          <leafValues>
            -7.5313806533813477e-01 2.7027025818824768e-01</leafValues></_>
        <_>
          <internalNodes>
            0 -1 19 -2.5328300893306732e-02</internalNodes>
          <leafValues>
            4.1550391912460327e-01 -6.0669434070587158e-01</leafValues></_>
        <_>
          <internalNodes>
            0 -1 56 -7.6417333912104368e-04</internalNodes>
          <leafValues>
            -8.4030973911285400e-01 2.2972907125949860e-01</leafValues></_>
        <_>
          <internalNodes>
            0 -1 73 -7.4133835732936859e-03</internalNodes>
          <leafValues>
            4.5530450344085693e-01 -5.0330078601837158e-01</leafValues></_>
        <_>
          <internalNodes>
            0 -1 8 -6.9045327836647630e-04</internalNodes>
          <leafValues>
            3.1906345486640930e-01 -7.4579674005508423e-01</leafValues></_>
        <_>
          <internalNodes>
            0 -1 49 -1.6480006743222475e-03</internalNodes>
          <leafValues>
            -8.4908562898635864e-01 2.4329859018325806e-01</leafValues></_></weakClassifiers></_>
    <!-- stage 8 -->
    <_>
      <maxWeakCount>7</maxWeakCount>
      <stageThreshold>-1.7784907817840576e+00</stageThreshold>
      <weakClassifiers>
        <_>
          <internalNodes>
            0 -1 82 3.4359132405370474e-03</internalNodes>
          <leafValues>
            -6.7441862821578979e-01 5.4609930515289307e-01</leafValues></_>
        <_>
          <internalNodes>
            0 -1 11 -1.2410412542521954e-02</internalNodes>
          <leafValues>
            2.4852982163429260e-01 -6.9379937648773193e-01</leafValues></_>
        <_>
          <internalNodes>
            0 -1 13 -2.4930272251367569e-02</internalNodes>
          <leafValues>
            -7.0402216911315918e-01 2.5229254364967346e-01</leafValues></_>
        <_>
          <internalNodes>
            0 -1 14 2.5674703065305948e-03</internalNodes>
          <leafValues>
            -3.4625005722045898e-01 6.1880999803543091e-01</leafValues></_>
        <_>
          <internalNodes>
            0 -1 93 2.3780618794262409e-03</internalNodes>
          <leafValues>
            -6.3035601377487183e-01 3.6398038268089294e-01</leafValues></_>
        <_>
          <internalNodes>
            0 -1 53 9.0448573231697083e-02</internalNodes>
          <leafValues>
            -2.5763309001922607e-01 7.7067226171493530e-01</leafValues></_>
        <_>
          <internalNodes>
            0 -1 20 -3.1274776905775070e-02</internalNodes>
          <leafValues>
            4.7665783762931824e-01 -4.2266255617141724e-01</leafValues></_></weakClassifiers></_>
    <!-- stage 9 -->
    <_>
      <maxWeakCount>7</maxWeakCount>
      <stageThreshold>-1.1359789371490479e+00</stageThreshold>
      <weakClassifiers>
        <_>
          <internalNodes>
            0 -1 41 -1.1637993156909943e-02</internalNodes>
          <leafValues>
            5.6896549463272095e-01 -6.2671232223510742e-01</leafValues></_>
        <_>
          <internalNodes>
            0 -1 76 -6.9596595130860806e-03</internalNodes>
          <leafValues>
            6.5641337633132935e-01 -3.9545083045959473e-01</leafValues></_>
        <_>
          <internalNodes>
            0 -1 31 -4.4488281011581421e-02</internalNodes>
          <leafValues>
            4.0777853131294250e-01 -5.5783236026763916e-01</leafValues></_>
        <_>
          <internalNodes>
            0 -1 54 -1.6619097441434860e-02</internalNodes>
          <leafValues>
            6.5355610847473145e-01 -3.5761868953704834e-01</leafValues></_>
        <_>
          <internalNodes>
            0 -1 15 -8.2793115871027112e-04</internalNodes>
          <leafValues>
            3.4504774212837219e-01 -6.7672282457351685e-01</leafValues></_>
        <_>
          <internalNodes>
            0 -1 63 1.2363349087536335e-03</internalNodes>
          <leafValues>
            2.3721884191036224e-01 -8.2523638010025024e-01</leafValues></_>
        <_>
          <internalNodes>
            0 -1 47 -9.2137657338753343e-04</internalNodes>
          <leafValues>
            -8.1483298540115356e-01 2.7552831172943115e-01</leafValues></_></weakClassifiers></_>
    <!-- stage 10 -->
    <_>
      <maxWeakCount>6</maxWeakCount>
      <stageThreshold>-1.4227746725082397e+00</stageThreshold>
      <weakClassifiers>
        <_>
          <internalNodes>
            0 -1 40 -1.0365696623921394e-02</internalNodes>
          <leafValues>
            5.3164559602737427e-01 -7.0848709344863892e-01</leafValues></_>
        <_>
          <internalNodes>
            0 -1 66 -3.1596563756465912e-02</internalNodes>
          <leafValues>
            4.8730447888374329e-01 -5.2631044387817383e-01</leafValues></_>
        <_>
          <internalNodes>
            0 -1 4 -2.6563401333987713e-03</internalNodes>
          <leafValues>
            4.1231262683868408e-01 -5.6859385967254639e-01</leafValues></_>
        <_>
          <internalNodes>
            0 -1 25 9.3379663303494453e-03</internalNodes>
          <leafValues>
            -3.8339450955390930e-01 6.0144597291946411e-01</leafValues></_>
        <_>
          <internalNodes>
            0 -1 55 -9.8920958116650581e-03</internalNodes>
          <leafValues>
            -8.4589534997940063e-01 2.6086330413818359e-01</leafValues></_>
        <_>
          <internalNodes>
            0 -1 83 -6.4547834917902946e-03</internalNodes>
          <leafValues>
            6.2900006771087646e-01 -3.7951463460922241e-01</leafValues></_></weakClassifiers></_>
    <!-- stage 11 -->
    <_>
      <maxWeakCount>7</maxWeakCount>
      <stageThreshold>-1.1571582555770874e+00</stageThreshold>
      <weakClassifiers>
        <_>
          <internalNodes>
            0 -1 39 -5.5677760392427444e-03</internalNodes>
          <leafValues>
            4.3624159693717957e-01 -6.6243195533752441e-01</leafValues></_>
        <_>
          <internalNodes>
            0 -1 23 1.3624820858240128e-02</internalNodes>
          <leafValues>
            -5.7731747627258301e-01 3.0203941464424133e-01</leafValues></_>
        <_>
          <internalNodes>
            0 -1 91 5.1823761314153671e-03</internalNodes>
          <leafValues>
            -6.9632524251937866e-01 2.6405426859855652e-01</leafValues></_>
        <_>
          <internalNodes>
            0 -1 1 -9.2862843303009868e-04</internalNodes>
          <leafValues>
            4.7278386354446411e-01 -3.6600291728973389e-01</leafValues></_>
        <_>
          <internalNodes>
            0 -1 30 3.2158017158508301e-02</internalNodes>
          <leafValues>
            -4.1098687052726746e-01 5.5457895994186401e-01</leafValues></_>
        <_>
          <internalNodes>
            0 -1 10 -8.5981786251068115e-03</internalNodes>
          <leafValues>
            5.6173908710479736e-01 -3.3691105246543884e-01</leafValues></_>
        <_>
          <internalNodes>
            0 -1 58 -3.0833409982733428e-04</internalNodes>
          <leafValues>
            -8.0499911308288574e-01 2.4617788195610046e-01</leafValues></_></weakClassifiers></_>
    <!-- stage 12 -->
    <_>
      <maxWeakCount>7</maxWeakCount>
      <stageThreshold>-1.2415999174118042e+00</stageThreshold>
      <weakClassifiers>
        <_>
          <internalNodes>
            0 -1 28 -5.7432157918810844e-03</internalNodes>
          <leafValues>
            4.6052631735801697e-01 -6.7518246173858643e-01</leafValues></_>
        <_>
          <internalNodes>
            0 -1 79 -1.1687217280268669e-02</internalNodes>
          <leafValues>
            6.6129297018051147e-01 -3.9134696125984192e-01</leafValues></_>
        <_>
          <internalNodes>
            0 -1 27 -4.4814655557274818e-03</internalNodes>
          <leafValues>
            5.8207142353057861e-01 -4.3856492638587952e-01</leafValues></_>
        <_>
          <internalNodes>
            0 -1 42 -9.2271538451313972e-03</internalNodes>
          <leafValues>
            5.9283161163330078e-01 -3.6111822724342346e-01</leafValues></_>
        <_>
          <internalNodes>
            0 -1 65 6.7616556771099567e-04</internalNodes>
          <leafValues>
            2.9435959458351135e-01 -7.9360800981521606e-01</leafValues></_>
        <_>
          <internalNodes>
            0 -1 97 1.5628305263817310e-03</internalNodes>
          <leafValues>
            -3.2354533672332764e-01 6.4265400171279907e-01</leafValues></_>
        <_>
          <internalNodes>
            0 -1 61 -4.4837776571512222e-02</internalNodes>
          <leafValues>
            6.8751895427703857e-01 -3.0015134811401367e-01</leafValues></_></weakClassifiers></_>
    <!-- stage 13 -->
    <_>
      <maxWeakCount>7</maxWeakCount>
      <stageThreshold>-1.8340743780136108e+00</stageThreshold>
      <weakClassifiers>
        <_>
          <internalNodes>
            0 -1 87 -7.9254852607846260e-04</internalNodes>
          <leafValues>
            4.2666667699813843e-01 -6.6181820631027222e-01</leafValues></_>
        <_>
          <internalNodes>
            0 -1 21 -2.9341042041778564e-02</internalNodes>
          <leafValues>
            3.9954403042793274e-01 -5.9337347745895386e-01</leafValues></_>
        <_>
          <internalNodes>
            0 -1 72 -1.1855220422148705e-02</internalNodes>
          <leafValues>
            6.5023463964462280e-01 -3.5610586404800415e-01</leafValues></_>
        <_>
          <internalNodes>
            0 -1 62 -2.2055846056900918e-04</internalNodes>
          <leafValues>
            -7.8392308950424194e-01 3.4369450807571411e-01</leafValues></_>
        <_>
          <internalNodes>
            0 -1 36 -3.8495082408189774e-03</internalNodes>
          <leafValues>
            -8.8972389698028564e-01 2.4399042129516602e-01</leafValues></_>
        <_>
          <internalNodes>
            0 -1 34 1.9305436871945858e-03</internalNodes>
          <leafValues>
            -3.9982977509498596e-01 6.9804853200912476e-01</leafValues></_>
        <_>
          <internalNodes>
            0 -1 43 1.4882570831105113e-03</internalNodes>
          <leafValues>
            -4.1063207387924194e-01 7.9540020227432251e-01</leafValues></_></weakClassifiers></_>
    <!-- stage 14 -->
    <_>
      <maxWeakCount>6</maxWeakCount>
      <stageThreshold>-1.8742829561233521e+00</stageThreshold>
      <weakClassifiers>
        <_>
          <internalNodes>
            0 -1 71 -8.9894160628318787e-03</internalNodes>
          <leafValues>
            1. -6.3666123151779175e-01</leafValues></_>
        <_>
          <internalNodes>
            0 -1 18 -2.7448497712612152e-02</internalNodes>
          <leafValues>
            5.1783037185668945e-01 -6.0905838012695312e-01</leafValues></_>
        <_>
          <internalNodes>
            0 -1 69 -1.9990582950413227e-04</internalNodes>
          <leafValues>
            7.2344881296157837e-01 -4.5312827825546265e-01</leafValues></_>
        <_>
          <internalNodes>
            0 -1 50 1.3288589194417000e-02</internalNodes>
          <leafValues>
            -4.0796905755996704e-01 7.0922160148620605e-01</leafValues></_>
        <_>
          <internalNodes>
            0 -1 94 -1.6655961517244577e-03</internalNodes>
          <leafValues>
            5.9660357236862183e-01 -5.1379311084747314e-01</leafValues></_>
        <_>
          <internalNodes>
            0 -1 29 -2.2683748975396156e-03</internalNodes>
          <leafValues>
            8.0832058191299438e-01 -4.3024998903274536e-01</leafValues></_></weakClassifiers></_>
    <!-- stage 15 -->
    <_>
      <maxWeakCount>3</maxWeakCount>
      <stageThreshold>-6.9659459590911865e-01</stageThreshold>
      <weakClassifiers>
        <_>
          <internalNodes>
            0 -1 0 -1.5894759446382523e-02</internalNodes>
          <leafValues>
            1. -7.3310226202011108e-01</leafValues></_>
        <_>
          <internalNodes>
            0 -1 38 1.2305418495088816e-03</internalNodes>
          <leafValues>
            7.3246628046035767e-01 -6.2447482347488403e-01</leafValues></_>
        <_>
          <internalNodes>
            0 -1 52 1.4012211933732033e-02</internalNodes>
          <leafValues>
            -6.9595861434936523e-01 7.3457062244415283e-01</leafValues></_></weakClassifiers></_>
    <!-- stage 16 -->
    <_>
      <maxWeakCount>2</maxWeakCount>
      <stageThreshold>1.9801979884505272e-02</stageThreshold>
      <weakClassifiers>
        <_>
          <internalNodes>
            0 -1 57 -3.8276769220829010e-02</internalNodes>
          <leafValues>
            -9.8019802570343018e-01 1.</leafValues></_>
        <_>
          <internalNodes>
            0 -1 78 2.1991165704093874e-04</internalNodes>
          <leafValues>
            1. -9.4656485319137573e-01</leafValues></_></weakClassifiers></_></stages>
  <features>
    <_>
      <rects>
        <_>
          0 4 12 12 -1.</_>
        <_>
          0 4 6 6 2.</_>
        <_>
          6 10 6 6 2.</_></rects>
      <tilted>0</tilted></_>
    <_>
      <rects>
        <_>
          0 11 2 4 -1.</_>
        <_>
          1 11 1 4 2.</_></rects>
      <tilted>0</tilted></_>
    <_>
      <rects>
        <_>
          0 11 8 7 -1.</_>
        <_>
          4 11 4 7 2.</_></rects>
      <tilted>0</tilted></_>
    <_>
      <rects>
        <_>
          0 12 2 4 -1.</_>
        <_>
          1 12 1 4 2.</_></rects>
      <tilted>0</tilted></_>
    <_>
      <rects>
        <_>
          0 13 4 7 -1.</_>
        <_>
          2 13 2 7 2.</_></rects>
      <tilted>0</tilted></_>
    <_>
      <rects>
        <_>
          0 15 4 3 -1.</_>
        <_>
          2 15 2 3 2.</_></rects>
      <tilted>0</tilted></_>
    <_>
      <rects>
        <_>
          0 15 6 2 -1.</_>
        <_>
          3 15 3 2 2.</_></rects>
      <tilted>0</tilted></_>
    <_>
      <rects>
        <_>
          0 15 8 3 -1.</_>
        <_>
          4 15 4 3 2.</_></rects>
      <tilted>0</tilted></_>
    <_>
      <rects>
        <_>
          0 16 6 2 -1.</_>
        <_>
          3 16 3 2 2.</_></rects>
      <tilted>0</tilted></_>
    <_>
      <rects>
        <_>
          0 16 8 2 -1.</_>
        <_>
          4 16 4 2 2.</_></rects>
      <tilted>0</tilted></_>
    <_>
      <rects>
        <_>
          0 16 28 1 -1.</_>
        <_>
          14 16 14 1 2.</_></rects>
      <tilted>0</tilted></_>
    <_>
      <rects>
        <_>
          1 11 30 8 -1.</_>
        <_>
          1 11 15 4 2.</_>
        <_>
          16 15 15 4 2.</_></rects>
      <tilted>0</tilted></_>
    <_>
      <rects>
        <_>
          1 18 40 2 -1.</_>
        <_>
          1 19 40 1 2.</_></rects>
      <tilted>0</tilted></_>
    <_>
      <rects>
        <_>
          2 11 48 7 -1.</_>
        <_>
          26 11 24 7 2.</_></rects>
      <tilted>0</tilted></_>
    <_>
      <rects>
        <_>
          2 12 10 2 -1.</_>
        <_>
          2 12 5 1 2.</_>
        <_>
          7 13 5 1 2.</_></rects>
      <tilted>0</tilted></_>
    <_>
      <rects>
        <_>
          2 16 6 4 -1.</_>
        <_>
          5 16 3 4 2.</_></rects>
      <tilted>0</tilted></_>
    <_>
      <rects>
        <_>
          2 16 21 2 -1.</_>
        <_>
          2 17 21 1 2.</_></rects>
      <tilted>0</tilted></_>
    <_>
      <rects>
        <_>
          2 17 48 2 -1.</_>
        <_>
          14 17 24 2 2.</_></rects>
      <tilted>0</tilted></_>
    <_>
      <rects>
        <_>
          3 8 11 12 -1.</_>
        <_>
          3 11 11 6 2.</_></rects>
      <tilted>0</tilted></_>
    <_>
      <rects>
        <_>
          4 7 12 6 -1.</_>
        <_>
          4 10 12 3 2.</_></rects>
      <tilted>0</tilted></_>
    <_>
      <rects>
        <_>
          4 7 14 6 -1.</_>
        <_>
          4 10 14 3 2.</_></rects>
      <tilted>0</tilted></_>
    <_>
      <rects>
        <_>
          4 8 10 12 -1.</_>
        <_>
          4 11 10 6 2.</_></rects>
      <tilted>0</tilted></_>
    <_>
      <rects>
        <_>
          4 9 10 4 -1.</_>
        <_>
          4 11 10 2 2.</_></rects>
      <tilted>0</tilted></_>
    <_>
      <rects>
        <_>
          4 18 33 2 -1.</_>
        <_>
          4 19 33 1 2.</_></rects>
      <tilted>0</tilted></_>
    <_>
      <rects>
        <_>
          5 4 6 12 -1.</_>
        <_>
          5 8 6 4 3.</_></rects>
      <tilted>0</tilted></_>
    <_>
      <rects>
        <_>
          5 9 20 4 -1.</_>
        <_>
          5 9 10 2 2.</_>
        <_>
          15 11 10 2 2.</_></rects>
      <tilted>0</tilted></_>
    <_>
      <rects>
        <_>
          5 9 40 4 -1.</_>
        <_>
          5 11 40 2 2.</_></rects>
      <tilted>0</tilted></_>
    <_>
      <rects>
        <_>
          5 12 8 5 -1.</_>
        <_>
          7 12 4 5 2.</_></rects>
      <tilted>0</tilted></_>
    <_>
      <rects>
        <_>
          5 14 6 6 -1.</_>
        <_>
          5 14 3 3 2.</_>
        <_>
          8 17 3 3 2.</_></rects>
      <tilted>0</tilted></_>
    <_>
      <rects>
        <_>
          5 14 15 3 -1.</_>
        <_>
          10 14 5 3 3.</_></rects>
      <tilted>0</tilted></_>
    <_>
      <rects>
        <_>
          6 4 6 12 -1.</_>
        <_>
          6 8 6 4 3.</_></rects>
      <tilted>0</tilted></_>
    <_>
      <rects>
        <_>
          6 9 41 4 -1.</_>
        <_>
          6 11 41 2 2.</_></rects>
      <tilted>0</tilted></_>
    <_>
      <rects>
        <_>
          6 18 14 2 -1.</_>
        <_>
          6 19 14 1 2.</_></rects>
      <tilted>0</tilted></_>
    <_>
      <rects>
        <_>
          7 11 14 6 -1.</_>
        <_>
          7 11 7 3 2.</_>
        <_>
          14 14 7 3 2.</_></rects>
      <tilted>0</tilted></_>
    <_>
      <rects>
        <_>
          7 14 6 2 -1.</_>
        <_>
          9 14 2 2 3.</_></rects>
      <tilted>0</tilted></_>
    <_>
      <rects>
        <_>
          7 18 38 2 -1.</_>
        <_>
          7 19 38 1 2.</_></rects>
      <tilted>0</tilted></_>
    <_>
      <rects>
        <_>
          8 19 21 1 -1.</_>
        <_>
          15 19 7 1 3.</_></rects>
      <tilted>0</tilted></_>
    <_>
      <rects>
        <_>
          9 8 2 8 -1.</_>
        <_>
          9 10 2 4 2.</_></rects>
      <tilted>0</tilted></_>
    <_>
      <rects>
        <_>
          9 9 21 1 -1.</_>
        <_>
          16 9 7 1 3.</_></rects>
      <tilted>0</tilted></_>
    <_>
      <rects>
        <_>
          9 11 6 4 -1.</_>
        <_>
          9 11 3 2 2.</_>
        <_>
          12 13 3 2 2.</_></rects>
      <tilted>0</tilted></_>
    <_>
      <rects>
        <_>
          9 11 8 6 -1.</_>
        <_>
          9 11 4 3 2.</_>
        <_>
          13 14 4 3 2.</_></rects>
      <tilted>0</tilted></_>
    <_>
      <rects>
        <_>
          9 13 8 5 -1.</_>
        <_>
          11 13 4 5 2.</_></rects>
      <tilted>0</tilted></_>
    <_>
      <rects>
        <_>
          10 0 18 10 -1.</_>
        <_>
          10 0 9 5 2.</_>
        <_>
          19 5 9 5 2.</_></rects>
      <tilted>0</tilted></_>
    <_>
      <rects>
        <_>
          10 12 4 7 -1.</_>
        <_>
          11 12 2 7 2.</_></rects>
      <tilted>0</tilted></_>
    <_>
      <rects>
        <_>
          10 14 8 3 -1.</_>
        <_>
          12 14 4 3 2.</_></rects>
      <tilted>0</tilted></_>
    <_>
      <rects>
        <_>
          12 16 22 3 -1.</_>
        <_>
          12 17 22 1 3.</_></rects>
      <tilted>0</tilted></_>
    <_>
      <rects>
        <_>
          13 7 33 4 -1.</_>
        <_>
          13 8 33 2 2.</_></rects>
      <tilted>0</tilted></_>
    <_>
      <rects>
        <_>
          13 12 16 1 -1.</_>
        <_>
          21 12 8 1 2.</_></rects>
      <tilted>0</tilted></_>
    <_>
      <rects>
        <_>
          14 18 26 2 -1.</_>
        <_>
          14 19 26 1 2.</_></rects>
      <tilted>0</tilted></_>
    <_>
      <rects>
        <_>
          15 11 9 5 -1.</_>
        <_>
          18 11 3 5 3.</_></rects>
      <tilted>0</tilted></_>
    <_>
      <rects>
        <_>
          16 12 28 6 -1.</_>
        <_>
          16 12 14 3 2.</_>
        <_>
          30 15 14 3 2.</_></rects>
      <tilted>0</tilted></_>
    <_>
      <rects>
        <_>
          16 14 9 1 -1.</_>
        <_>
          19 14 3 1 3.</_></rects>
      <tilted>0</tilted></_>
    <_>
      <rects>
        <_>
          17 12 28 6 -1.</_>
        <_>
          17 12 14 3 2.</_>
        <_>
          31 15 14 3 2.</_></rects>
      <tilted>0</tilted></_>
    <_>
      <rects>
        <_>
          18 6 19 12 -1.</_>
        <_>
          18 9 19 6 2.</_></rects>
      <tilted>0</tilted></_>
    <_>
      <rects>
        <_>
          18 14 5 6 -1.</_>
        <_>
          18 16 5 2 3.</_></rects>
      <tilted>0</tilted></_>
    <_>
      <rects>
        <_>
          19 11 15 8 -1.</_>
        <_>
          24 11 5 8 3.</_></rects>
      <tilted>0</tilted></_>
    <_>
      <rects>
        <_>
          19 14 12 1 -1.</_>
        <_>
          22 14 6 1 2.</_></rects>
      <tilted>0</tilted></_>
    <_>
      <rects>
        <_>
          20 7 24 8 -1.</_>
        <_>
          26 7 12 8 2.</_></rects>
      <tilted>0</tilted></_>
    <_>
      <rects>
        <_>
          20 11 2 4 -1.</_>
        <_>
          20 11 1 2 2.</_>
        <_>
          21 13 1 2 2.</_></rects>
      <tilted>0</tilted></_>
    <_>
      <rects>
        <_>
          20 13 8 3 -1.</_>
        <_>
          22 13 4 3 2.</_></rects>
      <tilted>0</tilted></_>
    <_>
      <rects>
        <_>
          20 13 9 3 -1.</_>
        <_>
          23 13 3 3 3.</_></rects>
      <tilted>0</tilted></_>
    <_>
      <rects>
        <_>
          21 6 24 10 -1.</_>
        <_>
          21 6 12 5 2.</_>
        <_>
          33 11 12 5 2.</_></rects>
      <tilted>0</tilted></_>
    <_>
      <rects>
        <_>
          21 14 4 1 -1.</_>
        <_>
          23 14 2 1 2.</_></rects>
      <tilted>0</tilted></_>
    <_>
      <rects>
        <_>
          22 10 4 8 -1.</_>
        <_>
          24 10 2 8 2.</_></rects>
      <tilted>0</tilted></_>
    <_>
      <rects>
        <_>
          23 10 10 6 -1.</_>
        <_>
          23 10 5 3 2.</_>
        <_>
          28 13 5 3 2.</_></rects>
      <tilted>0</tilted></_>
    <_>
      <rects>
        <_>
          23 17 6 2 -1.</_>
        <_>
          25 17 2 2 3.</_></rects>
      <tilted>0</tilted></_>
    <_>
      <rects>
        <_>
          23 17 27 3 -1.</_>
        <_>
          32 18 9 1 9.</_></rects>
      <tilted>0</tilted></_>
    <_>
      <rects>
        <_>
          26 16 4 4 -1.</_>
        <_>
          27 16 2 4 2.</_></rects>
      <tilted>0</tilted></_>
    <_>
      <rects>
        <_>
          27 12 16 6 -1.</_>
        <_>
          27 12 8 3 2.</_>
        <_>
          35 15 8 3 2.</_></rects>
      <tilted>0</tilted></_>
    <_>
      <rects>
        <_>
          28 6 2 2 -1.</_>
        <_>
          28 7 2 1 2.</_></rects>
      <tilted>0</tilted></_>
    <_>
      <rects>
        <_>
          29 12 14 4 -1.</_>
        <_>
          29 12 7 2 2.</_>
        <_>
          36 14 7 2 2.</_></rects>
      <tilted>0</tilted></_>
    <_>
      <rects>
        <_>
          30 12 20 1 -1.</_>
        <_>
          35 12 10 1 2.</_></rects>
      <tilted>0</tilted></_>
    <_>
      <rects>
        <_>
          30 12 20 2 -1.</_>
        <_>
          35 12 10 2 2.</_></rects>
      <tilted>0</tilted></_>
    <_>
      <rects>
        <_>
          30 17 12 3 -1.</_>
        <_>
          34 18 4 1 9.</_></rects>
      <tilted>0</tilted></_>
    <_>
      <rects>
        <_>
          31 3 18 12 -1.</_>
        <_>
          31 6 18 6 2.</_></rects>
      <tilted>0</tilted></_>
    <_>
      <rects>
        <_>
          32 3 6 16 -1.</_>
        <_>
          32 11 6 8 2.</_></rects>
      <tilted>0</tilted></_>
    <_>
      <rects>
        <_>
          32 14 8 4 -1.</_>
        <_>
          34 14 4 4 2.</_></rects>
      <tilted>0</tilted></_>
    <_>
      <rects>
        <_>
          33 12 8 4 -1.</_>
        <_>
          33 12 4 2 2.</_>
        <_>
          37 14 4 2 2.</_></rects>
      <tilted>0</tilted></_>
    <_>
      <rects>
        <_>
          33 19 2 1 -1.</_>
        <_>
          34 19 1 1 2.</_></rects>
      <tilted>0</tilted></_>
    <_>
      <rects>
        <_>
          36 11 10 6 -1.</_>
        <_>
          36 11 5 3 2.</_>
        <_>
          41 14 5 3 2.</_></rects>
      <tilted>0</tilted></_>
    <_>
      <rects>
        <_>
          36 12 12 4 -1.</_>
        <_>
          36 12 6 2 2.</_>
        <_>
          42 14 6 2 2.</_></rects>
      <tilted>0</tilted></_>
    <_>
      <rects>
        <_>
          37 12 10 4 -1.</_>
        <_>
          37 12 5 2 2.</_>
        <_>
          42 14 5 2 2.</_></rects>
      <tilted>0</tilted></_>
    <_>
      <rects>
        <_>
          37 13 4 5 -1.</_>
        <_>
          38 13 2 5 2.</_></rects>
      <tilted>0</tilted></_>
    <_>
      <rects>
        <_>
          37 14 9 5 -1.</_>
        <_>
          40 14 3 5 3.</_></rects>
      <tilted>0</tilted></_>
    <_>
      <rects>
        <_>
          38 7 4 8 -1.</_>
        <_>
          38 11 4 4 2.</_></rects>
      <tilted>0</tilted></_>
    <_>
      <rects>
        <_>
          39 2 4 15 -1.</_>
        <_>
          39 7 4 5 3.</_></rects>
      <tilted>0</tilted></_>
    <_>
      <rects>
        <_>
          40 6 10 10 -1.</_>
        <_>
          40 6 5 5 2.</_>
        <_>
          45 11 5 5 2.</_></rects>
      <tilted>0</tilted></_>
    <_>
      <rects>
        <_>
          40 11 2 4 -1.</_>
        <_>
          40 11 1 2 2.</_>
        <_>
          41 13 1 2 2.</_></rects>
      <tilted>0</tilted></_>
    <_>
      <rects>
        <_>
          40 17 10 2 -1.</_>
        <_>
          45 17 5 2 2.</_></rects>
      <tilted>0</tilted></_>
    <_>
      <rects>
        <_>
          40 17 10 3 -1.</_>
        <_>
          45 17 5 3 2.</_></rects>
      <tilted>0</tilted></_>
    <_>
      <rects>
        <_>
          41 14 8 5 -1.</_>
        <_>
          45 14 4 5 2.</_></rects>
      <tilted>0</tilted></_>
    <_>
      <rects>
        <_>
          42 5 8 12 -1.</_>
        <_>
          42 5 4 6 2.</_>
        <_>
          46 11 4 6 2.</_></rects>
      <tilted>0</tilted></_>
    <_>
      <rects>
        <_>
          44 5 6 12 -1.</_>
        <_>
          44 5 3 6 2.</_>
        <_>
          47 11 3 6 2.</_></rects>
      <tilted>0</tilted></_>
    <_>
      <rects>
        <_>
          44 14 6 6 -1.</_>
        <_>
          47 14 3 6 2.</_></rects>
      <tilted>0</tilted></_>
    <_>
      <rects>
        <_>
          46 10 3 9 -1.</_>
        <_>
          46 13 3 3 3.</_></rects>
      <tilted>0</tilted></_>
    <_>
      <rects>
        <_>
          46 16 4 4 -1.</_>
        <_>
          48 16 2 4 2.</_></rects>
      <tilted>0</tilted></_>
    <_>
      <rects>
        <_>
          48 11 2 9 -1.</_>
        <_>
          49 11 1 9 2.</_></rects>
      <tilted>0</tilted></_>
    <_>
      <rects>
        <_>
          48 13 2 4 -1.</_>
        <_>
          49 13 1 4 2.</_></rects>
      <tilted>0</tilted></_></features></cascade>
</opencv_storage>
