<?xml version="1.0"?>
<opencv_storage>
<cascade>
  <stageType>BOOST</stageType>
  <featureType>HAAR</featureType>
  <height>10</height>
  <width>25</width>
  <stageParams>
    <boostType>GAB</boostType>
    <minHitRate>9.9500000476837158e-01</minHitRate>
    <maxFalseAlarm>5.0000000000000000e-01</maxFalseAlarm>
    <weightTrimRate>9.4999999999999996e-01</weightTrimRate>
    <maxDepth>1</maxDepth>
    <maxWeakCount>100</maxWeakCount></stageParams>
  <featureParams>
    <maxCatCount>0</maxCatCount>
    <featSize>1</featSize>
    <mode>CORE</mode></featureParams>
  <stageNum>20</stageNum>
  <stages>
    <!-- stage 0 -->
    <_>
      <maxWeakCount>6</maxWeakCount>
      <stageThreshold>-8.1545966863632202e-01</stageThreshold>
      <weakClassifiers>
        <_>
          <internalNodes>
            0 -1 27 -1.6171868890523911e-02</internalNodes>
          <leafValues>
            7.3626375198364258e-01 -6.1467891931533813e-01</leafValues></_>
        <_>
          <internalNodes>
            0 -1 5 9.7034931182861328e-02</internalNodes>
          <leafValues>
            -4.3095538020133972e-01 9.0488785505294800e-01</leafValues></_>
        <_>
          <internalNodes>
            0 -1 123 1.0377662256360054e-02</internalNodes>
          <leafValues>
            -5.6131213903427124e-01 6.8956613540649414e-01</leafValues></_>
        <_>
          <internalNodes>
            0 -1 10 -1.8482632935047150e-02</internalNodes>
          <leafValues>
            7.4337327480316162e-01 -5.5367779731750488e-01</leafValues></_>
        <_>
          <internalNodes>
            0 -1 7 -6.9905355572700500e-02</internalNodes>
          <leafValues>
            4.9541044235229492e-01 -6.5630787611007690e-01</leafValues></_>
        <_>
          <internalNodes>
            0 -1 105 2.9724884778261185e-02</internalNodes>
          <leafValues>
            -3.6793237924575806e-01 8.4975415468215942e-01</leafValues></_></weakClassifiers></_>
    <!-- stage 1 -->
    <_>
      <maxWeakCount>6</maxWeakCount>
      <stageThreshold>-8.6293423175811768e-01</stageThreshold>
      <weakClassifiers>
        <_>
          <internalNodes>
            0 -1 32 6.0924079269170761e-02</internalNodes>
          <leafValues>
            -4.9193549156188965e-01 8.0263155698776245e-01</leafValues></_>
        <_>
          <internalNodes>
            0 -1 12 -2.1198675967752934e-03</internalNodes>
          <leafValues>
            5.8842796087265015e-01 -5.8489531278610229e-01</leafValues></_>
        <_>
          <internalNodes>
            0 -1 15 -8.5228309035301208e-02</internalNodes>
          <leafValues>
            8.8428723812103271e-01 -4.0947085618972778e-01</leafValues></_>
        <_>
          <internalNodes>
            0 -1 82 2.2636838257312775e-03</internalNodes>
          <leafValues>
            3.7374922633171082e-01 -8.9407610893249512e-01</leafValues></_>
        <_>
          <internalNodes>
            0 -1 114 2.1825996227562428e-03</internalNodes>
          <leafValues>
            -4.5498162508010864e-01 6.4448785781860352e-01</leafValues></_>
        <_>
          <internalNodes>
            0 -1 111 6.0384407639503479e-02</internalNodes>
          <leafValues>
            -3.9486962556838989e-01 8.1550103425979614e-01</leafValues></_></weakClassifiers></_>
    <!-- stage 2 -->
    <_>
      <maxWeakCount>5</maxWeakCount>
      <stageThreshold>-8.8227528333663940e-01</stageThreshold>
      <weakClassifiers>
        <_>
          <internalNodes>
            0 -1 51 -5.6749250739812851e-02</internalNodes>
          <leafValues>
            8.2945734262466431e-01 -3.9483395218849182e-01</leafValues></_>
        <_>
          <internalNodes>
            0 -1 45 -8.5739139467477798e-03</internalNodes>
          <leafValues>
            6.8796288967132568e-01 -5.0113970041275024e-01</leafValues></_>
        <_>
          <internalNodes>
            0 -1 122 1.6485307365655899e-02</internalNodes>
          <leafValues>
            -5.2244335412979126e-01 5.1322650909423828e-01</leafValues></_>
        <_>
          <internalNodes>
            0 -1 17 2.0702439360320568e-03</internalNodes>
          <leafValues>
            3.4438103437423706e-01 -8.4321492910385132e-01</leafValues></_>
        <_>
          <internalNodes>
            0 -1 71 -8.5020698606967926e-03</internalNodes>
          <leafValues>
            -8.8060450553894043e-01 2.6904079318046570e-01</leafValues></_></weakClassifiers></_>
    <!-- stage 3 -->
    <_>
      <maxWeakCount>7</maxWeakCount>
      <stageThreshold>-9.5157331228256226e-01</stageThreshold>
      <weakClassifiers>
        <_>
          <internalNodes>
            0 -1 63 -2.8865223750472069e-02</internalNodes>
          <leafValues>
            5.5789476633071899e-01 -5.0476193428039551e-01</leafValues></_>
        <_>
          <internalNodes>
            0 -1 44 1.9753291271626949e-03</internalNodes>
          <leafValues>
            -6.0805571079254150e-01 4.6870756149291992e-01</leafValues></_>
        <_>
          <internalNodes>
            0 -1 112 3.8432564586400986e-02</internalNodes>
          <leafValues>
            -4.6496781706809998e-01 6.1032545566558838e-01</leafValues></_>
        <_>
          <internalNodes>
            0 -1 16 -4.2980141006410122e-03</internalNodes>
          <leafValues>
            4.2488595843315125e-01 -5.9057116508483887e-01</leafValues></_>
        <_>
          <internalNodes>
            0 -1 127 -2.3263212642632425e-04</internalNodes>
          <leafValues>
            -8.2870346307754517e-01 3.3675438165664673e-01</leafValues></_>
        <_>
          <internalNodes>
            0 -1 18 9.0096801519393921e-02</internalNodes>
          <leafValues>
            -4.3037787079811096e-01 7.3327320814132690e-01</leafValues></_>
        <_>
          <internalNodes>
            0 -1 83 -6.5872883424162865e-03</internalNodes>
          <leafValues>
            -7.6564550399780273e-01 3.9775091409683228e-01</leafValues></_></weakClassifiers></_>
    <!-- stage 4 -->
    <_>
      <maxWeakCount>5</maxWeakCount>
      <stageThreshold>-1.2315890789031982e+00</stageThreshold>
      <weakClassifiers>
        <_>
          <internalNodes>
            0 -1 55 -1.3842624612152576e-02</internalNodes>
          <leafValues>
            5.8659219741821289e-01 -4.7511312365531921e-01</leafValues></_>
        <_>
          <internalNodes>
            0 -1 93 -3.6589238792657852e-02</internalNodes>
          <leafValues>
            8.1842213869094849e-01 -2.9655399918556213e-01</leafValues></_>
        <_>
          <internalNodes>
            0 -1 126 3.2045484986156225e-03</internalNodes>
          <leafValues>
            -6.0183638334274292e-01 5.2668613195419312e-01</leafValues></_>
        <_>
          <internalNodes>
            0 -1 53 -8.0191940069198608e-03</internalNodes>
          <leafValues>
            4.0718141198158264e-01 -6.5330314636230469e-01</leafValues></_>
        <_>
          <internalNodes>
            0 -1 101 -7.4182022362947464e-03</internalNodes>
          <leafValues>
            7.4686664342880249e-01 -3.1975856423377991e-01</leafValues></_></weakClassifiers></_>
    <!-- stage 5 -->
    <_>
      <maxWeakCount>5</maxWeakCount>
      <stageThreshold>-5.6812715530395508e-01</stageThreshold>
      <weakClassifiers>
        <_>
          <internalNodes>
            0 -1 108 -7.1249906904995441e-03</internalNodes>
          <leafValues>
            5.6382977962493896e-01 -5.0000000000000000e-01</leafValues></_>
        <_>
          <internalNodes>
            0 -1 47 4.0500904433429241e-03</internalNodes>
          <leafValues>
            -3.1978291273117065e-01 7.7427858114242554e-01</leafValues></_>
        <_>
          <internalNodes>
            0 -1 97 2.5485949590802193e-03</internalNodes>
          <leafValues>
            3.2950299978256226e-01 -8.6604380607604980e-01</leafValues></_>
        <_>
          <internalNodes>
            0 -1 48 -5.9952503070235252e-03</internalNodes>
          <leafValues>
            8.4718990325927734e-01 -2.7535685896873474e-01</leafValues></_>
        <_>
          <internalNodes>
            0 -1 61 -3.1282748095691204e-03</internalNodes>
          <leafValues>
            -8.6632013320922852e-01 2.7374258637428284e-01</leafValues></_></weakClassifiers></_>
    <!-- stage 6 -->
    <_>
      <maxWeakCount>9</maxWeakCount>
      <stageThreshold>-6.3679957389831543e-01</stageThreshold>
      <weakClassifiers>
        <_>
          <internalNodes>
            0 -1 68 4.6511944383382797e-03</internalNodes>
          <leafValues>
            -5.8139532804489136e-01 4.3859648704528809e-01</leafValues></_>
        <_>
          <internalNodes>
            0 -1 94 -1.9087684340775013e-03</internalNodes>
          <leafValues>
            -7.1922051906585693e-01 2.4602940678596497e-01</leafValues></_>
        <_>
          <internalNodes>
            0 -1 95 -9.3895784812048078e-04</internalNodes>
          <leafValues>
            -4.9510517716407776e-01 3.9171725511550903e-01</leafValues></_>
        <_>
          <internalNodes>
            0 -1 110 9.2162983492016792e-03</internalNodes>
          <leafValues>
            -3.4215450286865234e-01 6.3563370704650879e-01</leafValues></_>
        <_>
          <internalNodes>
            0 -1 80 2.0807813853025436e-02</internalNodes>
          <leafValues>
            -4.0031337738037109e-01 5.1400458812713623e-01</leafValues></_>
        <_>
          <internalNodes>
            0 -1 4 -1.9531470537185669e-01</internalNodes>
          <leafValues>
            4.4379106163978577e-01 -4.7728967666625977e-01</leafValues></_>
        <_>
          <internalNodes>
            0 -1 13 -7.7905005309730768e-04</internalNodes>
          <leafValues>
            2.7788639068603516e-01 -5.9826499223709106e-01</leafValues></_>
        <_>
          <internalNodes>
            0 -1 59 -3.0540414154529572e-02</internalNodes>
          <leafValues>
            5.3630572557449341e-01 -3.5737556219100952e-01</leafValues></_>
        <_>
          <internalNodes>
            0 -1 19 -1.7043554782867432e-01</internalNodes>
          <leafValues>
            7.7607828378677368e-01 -2.3665352165699005e-01</leafValues></_></weakClassifiers></_>
    <!-- stage 7 -->
    <_>
      <maxWeakCount>7</maxWeakCount>
      <stageThreshold>-9.7587078809738159e-01</stageThreshold>
      <weakClassifiers>
        <_>
          <internalNodes>
            0 -1 49 -1.0058669373393059e-02</internalNodes>
          <leafValues>
            5.8227849006652832e-01 -3.8016527891159058e-01</leafValues></_>
        <_>
          <internalNodes>
            0 -1 122 1.6607865691184998e-02</internalNodes>
          <leafValues>
            -5.1563924551010132e-01 4.6380805969238281e-01</leafValues></_>
        <_>
          <internalNodes>
            0 -1 57 -7.5868561863899231e-02</internalNodes>
          <leafValues>
            6.5223455429077148e-01 -3.4385141730308533e-01</leafValues></_>
        <_>
          <internalNodes>
            0 -1 107 -1.1704117059707642e-02</internalNodes>
          <leafValues>
            4.1568970680236816e-01 -5.3865182399749756e-01</leafValues></_>
        <_>
          <internalNodes>
            0 -1 70 3.4817163832485676e-03</internalNodes>
          <leafValues>
            2.1162353456020355e-01 -8.8610130548477173e-01</leafValues></_>
        <_>
          <internalNodes>
            0 -1 75 -5.4747033864259720e-03</internalNodes>
          <leafValues>
            -8.7266182899475098e-01 2.2846430540084839e-01</leafValues></_>
        <_>
          <internalNodes>
            0 -1 21 6.5348157659173012e-03</internalNodes>
          <leafValues>
            -4.5331007242202759e-01 4.8597583174705505e-01</leafValues></_></weakClassifiers></_>
    <!-- stage 8 -->
    <_>
      <maxWeakCount>10</maxWeakCount>
      <stageThreshold>-9.2071843147277832e-01</stageThreshold>
      <weakClassifiers>
        <_>
          <internalNodes>
            0 -1 99 6.0746418312191963e-03</internalNodes>
          <leafValues>
            -5.0000000000000000e-01 4.6153846383094788e-01</leafValues></_>
        <_>
          <internalNodes>
            0 -1 119 1.4722777996212244e-03</internalNodes>
          <leafValues>
            -6.6242682933807373e-01 3.0639070272445679e-01</leafValues></_>
        <_>
          <internalNodes>
            0 -1 14 -4.9930207431316376e-02</internalNodes>
          <leafValues>
            5.7189691066741943e-01 -3.6262008547782898e-01</leafValues></_>
        <_>
          <internalNodes>
            0 -1 0 -2.6094000786542892e-02</internalNodes>
          <leafValues>
            5.4027533531188965e-01 -3.4543463587760925e-01</leafValues></_>
        <_>
          <internalNodes>
            0 -1 98 4.2671885341405869e-02</internalNodes>
          <leafValues>
            -3.5114225745201111e-01 6.3717919588088989e-01</leafValues></_>
        <_>
          <internalNodes>
            0 -1 65 -1.6007755184546113e-03</internalNodes>
          <leafValues>
            -8.4926640987396240e-01 2.2699478268623352e-01</leafValues></_>
        <_>
          <internalNodes>
            0 -1 124 -1.1587521061301231e-02</internalNodes>
          <leafValues>
            6.2903088331222534e-01 -3.4959346055984497e-01</leafValues></_>
        <_>
          <internalNodes>
            0 -1 66 -3.9789630100131035e-03</internalNodes>
          <leafValues>
            -9.2793452739715576e-01 2.1441130340099335e-01</leafValues></_>
        <_>
          <internalNodes>
            0 -1 52 -5.6451046839356422e-03</internalNodes>
          <leafValues>
            4.7089153528213501e-01 -4.2316365242004395e-01</leafValues></_>
        <_>
          <internalNodes>
            0 -1 22 -1.0074043646454811e-02</internalNodes>
          <leafValues>
            6.9773942232131958e-01 -3.8461020588874817e-01</leafValues></_></weakClassifiers></_>
    <!-- stage 9 -->
    <_>
      <maxWeakCount>10</maxWeakCount>
      <stageThreshold>-1.2304445505142212e+00</stageThreshold>
      <weakClassifiers>
        <_>
          <internalNodes>
            0 -1 40 -2.1948752924799919e-02</internalNodes>
          <leafValues>
            7.0967739820480347e-01 -3.1884059309959412e-01</leafValues></_>
        <_>
          <internalNodes>
            0 -1 88 7.0413982030004263e-04</internalNodes>
          <leafValues>
            3.1629255414009094e-01 -6.1996322870254517e-01</leafValues></_>
        <_>
          <internalNodes>
            0 -1 26 3.2888883352279663e-01</internalNodes>
          <leafValues>
            -2.7348288893699646e-01 6.9044029712677002e-01</leafValues></_>
        <_>
          <internalNodes>
            0 -1 87 -1.9046701490879059e-03</internalNodes>
          <leafValues>
            -8.8376826047897339e-01 2.1732653677463531e-01</leafValues></_>
        <_>
          <internalNodes>
            0 -1 118 -2.9812632128596306e-03</internalNodes>
          <leafValues>
            4.3832159042358398e-01 -4.3932235240936279e-01</leafValues></_>
        <_>
          <internalNodes>
            0 -1 6 -7.6487516053020954e-03</internalNodes>
          <leafValues>
            7.2768998146057129e-01 -2.4419374763965607e-01</leafValues></_>
        <_>
          <internalNodes>
            0 -1 84 -1.1173720704391599e-03</internalNodes>
          <leafValues>
            -6.4079117774963379e-01 2.8761145472526550e-01</leafValues></_>
        <_>
          <internalNodes>
            0 -1 46 -3.2701357267796993e-03</internalNodes>
          <leafValues>
            3.0167040228843689e-01 -5.6049752235412598e-01</leafValues></_>
        <_>
          <internalNodes>
            0 -1 62 1.6746535897254944e-02</internalNodes>
          <leafValues>
            -3.2602298259735107e-01 5.2044105529785156e-01</leafValues></_>
        <_>
          <internalNodes>
            0 -1 81 1.3011684641242027e-03</internalNodes>
          <leafValues>
            2.7247500419616699e-01 -7.0517235994338989e-01</leafValues></_></weakClassifiers></_>
    <!-- stage 10 -->
    <_>
      <maxWeakCount>7</maxWeakCount>
      <stageThreshold>-8.4906077384948730e-01</stageThreshold>
      <weakClassifiers>
        <_>
          <internalNodes>
            0 -1 42 -1.0471306741237640e-02</internalNodes>
          <leafValues>
            4.1228070855140686e-01 -5.4651165008544922e-01</leafValues></_>
        <_>
          <internalNodes>
            0 -1 89 -2.5546276010572910e-03</internalNodes>
          <leafValues>
            -6.1856126785278320e-01 2.7821958065032959e-01</leafValues></_>
        <_>
          <internalNodes>
            0 -1 34 -3.9109595119953156e-02</internalNodes>
          <leafValues>
            -6.6087210178375244e-01 2.5921782851219177e-01</leafValues></_>
        <_>
          <internalNodes>
            0 -1 72 5.8411934878677130e-04</internalNodes>
          <leafValues>
            2.2780224680900574e-01 -7.6999443769454956e-01</leafValues></_>
        <_>
          <internalNodes>
            0 -1 28 1.0063624009490013e-02</internalNodes>
          <leafValues>
            -2.7868852019309998e-01 6.7299246788024902e-01</leafValues></_>
        <_>
          <internalNodes>
            0 -1 115 3.8385381922125816e-03</internalNodes>
          <leafValues>
            -5.1191586256027222e-01 3.5407602787017822e-01</leafValues></_>
        <_>
          <internalNodes>
            0 -1 103 -5.7123363949358463e-03</internalNodes>
          <leafValues>
            9.1474062204360962e-01 -2.2308640182018280e-01</leafValues></_></weakClassifiers></_>
    <!-- stage 11 -->
    <_>
      <maxWeakCount>10</maxWeakCount>
      <stageThreshold>-7.2830396890640259e-01</stageThreshold>
      <weakClassifiers>
        <_>
          <internalNodes>
            0 -1 109 8.0964546650648117e-03</internalNodes>
          <leafValues>
            -2.5850340723991394e-01 7.1698111295700073e-01</leafValues></_>
        <_>
          <internalNodes>
            0 -1 96 -2.6602912694215775e-03</internalNodes>
          <leafValues>
            4.6230086684226990e-01 -4.0147858858108521e-01</leafValues></_>
        <_>
          <internalNodes>
            0 -1 35 -8.4318043664097786e-03</internalNodes>
          <leafValues>
            3.3266755938529968e-01 -5.5882436037063599e-01</leafValues></_>
        <_>
          <internalNodes>
            0 -1 78 -1.1638670694082975e-03</internalNodes>
          <leafValues>
            -7.3436141014099121e-01 2.6274162530899048e-01</leafValues></_>
        <_>
          <internalNodes>
            0 -1 116 2.3905642330646515e-02</internalNodes>
          <leafValues>
            -3.7596043944358826e-01 4.3766909837722778e-01</leafValues></_>
        <_>
          <internalNodes>
            0 -1 8 -1.5657207369804382e-01</internalNodes>
          <leafValues>
            -7.4522453546524048e-01 2.5090101361274719e-01</leafValues></_>
        <_>
          <internalNodes>
            0 -1 3 -2.1310481429100037e-01</internalNodes>
          <leafValues>
            5.8755785226821899e-01 -3.3513426780700684e-01</leafValues></_>
        <_>
          <internalNodes>
            0 -1 29 -4.9009528011083603e-03</internalNodes>
          <leafValues>
            4.7519150376319885e-01 -3.0241674184799194e-01</leafValues></_>
        <_>
          <internalNodes>
            0 -1 56 8.3278445526957512e-03</internalNodes>
          <leafValues>
            -2.0736612379550934e-01 8.5022068023681641e-01</leafValues></_>
        <_>
          <internalNodes>
            0 -1 50 -8.1626065075397491e-03</internalNodes>
          <leafValues>
            4.5851874351501465e-01 -3.5462975502014160e-01</leafValues></_></weakClassifiers></_>
    <!-- stage 12 -->
    <_>
      <maxWeakCount>7</maxWeakCount>
      <stageThreshold>-7.9042840003967285e-01</stageThreshold>
      <weakClassifiers>
        <_>
          <internalNodes>
            0 -1 67 3.7522066850215197e-03</internalNodes>
          <leafValues>
            2.3684211075305939e-01 -7.5000000000000000e-01</leafValues></_>
        <_>
          <internalNodes>
            0 -1 33 -1.7086511477828026e-02</internalNodes>
          <leafValues>
            4.4009441137313843e-01 -4.0552473068237305e-01</leafValues></_>
        <_>
          <internalNodes>
            0 -1 20 9.3806229531764984e-02</internalNodes>
          <leafValues>
            -2.3887048661708832e-01 6.7617428302764893e-01</leafValues></_>
        <_>
          <internalNodes>
            0 -1 101 -9.5525272190570831e-03</internalNodes>
          <leafValues>
            6.5290778875350952e-01 -2.2259639203548431e-01</leafValues></_>
        <_>
          <internalNodes>
            0 -1 102 4.8968312330543995e-03</internalNodes>
          <leafValues>
            -2.3686406016349792e-01 7.5931572914123535e-01</leafValues></_>
        <_>
          <internalNodes>
            0 -1 9 -9.9906732793897390e-04</internalNodes>
          <leafValues>
            4.1287305951118469e-01 -3.9030888676643372e-01</leafValues></_>
        <_>
          <internalNodes>
            0 -1 92 -2.7064124587923288e-03</internalNodes>
          <leafValues>
            5.7823199033737183e-01 -2.7641308307647705e-01</leafValues></_></weakClassifiers></_>
    <!-- stage 13 -->
    <_>
      <maxWeakCount>6</maxWeakCount>
      <stageThreshold>-7.6591163873672485e-01</stageThreshold>
      <weakClassifiers>
        <_>
          <internalNodes>
            0 -1 30 3.1663735862821341e-03</internalNodes>
          <leafValues>
            2.7737227082252502e-01 -6.0317462682723999e-01</leafValues></_>
        <_>
          <internalNodes>
            0 -1 56 -9.2549528926610947e-03</internalNodes>
          <leafValues>
            7.3616248369216919e-01 -3.0265110731124878e-01</leafValues></_>
        <_>
          <internalNodes>
            0 -1 100 3.6366514395922422e-03</internalNodes>
          <leafValues>
            -4.1121676564216614e-01 4.6430820226669312e-01</leafValues></_>
        <_>
          <internalNodes>
            0 -1 54 -1.7578583210706711e-02</internalNodes>
          <leafValues>
            7.2589290142059326e-01 -2.8619447350502014e-01</leafValues></_>
        <_>
          <internalNodes>
            0 -1 77 -6.4622127683833241e-04</internalNodes>
          <leafValues>
            -8.0377864837646484e-01 3.4184345602989197e-01</leafValues></_>
        <_>
          <internalNodes>
            0 -1 56 3.3988398499786854e-03</internalNodes>
          <leafValues>
            -3.8004311919212341e-01 5.8192658424377441e-01</leafValues></_></weakClassifiers></_>
    <!-- stage 14 -->
    <_>
      <maxWeakCount>9</maxWeakCount>
      <stageThreshold>-7.1106332540512085e-01</stageThreshold>
      <weakClassifiers>
        <_>
          <internalNodes>
            0 -1 23 -5.5172003339976072e-04</internalNodes>
          <leafValues>
            2.6573425531387329e-01 -6.6666668653488159e-01</leafValues></_>
        <_>
          <internalNodes>
            0 -1 43 3.3275485038757324e-03</internalNodes>
          <leafValues>
            -3.9930197596549988e-01 4.2048242688179016e-01</leafValues></_>
        <_>
          <internalNodes>
            0 -1 36 5.2526272833347321e-02</internalNodes>
          <leafValues>
            -2.7269339561462402e-01 6.2642484903335571e-01</leafValues></_>
        <_>
          <internalNodes>
            0 -1 106 -2.4508606642484665e-02</internalNodes>
          <leafValues>
            5.9431713819503784e-01 -2.6639524102210999e-01</leafValues></_>
        <_>
          <internalNodes>
            0 -1 104 -7.7328816056251526e-02</internalNodes>
          <leafValues>
            9.3924510478973389e-01 -1.5516723692417145e-01</leafValues></_>
        <_>
          <internalNodes>
            0 -1 38 9.6640577539801598e-03</internalNodes>
          <leafValues>
            -2.9052302241325378e-01 5.4579085111618042e-01</leafValues></_>
        <_>
          <internalNodes>
            0 -1 64 -1.2401163112372160e-03</internalNodes>
          <leafValues>
            -8.8231009244918823e-01 1.6650973260402679e-01</leafValues></_>
        <_>
          <internalNodes>
            0 -1 25 5.7287989184260368e-03</internalNodes>
          <leafValues>
            1.9629736244678497e-01 -7.6471155881881714e-01</leafValues></_>
        <_>
          <internalNodes>
            0 -1 12 -1.8673297017812729e-03</internalNodes>
          <leafValues>
            2.5181394815444946e-01 -5.7892459630966187e-01</leafValues></_></weakClassifiers></_>
    <!-- stage 15 -->
    <_>
      <maxWeakCount>10</maxWeakCount>
      <stageThreshold>-1.1835558414459229e+00</stageThreshold>
      <weakClassifiers>
        <_>
          <internalNodes>
            0 -1 113 -2.9525861144065857e-02</internalNodes>
          <leafValues>
            6.4705884456634521e-01 -2.7402135729789734e-01</leafValues></_>
        <_>
          <internalNodes>
            0 -1 41 -1.6773656010627747e-02</internalNodes>
          <leafValues>
            5.5855554342269897e-01 -3.9033955335617065e-01</leafValues></_>
        <_>
          <internalNodes>
            0 -1 120 -3.9517669938504696e-03</internalNodes>
          <leafValues>
            6.7146462202072144e-01 -3.3506551384925842e-01</leafValues></_>
        <_>
          <internalNodes>
            0 -1 2 5.5378861725330353e-03</internalNodes>
          <leafValues>
            -3.3161652088165283e-01 6.0889375209808350e-01</leafValues></_>
        <_>
          <internalNodes>
            0 -1 86 1.6232974827289581e-02</internalNodes>
          <leafValues>
            -3.8878998160362244e-01 5.3195065259933472e-01</leafValues></_>
        <_>
          <internalNodes>
            0 -1 58 -9.9950167350471020e-04</internalNodes>
          <leafValues>
            5.4310238361358643e-01 -3.2133069634437561e-01</leafValues></_>
        <_>
          <internalNodes>
            0 -1 76 -4.7047156840562820e-03</internalNodes>
          <leafValues>
            4.4815665483474731e-01 -4.4289478659629822e-01</leafValues></_>
        <_>
          <internalNodes>
            0 -1 125 1.9623499829322100e-03</internalNodes>
          <leafValues>
            -4.9852862954139709e-01 4.7111216187477112e-01</leafValues></_>
        <_>
          <internalNodes>
            0 -1 39 2.7871310710906982e-02</internalNodes>
          <leafValues>
            3.0115631222724915e-01 -7.7563363313674927e-01</leafValues></_>
        <_>
          <internalNodes>
            0 -1 117 8.1960484385490417e-03</internalNodes>
          <leafValues>
            -2.8729876875877380e-01 1.</leafValues></_></weakClassifiers></_>
    <!-- stage 16 -->
    <_>
      <maxWeakCount>7</maxWeakCount>
      <stageThreshold>-7.9115223884582520e-01</stageThreshold>
      <weakClassifiers>
        <_>
          <internalNodes>
            0 -1 31 1.2271390296518803e-03</internalNodes>
          <leafValues>
            4.4588744640350342e-01 -6.0946744680404663e-01</leafValues></_>
        <_>
          <internalNodes>
            0 -1 60 1.0497687384486198e-02</internalNodes>
          <leafValues>
            -3.6259290575981140e-01 8.3399873971939087e-01</leafValues></_>
        <_>
          <internalNodes>
            0 -1 69 -4.3710777536034584e-03</internalNodes>
          <leafValues>
            9.2166239023208618e-01 -2.6413166522979736e-01</leafValues></_>
        <_>
          <internalNodes>
            0 -1 41 -1.6773656010627747e-02</internalNodes>
          <leafValues>
            6.8916195631027222e-01 -4.0888369083404541e-01</leafValues></_>
        <_>
          <internalNodes>
            0 -1 1 7.1722856955602765e-04</internalNodes>
          <leafValues>
            -4.3814486265182495e-01 6.5468859672546387e-01</leafValues></_>
        <_>
          <internalNodes>
            0 -1 85 6.4571406692266464e-03</internalNodes>
          <leafValues>
            -4.1831830143928528e-01 6.6013568639755249e-01</leafValues></_>
        <_>
          <internalNodes>
            0 -1 91 -7.5042381649836898e-04</internalNodes>
          <leafValues>
            6.5503174066543579e-01 -4.2236411571502686e-01</leafValues></_></weakClassifiers></_>
    <!-- stage 17 -->
    <_>
      <maxWeakCount>4</maxWeakCount>
      <stageThreshold>-5.6403666734695435e-01</stageThreshold>
      <weakClassifiers>
        <_>
          <internalNodes>
            0 -1 73 -1.7778179608285427e-03</internalNodes>
          <leafValues>
            7.5903612375259399e-01 -5.3846156597137451e-01</leafValues></_>
        <_>
          <internalNodes>
            0 -1 79 -1.2714245356619358e-02</internalNodes>
          <leafValues>
            8.8012611865997314e-01 -4.0284883975982666e-01</leafValues></_>
        <_>
          <internalNodes>
            0 -1 11 -2.8135437518358231e-02</internalNodes>
          <leafValues>
            9.0865904092788696e-01 -4.3008342385292053e-01</leafValues></_>
        <_>
          <internalNodes>
            0 -1 121 2.3357680067420006e-02</internalNodes>
          <leafValues>
            -4.5960098505020142e-01 8.0735713243484497e-01</leafValues></_></weakClassifiers></_>
    <!-- stage 18 -->
    <_>
      <maxWeakCount>2</maxWeakCount>
      <stageThreshold>-1.0024224221706390e-01</stageThreshold>
      <weakClassifiers>
        <_>
          <internalNodes>
            0 -1 74 3.0002864077687263e-03</internalNodes>
          <leafValues>
            7.3831772804260254e-01 -8.4946238994598389e-01</leafValues></_>
        <_>
          <internalNodes>
            0 -1 24 1.1954282410442829e-02</internalNodes>
          <leafValues>
            7.9919135570526123e-01 -8.3855998516082764e-01</leafValues></_></weakClassifiers></_>
    <!-- stage 19 -->
    <_>
      <maxWeakCount>2</maxWeakCount>
      <stageThreshold>3.7736035883426666e-02</stageThreshold>
      <weakClassifiers>
        <_>
          <internalNodes>
            0 -1 37 5.5591851472854614e-02</internalNodes>
          <leafValues>
            1. -9.6078431606292725e-01</leafValues></_>
        <_>
          <internalNodes>
            0 -1 90 -6.8126872181892395e-02</internalNodes>
          <leafValues>
            -9.6226394176483154e-01 1.</leafValues></_></weakClassifiers></_></stages>
  <features>
    <_>
      <rects>
        <_>
          0 0 4 10 -1.</_>
        <_>
          0 0 2 5 2.</_>
        <_>
          2 5 2 5 2.</_></rects>
      <tilted>0</tilted></_>
    <_>
      <rects>
        <_>
          0 1 1 6 -1.</_>
        <_>
          0 4 1 3 2.</_></rects>
      <tilted>0</tilted></_>
    <_>
      <rects>
        <_>
          0 1 12 1 -1.</_>
        <_>
          6 1 6 1 2.</_></rects>
      <tilted>0</tilted></_>
    <_>
      <rects>
        <_>
          0 2 16 8 -1.</_>
        <_>
          0 4 16 4 2.</_></rects>
      <tilted>0</tilted></_>
    <_>
      <rects>
        <_>
          0 3 20 6 -1.</_>
        <_>
          0 6 20 3 2.</_></rects>
      <tilted>0</tilted></_>
    <_>
      <rects>
        <_>
          0 3 25 4 -1.</_>
        <_>
          0 4 25 2 2.</_></rects>
      <tilted>0</tilted></_>
    <_>
      <rects>
        <_>
          0 4 4 3 -1.</_>
        <_>
          1 4 2 3 2.</_></rects>
      <tilted>0</tilted></_>
    <_>
      <rects>
        <_>
          0 4 15 6 -1.</_>
        <_>
          5 6 5 2 9.</_></rects>
      <tilted>0</tilted></_>
    <_>
      <rects>
        <_>
          0 5 20 5 -1.</_>
        <_>
          10 5 10 5 2.</_></rects>
      <tilted>0</tilted></_>
    <_>
      <rects>
        <_>
          0 6 3 2 -1.</_>
        <_>
          1 6 1 2 3.</_></rects>
      <tilted>0</tilted></_>
    <_>
      <rects>
        <_>
          0 6 6 3 -1.</_>
        <_>
          2 6 2 3 3.</_></rects>
      <tilted>0</tilted></_>
    <_>
      <rects>
        <_>
          0 6 6 4 -1.</_>
        <_>
          3 6 3 4 2.</_></rects>
      <tilted>0</tilted></_>
    <_>
      <rects>
        <_>
          0 7 2 2 -1.</_>
        <_>
          1 7 1 2 2.</_></rects>
      <tilted>0</tilted></_>
    <_>
      <rects>
        <_>
          0 7 2 3 -1.</_>
        <_>
          1 7 1 3 2.</_></rects>
      <tilted>0</tilted></_>
    <_>
      <rects>
        <_>
          0 7 11 3 -1.</_>
        <_>
          0 8 11 1 3.</_></rects>
      <tilted>0</tilted></_>
    <_>
      <rects>
        <_>
          0 7 18 3 -1.</_>
        <_>
          0 8 18 1 3.</_></rects>
      <tilted>0</tilted></_>
    <_>
      <rects>
        <_>
          0 8 4 1 -1.</_>
        <_>
          2 8 2 1 2.</_></rects>
      <tilted>0</tilted></_>
    <_>
      <rects>
        <_>
          0 8 8 2 -1.</_>
        <_>
          4 8 4 2 2.</_></rects>
      <tilted>0</tilted></_>
    <_>
      <rects>
        <_>
          1 2 7 6 -1.</_>
        <_>
          1 4 7 2 3.</_></rects>
      <tilted>0</tilted></_>
    <_>
      <rects>
        <_>
          1 2 14 8 -1.</_>
        <_>
          1 4 14 4 2.</_></rects>
      <tilted>0</tilted></_>
    <_>
      <rects>
        <_>
          1 3 13 4 -1.</_>
        <_>
          1 4 13 2 2.</_></rects>
      <tilted>0</tilted></_>
    <_>
      <rects>
        <_>
          1 5 14 2 -1.</_>
        <_>
          1 5 7 1 2.</_>
        <_>
          8 6 7 1 2.</_></rects>
      <tilted>0</tilted></_>
    <_>
      <rects>
        <_>
          1 7 6 1 -1.</_>
        <_>
          3 7 2 1 3.</_></rects>
      <tilted>0</tilted></_>
    <_>
      <rects>
        <_>
          1 8 2 2 -1.</_>
        <_>
          2 8 1 2 2.</_></rects>
      <tilted>0</tilted></_>
    <_>
      <rects>
        <_>
          1 8 12 2 -1.</_>
        <_>
          4 8 6 2 2.</_></rects>
      <tilted>0</tilted></_>
    <_>
      <rects>
        <_>
          1 9 10 1 -1.</_>
        <_>
          6 9 5 1 2.</_></rects>
      <tilted>0</tilted></_>
    <_>
      <rects>
        <_>
          2 2 20 6 -1.</_>
        <_>
          2 4 20 2 3.</_></rects>
      <tilted>0</tilted></_>
    <_>
      <rects>
        <_>
          2 4 7 2 -1.</_>
        <_>
          2 5 7 1 2.</_></rects>
      <tilted>0</tilted></_>
    <_>
      <rects>
        <_>
          2 6 4 2 -1.</_>
        <_>
          2 6 2 1 2.</_>
        <_>
          4 7 2 1 2.</_></rects>
      <tilted>0</tilted></_>
    <_>
      <rects>
        <_>
          2 7 3 2 -1.</_>
        <_>
          3 7 1 2 3.</_></rects>
      <tilted>0</tilted></_>
    <_>
      <rects>
        <_>
          2 9 6 1 -1.</_>
        <_>
          4 9 2 1 3.</_></rects>
      <tilted>0</tilted></_>
    <_>
      <rects>
        <_>
          2 9 8 1 -1.</_>
        <_>
          4 9 4 1 2.</_></rects>
      <tilted>0</tilted></_>
    <_>
      <rects>
        <_>
          3 3 20 3 -1.</_>
        <_>
          3 4 20 1 3.</_></rects>
      <tilted>0</tilted></_>
    <_>
      <rects>
        <_>
          3 4 4 2 -1.</_>
        <_>
          3 5 4 1 2.</_></rects>
      <tilted>0</tilted></_>
    <_>
      <rects>
        <_>
          3 5 18 4 -1.</_>
        <_>
          3 5 9 2 2.</_>
        <_>
          12 7 9 2 2.</_></rects>
      <tilted>0</tilted></_>
    <_>
      <rects>
        <_>
          3 6 10 2 -1.</_>
        <_>
          3 6 5 1 2.</_>
        <_>
          8 7 5 1 2.</_></rects>
      <tilted>0</tilted></_>
    <_>
      <rects>
        <_>
          3 6 18 2 -1.</_>
        <_>
          9 6 6 2 3.</_></rects>
      <tilted>0</tilted></_>
    <_>
      <rects>
        <_>
          3 7 22 1 -1.</_>
        <_>
          14 7 11 1 2.</_></rects>
      <tilted>0</tilted></_>
    <_>
      <rects>
        <_>
          3 8 8 2 -1.</_>
        <_>
          3 8 4 1 2.</_>
        <_>
          7 9 4 1 2.</_></rects>
      <tilted>0</tilted></_>
    <_>
      <rects>
        <_>
          3 8 18 2 -1.</_>
        <_>
          12 8 9 2 2.</_></rects>
      <tilted>0</tilted></_>
    <_>
      <rects>
        <_>
          4 4 2 4 -1.</_>
        <_>
          4 5 2 2 2.</_></rects>
      <tilted>0</tilted></_>
    <_>
      <rects>
        <_>
          4 4 13 3 -1.</_>
        <_>
          4 5 13 1 3.</_></rects>
      <tilted>0</tilted></_>
    <_>
      <rects>
        <_>
          4 5 6 4 -1.</_>
        <_>
          4 5 3 2 2.</_>
        <_>
          7 7 3 2 2.</_></rects>
      <tilted>0</tilted></_>
    <_>
      <rects>
        <_>
          4 6 1 3 -1.</_>
        <_>
          4 7 1 1 3.</_></rects>
      <tilted>0</tilted></_>
    <_>
      <rects>
        <_>
          4 6 3 3 -1.</_>
        <_>
          4 7 3 1 3.</_></rects>
      <tilted>0</tilted></_>
    <_>
      <rects>
        <_>
          4 6 6 2 -1.</_>
        <_>
          4 6 3 1 2.</_>
        <_>
          7 7 3 1 2.</_></rects>
      <tilted>0</tilted></_>
    <_>
      <rects>
        <_>
          4 6 12 2 -1.</_>
        <_>
          4 6 6 1 2.</_>
        <_>
          10 7 6 1 2.</_></rects>
      <tilted>0</tilted></_>
    <_>
      <rects>
        <_>
          4 7 3 1 -1.</_>
        <_>
          5 7 1 1 3.</_></rects>
      <tilted>0</tilted></_>
    <_>
      <rects>
        <_>
          4 7 4 1 -1.</_>
        <_>
          5 7 2 1 2.</_></rects>
      <tilted>0</tilted></_>
    <_>
      <rects>
        <_>
          4 7 6 1 -1.</_>
        <_>
          6 7 2 1 3.</_></rects>
      <tilted>0</tilted></_>
    <_>
      <rects>
        <_>
          4 7 6 2 -1.</_>
        <_>
          6 7 2 2 3.</_></rects>
      <tilted>0</tilted></_>
    <_>
      <rects>
        <_>
          4 7 10 3 -1.</_>
        <_>
          4 8 10 1 3.</_></rects>
      <tilted>0</tilted></_>
    <_>
      <rects>
        <_>
          4 8 6 1 -1.</_>
        <_>
          6 8 2 1 3.</_></rects>
      <tilted>0</tilted></_>
    <_>
      <rects>
        <_>
          4 8 21 2 -1.</_>
        <_>
          11 8 7 2 3.</_></rects>
      <tilted>0</tilted></_>
    <_>
      <rects>
        <_>
          5 1 6 4 -1.</_>
        <_>
          5 1 3 2 2.</_>
        <_>
          8 3 3 2 2.</_></rects>
      <tilted>0</tilted></_>
    <_>
      <rects>
        <_>
          5 3 1 6 -1.</_>
        <_>
          5 5 1 2 3.</_></rects>
      <tilted>0</tilted></_>
    <_>
      <rects>
        <_>
          5 7 3 2 -1.</_>
        <_>
          6 7 1 2 3.</_></rects>
      <tilted>0</tilted></_>
    <_>
      <rects>
        <_>
          5 7 11 3 -1.</_>
        <_>
          5 8 11 1 3.</_></rects>
      <tilted>0</tilted></_>
    <_>
      <rects>
        <_>
          5 8 3 1 -1.</_>
        <_>
          6 8 1 1 3.</_></rects>
      <tilted>0</tilted></_>
    <_>
      <rects>
        <_>
          6 2 8 3 -1.</_>
        <_>
          6 3 8 1 3.</_></rects>
      <tilted>0</tilted></_>
    <_>
      <rects>
        <_>
          6 3 6 4 -1.</_>
        <_>
          6 3 3 2 2.</_>
        <_>
          9 5 3 2 2.</_></rects>
      <tilted>0</tilted></_>
    <_>
      <rects>
        <_>
          7 6 8 1 -1.</_>
        <_>
          9 6 4 1 2.</_></rects>
      <tilted>0</tilted></_>
    <_>
      <rects>
        <_>
          8 0 6 4 -1.</_>
        <_>
          8 1 6 2 2.</_></rects>
      <tilted>0</tilted></_>
    <_>
      <rects>
        <_>
          8 6 9 4 -1.</_>
        <_>
          8 7 9 2 2.</_></rects>
      <tilted>0</tilted></_>
    <_>
      <rects>
        <_>
          8 7 4 1 -1.</_>
        <_>
          9 7 2 1 2.</_></rects>
      <tilted>0</tilted></_>
    <_>
      <rects>
        <_>
          8 9 3 1 -1.</_>
        <_>
          9 9 1 1 3.</_></rects>
      <tilted>0</tilted></_>
    <_>
      <rects>
        <_>
          9 5 4 4 -1.</_>
        <_>
          10 5 2 4 2.</_></rects>
      <tilted>0</tilted></_>
    <_>
      <rects>
        <_>
          9 6 4 2 -1.</_>
        <_>
          11 6 2 2 2.</_></rects>
      <tilted>0</tilted></_>
    <_>
      <rects>
        <_>
          9 6 12 2 -1.</_>
        <_>
          9 6 6 1 2.</_>
        <_>
          15 7 6 1 2.</_></rects>
      <tilted>0</tilted></_>
    <_>
      <rects>
        <_>
          10 2 6 1 -1.</_>
        <_>
          12 2 2 1 3.</_></rects>
      <tilted>0</tilted></_>
    <_>
      <rects>
        <_>
          10 5 2 4 -1.</_>
        <_>
          11 5 1 4 2.</_></rects>
      <tilted>0</tilted></_>
    <_>
      <rects>
        <_>
          10 5 6 4 -1.</_>
        <_>
          12 5 2 4 3.</_></rects>
      <tilted>0</tilted></_>
    <_>
      <rects>
        <_>
          10 6 2 2 -1.</_>
        <_>
          10 6 1 1 2.</_>
        <_>
          11 7 1 1 2.</_></rects>
      <tilted>0</tilted></_>
    <_>
      <rects>
        <_>
          10 6 2 2 -1.</_>
        <_>
          10 7 2 1 2.</_></rects>
      <tilted>0</tilted></_>
    <_>
      <rects>
        <_>
          10 6 4 2 -1.</_>
        <_>
          12 6 2 2 2.</_></rects>
      <tilted>0</tilted></_>
    <_>
      <rects>
        <_>
          10 6 4 3 -1.</_>
        <_>
          12 6 2 3 2.</_></rects>
      <tilted>0</tilted></_>
    <_>
      <rects>
        <_>
          10 6 5 2 -1.</_>
        <_>
          10 7 5 1 2.</_></rects>
      <tilted>0</tilted></_>
    <_>
      <rects>
        <_>
          10 7 2 1 -1.</_>
        <_>
          11 7 1 1 2.</_></rects>
      <tilted>0</tilted></_>
    <_>
      <rects>
        <_>
          10 7 4 1 -1.</_>
        <_>
          11 7 2 1 2.</_></rects>
      <tilted>0</tilted></_>
    <_>
      <rects>
        <_>
          10 7 12 2 -1.</_>
        <_>
          14 7 4 2 3.</_></rects>
      <tilted>0</tilted></_>
    <_>
      <rects>
        <_>
          11 1 12 4 -1.</_>
        <_>
          11 1 6 2 2.</_>
        <_>
          17 3 6 2 2.</_></rects>
      <tilted>0</tilted></_>
    <_>
      <rects>
        <_>
          11 5 2 4 -1.</_>
        <_>
          11 5 1 2 2.</_>
        <_>
          12 7 1 2 2.</_></rects>
      <tilted>0</tilted></_>
    <_>
      <rects>
        <_>
          11 5 2 5 -1.</_>
        <_>
          12 5 1 5 2.</_></rects>
      <tilted>0</tilted></_>
    <_>
      <rects>
        <_>
          11 5 6 2 -1.</_>
        <_>
          14 5 3 2 2.</_></rects>
      <tilted>0</tilted></_>
    <_>
      <rects>
        <_>
          11 7 3 2 -1.</_>
        <_>
          12 7 1 2 3.</_></rects>
      <tilted>0</tilted></_>
    <_>
      <rects>
        <_>
          11 7 12 2 -1.</_>
        <_>
          11 7 6 1 2.</_>
        <_>
          17 8 6 1 2.</_></rects>
      <tilted>0</tilted></_>
    <_>
      <rects>
        <_>
          12 1 10 4 -1.</_>
        <_>
          12 1 5 2 2.</_>
        <_>
          17 3 5 2 2.</_></rects>
      <tilted>0</tilted></_>
    <_>
      <rects>
        <_>
          12 6 3 2 -1.</_>
        <_>
          13 6 1 2 3.</_></rects>
      <tilted>0</tilted></_>
    <_>
      <rects>
        <_>
          12 7 4 1 -1.</_>
        <_>
          13 7 2 1 2.</_></rects>
      <tilted>0</tilted></_>
    <_>
      <rects>
        <_>
          12 7 6 2 -1.</_>
        <_>
          14 7 2 2 3.</_></rects>
      <tilted>0</tilted></_>
    <_>
      <rects>
        <_>
          13 0 12 5 -1.</_>
        <_>
          16 0 6 5 2.</_></rects>
      <tilted>0</tilted></_>
    <_>
      <rects>
        <_>
          13 2 2 2 -1.</_>
        <_>
          13 3 2 1 2.</_></rects>
      <tilted>0</tilted></_>
    <_>
      <rects>
        <_>
          13 3 4 2 -1.</_>
        <_>
          13 3 2 1 2.</_>
        <_>
          15 4 2 1 2.</_></rects>
      <tilted>0</tilted></_>
    <_>
      <rects>
        <_>
          13 3 8 4 -1.</_>
        <_>
          13 3 4 2 2.</_>
        <_>
          17 5 4 2 2.</_></rects>
      <tilted>0</tilted></_>
    <_>
      <rects>
        <_>
          13 6 3 3 -1.</_>
        <_>
          14 6 1 3 3.</_></rects>
      <tilted>0</tilted></_>
    <_>
      <rects>
        <_>
          13 6 4 1 -1.</_>
        <_>
          15 6 2 1 2.</_></rects>
      <tilted>0</tilted></_>
    <_>
      <rects>
        <_>
          13 7 3 2 -1.</_>
        <_>
          13 8 3 1 2.</_></rects>
      <tilted>0</tilted></_>
    <_>
      <rects>
        <_>
          15 2 3 8 -1.</_>
        <_>
          15 6 3 4 2.</_></rects>
      <tilted>0</tilted></_>
    <_>
      <rects>
        <_>
          15 3 8 3 -1.</_>
        <_>
          15 4 8 1 3.</_></rects>
      <tilted>0</tilted></_>
    <_>
      <rects>
        <_>
          15 6 6 2 -1.</_>
        <_>
          15 6 3 1 2.</_>
        <_>
          18 7 3 1 2.</_></rects>
      <tilted>0</tilted></_>
    <_>
      <rects>
        <_>
          16 6 5 3 -1.</_>
        <_>
          16 7 5 1 3.</_></rects>
      <tilted>0</tilted></_>
    <_>
      <rects>
        <_>
          16 7 4 2 -1.</_>
        <_>
          17 7 2 2 2.</_></rects>
      <tilted>0</tilted></_>
    <_>
      <rects>
        <_>
          17 7 3 1 -1.</_>
        <_>
          18 7 1 1 3.</_></rects>
      <tilted>0</tilted></_>
    <_>
      <rects>
        <_>
          17 7 4 1 -1.</_>
        <_>
          18 7 2 1 2.</_></rects>
      <tilted>0</tilted></_>
    <_>
      <rects>
        <_>
          18 3 3 6 -1.</_>
        <_>
          18 6 3 3 2.</_></rects>
      <tilted>0</tilted></_>
    <_>
      <rects>
        <_>
          18 3 5 4 -1.</_>
        <_>
          18 4 5 2 2.</_></rects>
      <tilted>0</tilted></_>
    <_>
      <rects>
        <_>
          18 4 3 4 -1.</_>
        <_>
          18 5 3 2 2.</_></rects>
      <tilted>0</tilted></_>
    <_>
      <rects>
        <_>
          18 5 5 3 -1.</_>
        <_>
          18 6 5 1 3.</_></rects>
      <tilted>0</tilted></_>
    <_>
      <rects>
        <_>
          18 6 6 2 -1.</_>
        <_>
          18 6 3 1 2.</_>
        <_>
          21 7 3 1 2.</_></rects>
      <tilted>0</tilted></_>
    <_>
      <rects>
        <_>
          18 7 3 1 -1.</_>
        <_>
          19 7 1 1 3.</_></rects>
      <tilted>0</tilted></_>
    <_>
      <rects>
        <_>
          18 7 3 2 -1.</_>
        <_>
          19 7 1 2 3.</_></rects>
      <tilted>0</tilted></_>
    <_>
      <rects>
        <_>
          19 0 2 9 -1.</_>
        <_>
          19 3 2 3 3.</_></rects>
      <tilted>0</tilted></_>
    <_>
      <rects>
        <_>
          19 1 6 8 -1.</_>
        <_>
          19 1 3 4 2.</_>
        <_>
          22 5 3 4 2.</_></rects>
      <tilted>0</tilted></_>
    <_>
      <rects>
        <_>
          19 4 2 4 -1.</_>
        <_>
          19 6 2 2 2.</_></rects>
      <tilted>0</tilted></_>
    <_>
      <rects>
        <_>
          19 6 1 2 -1.</_>
        <_>
          19 7 1 1 2.</_></rects>
      <tilted>0</tilted></_>
    <_>
      <rects>
        <_>
          19 6 6 1 -1.</_>
        <_>
          22 6 3 1 2.</_></rects>
      <tilted>0</tilted></_>
    <_>
      <rects>
        <_>
          19 6 6 3 -1.</_>
        <_>
          22 6 3 3 2.</_></rects>
      <tilted>0</tilted></_>
    <_>
      <rects>
        <_>
          19 7 3 1 -1.</_>
        <_>
          20 7 1 1 3.</_></rects>
      <tilted>0</tilted></_>
    <_>
      <rects>
        <_>
          19 7 4 3 -1.</_>
        <_>
          20 7 2 3 2.</_></rects>
      <tilted>0</tilted></_>
    <_>
      <rects>
        <_>
          19 9 6 1 -1.</_>
        <_>
          22 9 3 1 2.</_></rects>
      <tilted>0</tilted></_>
    <_>
      <rects>
        <_>
          20 6 2 2 -1.</_>
        <_>
          20 6 1 1 2.</_>
        <_>
          21 7 1 1 2.</_></rects>
      <tilted>0</tilted></_>
    <_>
      <rects>
        <_>
          21 1 4 8 -1.</_>
        <_>
          21 1 2 4 2.</_>
        <_>
          23 5 2 4 2.</_></rects>
      <tilted>0</tilted></_>
    <_>
      <rects>
        <_>
          21 3 4 6 -1.</_>
        <_>
          21 3 2 3 2.</_>
        <_>
          23 6 2 3 2.</_></rects>
      <tilted>0</tilted></_>
    <_>
      <rects>
        <_>
          21 6 4 4 -1.</_>
        <_>
          23 6 2 4 2.</_></rects>
      <tilted>0</tilted></_>
    <_>
      <rects>
        <_>
          21 6 4 3 -1.</_>
        <_>
          21 7 4 1 3.</_></rects>
      <tilted>0</tilted></_>
    <_>
      <rects>
        <_>
          23 7 2 1 -1.</_>
        <_>
          24 7 1 1 2.</_></rects>
      <tilted>0</tilted></_>
    <_>
      <rects>
        <_>
          23 7 2 2 -1.</_>
        <_>
          24 7 1 2 2.</_></rects>
      <tilted>0</tilted></_>
    <_>
      <rects>
        <_>
          23 9 2 1 -1.</_>
        <_>
          24 9 1 1 2.</_></rects>
      <tilted>0</tilted></_></features></cascade>
</opencv_storage>
