<?xml version="1.0"?>
<opencv_storage>
<stage7>
  <maxWeakCount>6</maxWeakCount>
  <stageThreshold>-5.8962494134902954e-01</stageThreshold>
  <weakClassifiers>
    <_>
      <internalNodes>
        0 -1 29090 4.2765494436025620e-03</internalNodes>
      <leafValues>
        -3.6679536104202271e-01 6.7375886440277100e-01</leafValues></_>
    <_>
      <internalNodes>
        0 -1 2313 -4.6421121805906296e-03</internalNodes>
      <leafValues>
        3.9380145072937012e-01 -5.9689605236053467e-01</leafValues></_>
    <_>
      <internalNodes>
        0 -1 20984 -2.8719059191644192e-03</internalNodes>
      <leafValues>
        -8.1903129816055298e-01 2.5477716326713562e-01</leafValues></_>
    <_>
      <internalNodes>
        0 -1 16484 -1.1252319440245628e-02</internalNodes>
      <leafValues>
        4.3457120656967163e-01 -4.7512906789779663e-01</leafValues></_>
    <_>
      <internalNodes>
        0 -1 21987 -2.6613200083374977e-02</internalNodes>
      <leafValues>
        4.3835908174514771e-01 -4.5217603445053101e-01</leafValues></_>
    <_>
      <internalNodes>
        0 -1 18161 -2.1412363275885582e-03</internalNodes>
      <leafValues>
        -8.1800919771194458e-01 3.2016751170158386e-01</leafValues></_></weakClassifiers></stage7>
</opencv_storage>
