<?xml version="1.0"?>
<opencv_storage>
<stage8>
  <maxWeakCount>12</maxWeakCount>
  <stageThreshold>-1.1871991157531738e+00</stageThreshold>
  <weakClassifiers>
    <_>
      <internalNodes>
        0 -1 16592 -5.5785500444471836e-03</internalNodes>
      <leafValues>
        6.1904764175415039e-01 -3.2068312168121338e-01</leafValues></_>
    <_>
      <internalNodes>
        0 -1 18133 -2.3546909913420677e-02</internalNodes>
      <leafValues>
        2.3182682693004608e-01 -7.4812495708465576e-01</leafValues></_>
    <_>
      <internalNodes>
        0 -1 35493 -8.4580909460783005e-03</internalNodes>
      <leafValues>
        4.5075565576553345e-01 -3.4588584303855896e-01</leafValues></_>
    <_>
      <internalNodes>
        0 -1 26983 2.7026247698813677e-03</internalNodes>
      <leafValues>
        2.1845424175262451e-01 -8.5138922929763794e-01</leafValues></_>
    <_>
      <internalNodes>
        0 -1 36540 3.8081887178122997e-03</internalNodes>
      <leafValues>
        -2.7568694949150085e-01 6.3959473371505737e-01</leafValues></_>
    <_>
      <internalNodes>
        0 -1 30300 1.5396636445075274e-03</internalNodes>
      <leafValues>
        2.2575077414512634e-01 -8.2432019710540771e-01</leafValues></_>
    <_>
      <internalNodes>
        0 -1 16590 3.8129724562168121e-03</internalNodes>
      <leafValues>
        -2.7121663093566895e-01 6.5638315677642822e-01</leafValues></_>
    <_>
      <internalNodes>
        0 -1 31841 -2.3435242474079132e-03</internalNodes>
      <leafValues>
        -6.7716908454895020e-01 2.5104486942291260e-01</leafValues></_>
    <_>
      <internalNodes>
        0 -1 39136 6.8875034339725971e-03</internalNodes>
      <leafValues>
        -5.7189774513244629e-01 2.4049288034439087e-01</leafValues></_>
    <_>
      <internalNodes>
        0 -1 13906 4.9800961278378963e-03</internalNodes>
      <leafValues>
        -3.5232451558113098e-01 4.3149974942207336e-01</leafValues></_>
    <_>
      <internalNodes>
        0 -1 36542 -3.4548398107290268e-03</internalNodes>
      <leafValues>
        6.3093167543411255e-01 -2.5938960909843445e-01</leafValues></_>
    <_>
      <internalNodes>
        0 -1 38086 -9.6707642078399658e-03</internalNodes>
      <leafValues>
        7.4181783199310303e-01 -2.5638014078140259e-01</leafValues></_></weakClassifiers></stage8>
</opencv_storage>
