<?xml version="1.0"?>
<opencv_storage>
<cascade>
  <stageType>BOOST</stageType>
  <featureType>HAAR</featureType>
  <height>20</height>
  <width>50</width>
  <stageParams>
    <boostType>GAB</boostType>
    <minHitRate>9.9500000476837158e-01</minHitRate>
    <maxFalseAlarm>5.0000000000000000e-01</maxFalseAlarm>
    <weightTrimRate>9.4999999999999996e-01</weightTrimRate>
    <maxDepth>1</maxDepth>
    <maxWeakCount>100</maxWeakCount></stageParams>
  <featureParams>
    <maxCatCount>0</maxCatCount>
    <featSize>1</featSize>
    <mode>CORE</mode></featureParams>
  <stageNum>10</stageNum>
  <stages>
    <!-- stage 0 -->
    <_>
      <maxWeakCount>4</maxWeakCount>
      <stageThreshold>-1.7360444068908691e+00</stageThreshold>
      <weakClassifiers>
        <_>
          <internalNodes>
            0 -1 22 1.8227340653538704e-02</internalNodes>
          <leafValues>
            -8.4644913673400879e-01 7.8770947456359863e-01</leafValues></_>
        <_>
          <internalNodes>
            0 -1 18 -4.5208156108856201e-02</internalNodes>
          <leafValues>
            7.0092362165451050e-01 -7.0996999740600586e-01</leafValues></_>
        <_>
          <internalNodes>
            0 -1 4 -5.1751714199781418e-03</internalNodes>
          <leafValues>
            5.9805619716644287e-01 -6.6441571712493896e-01</leafValues></_>
        <_>
          <internalNodes>
            0 -1 53 2.0246505737304688e-03</internalNodes>
          <leafValues>
            -7.7768146991729736e-01 5.0734704732894897e-01</leafValues></_></weakClassifiers></_>
    <!-- stage 1 -->
    <_>
      <maxWeakCount>6</maxWeakCount>
      <stageThreshold>-1.6121448278427124e+00</stageThreshold>
      <weakClassifiers>
        <_>
          <internalNodes>
            0 -1 29 1.5861961990594864e-02</internalNodes>
          <leafValues>
            -8.0816328525543213e-01 4.5714285969734192e-01</leafValues></_>
        <_>
          <internalNodes>
            0 -1 16 -1.2700630351901054e-02</internalNodes>
          <leafValues>
            6.0305261611938477e-01 -6.9560027122497559e-01</leafValues></_>
        <_>
          <internalNodes>
            0 -1 6 -2.0804242230951786e-03</internalNodes>
          <leafValues>
            4.8502635955810547e-01 -7.0402127504348755e-01</leafValues></_>
        <_>
          <internalNodes>
            0 -1 52 2.1337062120437622e-02</internalNodes>
          <leafValues>
            -5.2621722221374512e-01 7.3186182975769043e-01</leafValues></_>
        <_>
          <internalNodes>
            0 -1 47 -5.4227286018431187e-03</internalNodes>
          <leafValues>
            6.8590760231018066e-01 -4.3443852663040161e-01</leafValues></_>
        <_>
          <internalNodes>
            0 -1 13 8.6365116294473410e-04</internalNodes>
          <leafValues>
            3.6724811792373657e-01 -8.6629426479339600e-01</leafValues></_></weakClassifiers></_>
    <!-- stage 2 -->
    <_>
      <maxWeakCount>7</maxWeakCount>
      <stageThreshold>-1.6448464393615723e+00</stageThreshold>
      <weakClassifiers>
        <_>
          <internalNodes>
            0 -1 21 -1.8962752074003220e-02</internalNodes>
          <leafValues>
            5.2499997615814209e-01 -7.1111112833023071e-01</leafValues></_>
        <_>
          <internalNodes>
            0 -1 58 6.8198388908058405e-04</internalNodes>
          <leafValues>
            -7.4277067184448242e-01 3.8637900352478027e-01</leafValues></_>
        <_>
          <internalNodes>
            0 -1 43 4.2690865695476532e-02</internalNodes>
          <leafValues>
            -5.4867577552795410e-01 5.4891544580459595e-01</leafValues></_>
        <_>
          <internalNodes>
            0 -1 26 -1.2608998455107212e-02</internalNodes>
          <leafValues>
            7.4896126985549927e-01 -3.9422109723091125e-01</leafValues></_>
        <_>
          <internalNodes>
            0 -1 55 6.4440248534083366e-03</internalNodes>
          <leafValues>
            -6.0677891969680786e-01 4.7952800989151001e-01</leafValues></_>
        <_>
          <internalNodes>
            0 -1 1 -7.2185869794338942e-04</internalNodes>
          <leafValues>
            5.6608891487121582e-01 -4.9394288659095764e-01</leafValues></_>
        <_>
          <internalNodes>
            0 -1 17 4.0853995829820633e-02</internalNodes>
          <leafValues>
            -3.0496907234191895e-01 8.4014916419982910e-01</leafValues></_></weakClassifiers></_>
    <!-- stage 3 -->
    <_>
      <maxWeakCount>6</maxWeakCount>
      <stageThreshold>-1.7524123191833496e+00</stageThreshold>
      <weakClassifiers>
        <_>
          <internalNodes>
            0 -1 46 6.4763505943119526e-03</internalNodes>
          <leafValues>
            -7.0863306522369385e-01 6.5277779102325439e-01</leafValues></_>
        <_>
          <internalNodes>
            0 -1 20 8.8731544092297554e-03</internalNodes>
          <leafValues>
            -4.8998120427131653e-01 6.6072005033493042e-01</leafValues></_>
        <_>
          <internalNodes>
            0 -1 50 -1.4419244602322578e-02</internalNodes>
          <leafValues>
            6.2010282278060913e-01 -5.1843351125717163e-01</leafValues></_>
        <_>
          <internalNodes>
            0 -1 3 -2.5452580302953720e-03</internalNodes>
          <leafValues>
            5.1877814531326294e-01 -5.9820222854614258e-01</leafValues></_>
        <_>
          <internalNodes>
            0 -1 35 1.6719803679734468e-03</internalNodes>
          <leafValues>
            2.5060862302780151e-01 -9.8094981908798218e-01</leafValues></_>
        <_>
          <internalNodes>
            0 -1 36 -1.6299518756568432e-03</internalNodes>
          <leafValues>
            -8.2630723714828491e-01 3.1628251075744629e-01</leafValues></_></weakClassifiers></_>
    <!-- stage 4 -->
    <_>
      <maxWeakCount>6</maxWeakCount>
      <stageThreshold>-1.8067649602890015e+00</stageThreshold>
      <weakClassifiers>
        <_>
          <internalNodes>
            0 -1 23 -1.0013974271714687e-02</internalNodes>
          <leafValues>
            7.4774771928787231e-01 -6.5025466680526733e-01</leafValues></_>
        <_>
          <internalNodes>
            0 -1 2 -1.0453051654621959e-03</internalNodes>
          <leafValues>
            4.1503021121025085e-01 -6.4957606792449951e-01</leafValues></_>
        <_>
          <internalNodes>
            0 -1 8 3.0010119080543518e-02</internalNodes>
          <leafValues>
            -4.7385272383689880e-01 6.0871279239654541e-01</leafValues></_>
        <_>
          <internalNodes>
            0 -1 27 1.6016438603401184e-02</internalNodes>
          <leafValues>
            -4.2369493842124939e-01 6.7488670349121094e-01</leafValues></_>
        <_>
          <internalNodes>
            0 -1 59 1.6108884010463953e-03</internalNodes>
          <leafValues>
            -3.6886966228485107e-01 6.7767959833145142e-01</leafValues></_>
        <_>
          <internalNodes>
            0 -1 51 4.5197356492280960e-02</internalNodes>
          <leafValues>
            -3.2308244705200195e-01 7.9075646400451660e-01</leafValues></_></weakClassifiers></_>
    <!-- stage 5 -->
    <_>
      <maxWeakCount>5</maxWeakCount>
      <stageThreshold>-1.1208457946777344e+00</stageThreshold>
      <weakClassifiers>
        <_>
          <internalNodes>
            0 -1 48 -8.0289393663406372e-03</internalNodes>
          <leafValues>
            5.2795028686523438e-01 -7.1428573131561279e-01</leafValues></_>
        <_>
          <internalNodes>
            0 -1 21 -8.6517333984375000e-03</internalNodes>
          <leafValues>
            4.6540424227714539e-01 -6.1913841962814331e-01</leafValues></_>
        <_>
          <internalNodes>
            0 -1 56 9.2390570789575577e-03</internalNodes>
          <leafValues>
            -5.5489873886108398e-01 5.5028879642486572e-01</leafValues></_>
        <_>
          <internalNodes>
            0 -1 39 1.0136102791875601e-03</internalNodes>
          <leafValues>
            2.5279799103736877e-01 -9.6126532554626465e-01</leafValues></_>
        <_>
          <internalNodes>
            0 -1 12 -4.6316981315612793e-03</internalNodes>
          <leafValues>
            5.1467901468276978e-01 -4.7981485724449158e-01</leafValues></_></weakClassifiers></_>
    <!-- stage 6 -->
    <_>
      <maxWeakCount>7</maxWeakCount>
      <stageThreshold>-1.8990103006362915e+00</stageThreshold>
      <weakClassifiers>
        <_>
          <internalNodes>
            0 -1 25 -5.2781701087951660e-03</internalNodes>
          <leafValues>
            4.9367088079452515e-01 -6.9741696119308472e-01</leafValues></_>
        <_>
          <internalNodes>
            0 -1 44 -1.3426488265395164e-02</internalNodes>
          <leafValues>
            2.2528626024723053e-01 -8.6588996648788452e-01</leafValues></_>
        <_>
          <internalNodes>
            0 -1 41 7.6929987408220768e-03</internalNodes>
          <leafValues>
            -4.5954370498657227e-01 5.7805019617080688e-01</leafValues></_>
        <_>
          <internalNodes>
            0 -1 54 2.7677111793309450e-03</internalNodes>
          <leafValues>
            -6.6264241933822632e-01 3.6621314287185669e-01</leafValues></_>
        <_>
          <internalNodes>
            0 -1 38 -5.0775124691426754e-03</internalNodes>
          <leafValues>
            -8.9569842815399170e-01 2.5198614597320557e-01</leafValues></_>
        <_>
          <internalNodes>
            0 -1 0 -4.2474186047911644e-03</internalNodes>
          <leafValues>
            3.2249879837036133e-01 -6.7370826005935669e-01</leafValues></_>
        <_>
          <internalNodes>
            0 -1 31 -5.7148578343912959e-04</internalNodes>
          <leafValues>
            -9.0012985467910767e-01 1.7934925854206085e-01</leafValues></_></weakClassifiers></_>
    <!-- stage 7 -->
    <_>
      <maxWeakCount>6</maxWeakCount>
      <stageThreshold>-1.2239274978637695e+00</stageThreshold>
      <weakClassifiers>
        <_>
          <internalNodes>
            0 -1 40 1.2866985052824020e-02</internalNodes>
          <leafValues>
            -7.5313806533813477e-01 2.7027025818824768e-01</leafValues></_>
        <_>
          <internalNodes>
            0 -1 14 -2.5328300893306732e-02</internalNodes>
          <leafValues>
            4.1550391912460327e-01 -6.0669434070587158e-01</leafValues></_>
        <_>
          <internalNodes>
            0 -1 34 -7.6417333912104368e-04</internalNodes>
          <leafValues>
            -8.4030973911285400e-01 2.2972907125949860e-01</leafValues></_>
        <_>
          <internalNodes>
            0 -1 42 -7.4133835732936859e-03</internalNodes>
          <leafValues>
            4.5530450344085693e-01 -5.0330078601837158e-01</leafValues></_>
        <_>
          <internalNodes>
            0 -1 5 -6.9045327836647630e-04</internalNodes>
          <leafValues>
            3.1906345486640930e-01 -7.4579674005508423e-01</leafValues></_>
        <_>
          <internalNodes>
            0 -1 30 -1.6480006743222475e-03</internalNodes>
          <leafValues>
            -8.4908562898635864e-01 2.4329859018325806e-01</leafValues></_></weakClassifiers></_>
    <!-- stage 8 -->
    <_>
      <maxWeakCount>7</maxWeakCount>
      <stageThreshold>-1.7784907817840576e+00</stageThreshold>
      <weakClassifiers>
        <_>
          <internalNodes>
            0 -1 49 3.4359132405370474e-03</internalNodes>
          <leafValues>
            -6.7441862821578979e-01 5.4609930515289307e-01</leafValues></_>
        <_>
          <internalNodes>
            0 -1 7 -1.2410412542521954e-02</internalNodes>
          <leafValues>
            2.4852982163429260e-01 -6.9379937648773193e-01</leafValues></_>
        <_>
          <internalNodes>
            0 -1 9 -2.4930272251367569e-02</internalNodes>
          <leafValues>
            -7.0402216911315918e-01 2.5229254364967346e-01</leafValues></_>
        <_>
          <internalNodes>
            0 -1 10 2.5674703065305948e-03</internalNodes>
          <leafValues>
            -3.4625005722045898e-01 6.1880999803543091e-01</leafValues></_>
        <_>
          <internalNodes>
            0 -1 57 2.3780618794262409e-03</internalNodes>
          <leafValues>
            -6.3035601377487183e-01 3.6398038268089294e-01</leafValues></_>
        <_>
          <internalNodes>
            0 -1 32 9.0448573231697083e-02</internalNodes>
          <leafValues>
            -2.5763309001922607e-01 7.7067226171493530e-01</leafValues></_>
        <_>
          <internalNodes>
            0 -1 15 -3.1274776905775070e-02</internalNodes>
          <leafValues>
            4.7665783762931824e-01 -4.2266255617141724e-01</leafValues></_></weakClassifiers></_>
    <!-- stage 9 -->
    <_>
      <maxWeakCount>7</maxWeakCount>
      <stageThreshold>-1.1359789371490479e+00</stageThreshold>
      <weakClassifiers>
        <_>
          <internalNodes>
            0 -1 24 -1.1637993156909943e-02</internalNodes>
          <leafValues>
            5.6896549463272095e-01 -6.2671232223510742e-01</leafValues></_>
        <_>
          <internalNodes>
            0 -1 45 -6.9596595130860806e-03</internalNodes>
          <leafValues>
            6.5641337633132935e-01 -3.9545083045959473e-01</leafValues></_>
        <_>
          <internalNodes>
            0 -1 19 -4.4488281011581421e-02</internalNodes>
          <leafValues>
            4.0777853131294250e-01 -5.5783236026763916e-01</leafValues></_>
        <_>
          <internalNodes>
            0 -1 33 -1.6619097441434860e-02</internalNodes>
          <leafValues>
            6.5355610847473145e-01 -3.5761868953704834e-01</leafValues></_>
        <_>
          <internalNodes>
            0 -1 11 -8.2793115871027112e-04</internalNodes>
          <leafValues>
            3.4504774212837219e-01 -6.7672282457351685e-01</leafValues></_>
        <_>
          <internalNodes>
            0 -1 37 1.2363349087536335e-03</internalNodes>
          <leafValues>
            2.3721884191036224e-01 -8.2523638010025024e-01</leafValues></_>
        <_>
          <internalNodes>
            0 -1 28 -9.2137657338753343e-04</internalNodes>
          <leafValues>
            -8.1483298540115356e-01 2.7552831172943115e-01</leafValues></_></weakClassifiers></_></stages>
  <features>
    <_>
      <rects>
        <_>
          0 11 8 7 -1.</_>
        <_>
          4 11 4 7 2.</_></rects>
      <tilted>0</tilted></_>
    <_>
      <rects>
        <_>
          0 12 2 4 -1.</_>
        <_>
          1 12 1 4 2.</_></rects>
      <tilted>0</tilted></_>
    <_>
      <rects>
        <_>
          0 15 4 3 -1.</_>
        <_>
          2 15 2 3 2.</_></rects>
      <tilted>0</tilted></_>
    <_>
      <rects>
        <_>
          0 15 6 2 -1.</_>
        <_>
          3 15 3 2 2.</_></rects>
      <tilted>0</tilted></_>
    <_>
      <rects>
        <_>
          0 15 8 3 -1.</_>
        <_>
          4 15 4 3 2.</_></rects>
      <tilted>0</tilted></_>
    <_>
      <rects>
        <_>
          0 16 6 2 -1.</_>
        <_>
          3 16 3 2 2.</_></rects>
      <tilted>0</tilted></_>
    <_>
      <rects>
        <_>
          0 16 8 2 -1.</_>
        <_>
          4 16 4 2 2.</_></rects>
      <tilted>0</tilted></_>
    <_>
      <rects>
        <_>
          1 11 30 8 -1.</_>
        <_>
          1 11 15 4 2.</_>
        <_>
          16 15 15 4 2.</_></rects>
      <tilted>0</tilted></_>
    <_>
      <rects>
        <_>
          1 18 40 2 -1.</_>
        <_>
          1 19 40 1 2.</_></rects>
      <tilted>0</tilted></_>
    <_>
      <rects>
        <_>
          2 11 48 7 -1.</_>
        <_>
          26 11 24 7 2.</_></rects>
      <tilted>0</tilted></_>
    <_>
      <rects>
        <_>
          2 12 10 2 -1.</_>
        <_>
          2 12 5 1 2.</_>
        <_>
          7 13 5 1 2.</_></rects>
      <tilted>0</tilted></_>
    <_>
      <rects>
        <_>
          2 16 6 4 -1.</_>
        <_>
          5 16 3 4 2.</_></rects>
      <tilted>0</tilted></_>
    <_>
      <rects>
        <_>
          2 16 21 2 -1.</_>
        <_>
          2 17 21 1 2.</_></rects>
      <tilted>0</tilted></_>
    <_>
      <rects>
        <_>
          2 17 48 2 -1.</_>
        <_>
          14 17 24 2 2.</_></rects>
      <tilted>0</tilted></_>
    <_>
      <rects>
        <_>
          4 7 12 6 -1.</_>
        <_>
          4 10 12 3 2.</_></rects>
      <tilted>0</tilted></_>
    <_>
      <rects>
        <_>
          4 7 14 6 -1.</_>
        <_>
          4 10 14 3 2.</_></rects>
      <tilted>0</tilted></_>
    <_>
      <rects>
        <_>
          4 9 10 4 -1.</_>
        <_>
          4 11 10 2 2.</_></rects>
      <tilted>0</tilted></_>
    <_>
      <rects>
        <_>
          5 4 6 12 -1.</_>
        <_>
          5 8 6 4 3.</_></rects>
      <tilted>0</tilted></_>
    <_>
      <rects>
        <_>
          5 9 40 4 -1.</_>
        <_>
          5 11 40 2 2.</_></rects>
      <tilted>0</tilted></_>
    <_>
      <rects>
        <_>
          6 9 41 4 -1.</_>
        <_>
          6 11 41 2 2.</_></rects>
      <tilted>0</tilted></_>
    <_>
      <rects>
        <_>
          6 18 14 2 -1.</_>
        <_>
          6 19 14 1 2.</_></rects>
      <tilted>0</tilted></_>
    <_>
      <rects>
        <_>
          7 11 14 6 -1.</_>
        <_>
          7 11 7 3 2.</_>
        <_>
          14 14 7 3 2.</_></rects>
      <tilted>0</tilted></_>
    <_>
      <rects>
        <_>
          7 18 38 2 -1.</_>
        <_>
          7 19 38 1 2.</_></rects>
      <tilted>0</tilted></_>
    <_>
      <rects>
        <_>
          9 8 2 8 -1.</_>
        <_>
          9 10 2 4 2.</_></rects>
      <tilted>0</tilted></_>
    <_>
      <rects>
        <_>
          9 13 8 5 -1.</_>
        <_>
          11 13 4 5 2.</_></rects>
      <tilted>0</tilted></_>
    <_>
      <rects>
        <_>
          10 14 8 3 -1.</_>
        <_>
          12 14 4 3 2.</_></rects>
      <tilted>0</tilted></_>
    <_>
      <rects>
        <_>
          12 16 22 3 -1.</_>
        <_>
          12 17 22 1 3.</_></rects>
      <tilted>0</tilted></_>
    <_>
      <rects>
        <_>
          13 7 33 4 -1.</_>
        <_>
          13 8 33 2 2.</_></rects>
      <tilted>0</tilted></_>
    <_>
      <rects>
        <_>
          13 12 16 1 -1.</_>
        <_>
          21 12 8 1 2.</_></rects>
      <tilted>0</tilted></_>
    <_>
      <rects>
        <_>
          14 18 26 2 -1.</_>
        <_>
          14 19 26 1 2.</_></rects>
      <tilted>0</tilted></_>
    <_>
      <rects>
        <_>
          15 11 9 5 -1.</_>
        <_>
          18 11 3 5 3.</_></rects>
      <tilted>0</tilted></_>
    <_>
      <rects>
        <_>
          16 14 9 1 -1.</_>
        <_>
          19 14 3 1 3.</_></rects>
      <tilted>0</tilted></_>
    <_>
      <rects>
        <_>
          18 6 19 12 -1.</_>
        <_>
          18 9 19 6 2.</_></rects>
      <tilted>0</tilted></_>
    <_>
      <rects>
        <_>
          18 14 5 6 -1.</_>
        <_>
          18 16 5 2 3.</_></rects>
      <tilted>0</tilted></_>
    <_>
      <rects>
        <_>
          19 14 12 1 -1.</_>
        <_>
          22 14 6 1 2.</_></rects>
      <tilted>0</tilted></_>
    <_>
      <rects>
        <_>
          20 13 8 3 -1.</_>
        <_>
          22 13 4 3 2.</_></rects>
      <tilted>0</tilted></_>
    <_>
      <rects>
        <_>
          20 13 9 3 -1.</_>
        <_>
          23 13 3 3 3.</_></rects>
      <tilted>0</tilted></_>
    <_>
      <rects>
        <_>
          22 10 4 8 -1.</_>
        <_>
          24 10 2 8 2.</_></rects>
      <tilted>0</tilted></_>
    <_>
      <rects>
        <_>
          23 10 10 6 -1.</_>
        <_>
          23 10 5 3 2.</_>
        <_>
          28 13 5 3 2.</_></rects>
      <tilted>0</tilted></_>
    <_>
      <rects>
        <_>
          26 16 4 4 -1.</_>
        <_>
          27 16 2 4 2.</_></rects>
      <tilted>0</tilted></_>
    <_>
      <rects>
        <_>
          27 12 16 6 -1.</_>
        <_>
          27 12 8 3 2.</_>
        <_>
          35 15 8 3 2.</_></rects>
      <tilted>0</tilted></_>
    <_>
      <rects>
        <_>
          29 12 14 4 -1.</_>
        <_>
          29 12 7 2 2.</_>
        <_>
          36 14 7 2 2.</_></rects>
      <tilted>0</tilted></_>
    <_>
      <rects>
        <_>
          30 17 12 3 -1.</_>
        <_>
          34 18 4 1 9.</_></rects>
      <tilted>0</tilted></_>
    <_>
      <rects>
        <_>
          31 3 18 12 -1.</_>
        <_>
          31 6 18 6 2.</_></rects>
      <tilted>0</tilted></_>
    <_>
      <rects>
        <_>
          32 3 6 16 -1.</_>
        <_>
          32 11 6 8 2.</_></rects>
      <tilted>0</tilted></_>
    <_>
      <rects>
        <_>
          32 14 8 4 -1.</_>
        <_>
          34 14 4 4 2.</_></rects>
      <tilted>0</tilted></_>
    <_>
      <rects>
        <_>
          33 12 8 4 -1.</_>
        <_>
          33 12 4 2 2.</_>
        <_>
          37 14 4 2 2.</_></rects>
      <tilted>0</tilted></_>
    <_>
      <rects>
        <_>
          36 12 12 4 -1.</_>
        <_>
          36 12 6 2 2.</_>
        <_>
          42 14 6 2 2.</_></rects>
      <tilted>0</tilted></_>
    <_>
      <rects>
        <_>
          37 12 10 4 -1.</_>
        <_>
          37 12 5 2 2.</_>
        <_>
          42 14 5 2 2.</_></rects>
      <tilted>0</tilted></_>
    <_>
      <rects>
        <_>
          37 13 4 5 -1.</_>
        <_>
          38 13 2 5 2.</_></rects>
      <tilted>0</tilted></_>
    <_>
      <rects>
        <_>
          38 7 4 8 -1.</_>
        <_>
          38 11 4 4 2.</_></rects>
      <tilted>0</tilted></_>
    <_>
      <rects>
        <_>
          39 2 4 15 -1.</_>
        <_>
          39 7 4 5 3.</_></rects>
      <tilted>0</tilted></_>
    <_>
      <rects>
        <_>
          40 6 10 10 -1.</_>
        <_>
          40 6 5 5 2.</_>
        <_>
          45 11 5 5 2.</_></rects>
      <tilted>0</tilted></_>
    <_>
      <rects>
        <_>
          40 17 10 2 -1.</_>
        <_>
          45 17 5 2 2.</_></rects>
      <tilted>0</tilted></_>
    <_>
      <rects>
        <_>
          40 17 10 3 -1.</_>
        <_>
          45 17 5 3 2.</_></rects>
      <tilted>0</tilted></_>
    <_>
      <rects>
        <_>
          41 14 8 5 -1.</_>
        <_>
          45 14 4 5 2.</_></rects>
      <tilted>0</tilted></_>
    <_>
      <rects>
        <_>
          44 5 6 12 -1.</_>
        <_>
          44 5 3 6 2.</_>
        <_>
          47 11 3 6 2.</_></rects>
      <tilted>0</tilted></_>
    <_>
      <rects>
        <_>
          44 14 6 6 -1.</_>
        <_>
          47 14 3 6 2.</_></rects>
      <tilted>0</tilted></_>
    <_>
      <rects>
        <_>
          46 16 4 4 -1.</_>
        <_>
          48 16 2 4 2.</_></rects>
      <tilted>0</tilted></_>
    <_>
      <rects>
        <_>
          48 11 2 9 -1.</_>
        <_>
          49 11 1 9 2.</_></rects>
      <tilted>0</tilted></_></features></cascade>
</opencv_storage>
