<?xml version="1.0"?>
<opencv_storage>
<cascade>
  <stageType>BOOST</stageType>
  <featureType>HAAR</featureType>
  <height>40</height>
  <width>100</width>
  <stageParams>
    <boostType>GAB</boostType>
    <minHitRate>9.9500000476837158e-01</minHitRate>
    <maxFalseAlarm>5.0000000000000000e-01</maxFalseAlarm>
    <weightTrimRate>9.4999999999999996e-01</weightTrimRate>
    <maxDepth>1</maxDepth>
    <maxWeakCount>100</maxWeakCount></stageParams>
  <featureParams>
    <maxCatCount>0</maxCatCount>
    <featSize>1</featSize>
    <mode>CORE</mode></featureParams>
  <stageNum>4</stageNum>
  <stages>
    <!-- stage 0 -->
    <_>
      <maxWeakCount>3</maxWeakCount>
      <stageThreshold>-6.8128263950347900e-01</stageThreshold>
      <weakClassifiers>
        <_>
          <internalNodes>
            0 -1 3 9.8287649452686310e-03</internalNodes>
          <leafValues>
            -6.8518519401550293e-01 8.0434781312942505e-01</leafValues></_>
        <_>
          <internalNodes>
            0 -1 0 -1.6956496983766556e-03</internalNodes>
          <leafValues>
            6.7567449808120728e-01 -6.8827748298645020e-01</leafValues></_>
        <_>
          <internalNodes>
            0 -1 12 3.3757034689188004e-02</internalNodes>
          <leafValues>
            -6.7177194356918335e-01 8.3381432294845581e-01</leafValues></_></weakClassifiers></_>
    <!-- stage 1 -->
    <_>
      <maxWeakCount>6</maxWeakCount>
      <stageThreshold>-8.2822382450103760e-01</stageThreshold>
      <weakClassifiers>
        <_>
          <internalNodes>
            0 -1 15 1.5164327342063189e-03</internalNodes>
          <leafValues>
            -7.8034681081771851e-01 5.9471362829208374e-01</leafValues></_>
        <_>
          <internalNodes>
            0 -1 5 1.7712077125906944e-02</internalNodes>
          <leafValues>
            -6.0287111997604370e-01 7.0430308580398560e-01</leafValues></_>
        <_>
          <internalNodes>
            0 -1 13 1.7259752377867699e-02</internalNodes>
          <leafValues>
            -5.7435649633407593e-01 6.9779503345489502e-01</leafValues></_>
        <_>
          <internalNodes>
            0 -1 4 -1.9634526222944260e-02</internalNodes>
          <leafValues>
            6.9536632299423218e-01 -5.4761308431625366e-01</leafValues></_>
        <_>
          <internalNodes>
            0 -1 1 -8.6713247001171112e-03</internalNodes>
          <leafValues>
            8.4790837764739990e-01 -4.6163016557693481e-01</leafValues></_>
        <_>
          <internalNodes>
            0 -1 11 4.3213926255702972e-03</internalNodes>
          <leafValues>
            -3.4794697165489197e-01 8.6644232273101807e-01</leafValues></_></weakClassifiers></_>
    <!-- stage 2 -->
    <_>
      <maxWeakCount>5</maxWeakCount>
      <stageThreshold>-6.0675299167633057e-01</stageThreshold>
      <weakClassifiers>
        <_>
          <internalNodes>
            0 -1 8 6.1269477009773254e-03</internalNodes>
          <leafValues>
            -6.3247865438461304e-01 8.9156627655029297e-01</leafValues></_>
        <_>
          <internalNodes>
            0 -1 10 -3.6898403777740896e-04</internalNodes>
          <leafValues>
            -7.3600739240646362e-01 6.0951232910156250e-01</leafValues></_>
        <_>
          <internalNodes>
            0 -1 14 6.0990406200289726e-04</internalNodes>
          <leafValues>
            -7.3096406459808350e-01 6.8746846914291382e-01</leafValues></_>
        <_>
          <internalNodes>
            0 -1 7 -1.1038862867280841e-03</internalNodes>
          <leafValues>
            9.1346228122711182e-01 -5.5878061056137085e-01</leafValues></_>
        <_>
          <internalNodes>
            0 -1 2 -2.7134665288031101e-03</internalNodes>
          <leafValues>
            7.0595794916152954e-01 -6.1901235580444336e-01</leafValues></_></weakClassifiers></_>
    <!-- stage 3 -->
    <_>
      <maxWeakCount>2</maxWeakCount>
      <stageThreshold>2.8708195313811302e-02</stageThreshold>
      <weakClassifiers>
        <_>
          <internalNodes>
            0 -1 6 -5.8203069493174553e-03</internalNodes>
          <leafValues>
            -9.7044336795806885e-01 1.</leafValues></_>
        <_>
          <internalNodes>
            0 -1 9 -2.8631248278543353e-04</internalNodes>
          <leafValues>
            -9.7129178047180176e-01 1.</leafValues></_></weakClassifiers></_></stages>
  <features>
    <_>
      <rects>
        <_>
          1 30 12 6 -1.</_>
        <_>
          7 30 6 6 2.</_></rects>
      <tilted>0</tilted></_>
    <_>
      <rects>
        <_>
          2 34 96 1 -1.</_>
        <_>
          26 34 48 1 2.</_></rects>
      <tilted>0</tilted></_>
    <_>
      <rects>
        <_>
          3 26 20 9 -1.</_>
        <_>
          8 26 10 9 2.</_></rects>
      <tilted>0</tilted></_>
    <_>
      <rects>
        <_>
          3 36 62 4 -1.</_>
        <_>
          3 38 62 2 2.</_></rects>
      <tilted>0</tilted></_>
    <_>
      <rects>
        <_>
          11 15 17 14 -1.</_>
        <_>
          11 22 17 7 2.</_></rects>
      <tilted>0</tilted></_>
    <_>
      <rects>
        <_>
          16 36 74 4 -1.</_>
        <_>
          16 38 74 2 2.</_></rects>
      <tilted>0</tilted></_>
    <_>
      <rects>
        <_>
          29 23 21 16 -1.</_>
        <_>
          36 23 7 16 3.</_></rects>
      <tilted>0</tilted></_>
    <_>
      <rects>
        <_>
          32 30 3 9 -1.</_>
        <_>
          32 33 3 3 3.</_></rects>
      <tilted>0</tilted></_>
    <_>
      <rects>
        <_>
          40 25 48 8 -1.</_>
        <_>
          40 25 24 4 2.</_>
        <_>
          64 29 24 4 2.</_></rects>
      <tilted>0</tilted></_>
    <_>
      <rects>
        <_>
          48 25 6 4 -1.</_>
        <_>
          48 25 3 2 2.</_>
        <_>
          51 27 3 2 2.</_></rects>
      <tilted>0</tilted></_>
    <_>
      <rects>
        <_>
          52 26 10 6 -1.</_>
        <_>
          52 26 5 3 2.</_>
        <_>
          57 29 5 3 2.</_></rects>
      <tilted>0</tilted></_>
    <_>
      <rects>
        <_>
          69 30 15 4 -1.</_>
        <_>
          74 30 5 4 3.</_></rects>
      <tilted>0</tilted></_>
    <_>
      <rects>
        <_>
          72 4 17 27 -1.</_>
        <_>
          72 13 17 9 3.</_></rects>
      <tilted>0</tilted></_>
    <_>
      <rects>
        <_>
          73 11 22 16 -1.</_>
        <_>
          73 15 22 8 2.</_></rects>
      <tilted>0</tilted></_>
    <_>
      <rects>
        <_>
          80 36 20 1 -1.</_>
        <_>
          90 36 10 1 2.</_></rects>
      <tilted>0</tilted></_>
    <_>
      <rects>
        <_>
          88 31 12 7 -1.</_>
        <_>
          94 31 6 7 2.</_></rects>
      <tilted>0</tilted></_></features></cascade>
</opencv_storage>
