<?xml version="1.0"?>
<opencv_storage>
<stage11>
  <maxWeakCount>9</maxWeakCount>
  <stageThreshold>-1.0010980367660522e+00</stageThreshold>
  <weakClassifiers>
    <_>
      <internalNodes>
        0 -1 596244 2.3543999996036291e-03</internalNodes>
      <leafValues>
        -5.5671900510787964e-01 5.2422904968261719e-01</leafValues></_>
    <_>
      <internalNodes>
        0 -1 186283 1.3602646067738533e-02</internalNodes>
      <leafValues>
        -4.9276983737945557e-01 4.6151345968246460e-01</leafValues></_>
    <_>
      <internalNodes>
        0 -1 14726 -1.3853875920176506e-02</internalNodes>
      <leafValues>
        6.5383780002593994e-01 -3.3842194080352783e-01</leafValues></_>
    <_>
      <internalNodes>
        0 -1 633054 1.6520819626748562e-03</internalNodes>
      <leafValues>
        -3.9919862151145935e-01 6.2881243228912354e-01</leafValues></_>
    <_>
      <internalNodes>
        0 -1 402287 3.4134965389966965e-03</internalNodes>
      <leafValues>
        3.1859838962554932e-01 -7.9973143339157104e-01</leafValues></_>
    <_>
      <internalNodes>
        0 -1 482219 1.0899184271693230e-03</internalNodes>
      <leafValues>
        -4.5644691586494446e-01 4.4203001260757446e-01</leafValues></_>
    <_>
      <internalNodes>
        0 -1 227092 1.8653334118425846e-03</internalNodes>
      <leafValues>
        -2.8475654125213623e-01 7.0788627862930298e-01</leafValues></_>
    <_>
      <internalNodes>
        0 -1 589915 2.0285460632294416e-03</internalNodes>
      <leafValues>
        -2.8687837719917297e-01 7.8822565078735352e-01</leafValues></_>
    <_>
      <internalNodes>
        0 -1 567742 -4.5904899016022682e-03</internalNodes>
      <leafValues>
        7.2308796644210815e-01 -3.7635394930839539e-01</leafValues></_></weakClassifiers></stage11>
</opencv_storage>
