<?xml version="1.0"?>
<opencv_storage>
<stage7>
  <maxWeakCount>11</maxWeakCount>
  <stageThreshold>-1.1690565347671509e+00</stageThreshold>
  <weakClassifiers>
    <_>
      <internalNodes>
        0 -1 37795 5.2300114184617996e-03</internalNodes>
      <leafValues>
        -6.1904764175415039e-01 3.3333334326744080e-01</leafValues></_>
    <_>
      <internalNodes>
        0 -1 14605 6.3617676496505737e-03</internalNodes>
      <leafValues>
        -2.9379880428314209e-01 6.5087550878524780e-01</leafValues></_>
    <_>
      <internalNodes>
        0 -1 4983 -8.7269917130470276e-02</internalNodes>
      <leafValues>
        3.4585487842559814e-01 -5.7380652427673340e-01</leafValues></_>
    <_>
      <internalNodes>
        0 -1 14603 -3.9694970473647118e-03</internalNodes>
      <leafValues>
        7.5144863128662109e-01 -1.9401681423187256e-01</leafValues></_>
    <_>
      <internalNodes>
        0 -1 36403 6.5892459824681282e-03</internalNodes>
      <leafValues>
        -3.5751834511756897e-01 4.3083065748214722e-01</leafValues></_>
    <_>
      <internalNodes>
        0 -1 6170 -6.0309300897642970e-04</internalNodes>
      <leafValues>
        2.3974384367465973e-01 -5.2416086196899414e-01</leafValues></_>
    <_>
      <internalNodes>
        0 -1 34690 2.5853107217699289e-03</internalNodes>
      <leafValues>
        1.0832074284553528e-01 -8.4357118606567383e-01</leafValues></_>
    <_>
      <internalNodes>
        0 -1 22297 -4.0134275332093239e-03</internalNodes>
      <leafValues>
        -7.1147096157073975e-01 1.8705883622169495e-01</leafValues></_>
    <_>
      <internalNodes>
        0 -1 11926 2.0725324749946594e-02</internalNodes>
      <leafValues>
        -2.9195863008499146e-01 4.7094401717185974e-01</leafValues></_>
    <_>
      <internalNodes>
        0 -1 13951 -4.4402061030268669e-03</internalNodes>
      <leafValues>
        3.6651408672332764e-01 -4.0468087792396545e-01</leafValues></_>
    <_>
      <internalNodes>
        0 -1 26917 8.8150950614362955e-04</internalNodes>
      <leafValues>
        2.5956979393959045e-01 -6.6020870208740234e-01</leafValues></_></weakClassifiers></stage7>
</opencv_storage>
